[[[0.017739791178972595, -0.004938010756113737, 0.02313173350359616, 0.05439392344314376, -0.008362620525833427, -0.008362034176756447, 0.05640045769669255, 0.027408383184032454, -0.01676694235481972, 0.01937714441378445, -0.016550631886159364, -0.01663320548465203, 0.008649677657349461, -0.06823245613355049, -0.061513963790860625, -0.020077937284842876, -0.036172540011943706, 0.01122311902125978, -0.03242943126861468, -0.05043941790483184, 0.0523445988900555, -0.008063439303090558, 0.0024117215959972797, -0.05088386379333774, -0.019442240161613666, 0.003961521061066646, -0.04110691347936796, 0.013417786369488283, -0.02145138178281446, -0.010417633921188456, -0.021489521865335603, 0.06615279230389064, -0.00048041809049621114, -0.03776877879589402, 0.029507015358632233, -0.043297484145333645, 0.007826715418533456, -0.06938962248556799, -0.04631713621796409, 0.008666988986782956, 0.02801790994388014, 0.007533890437584935, -0.0026112580568408384, -0.009506557175310518, -0.051608849212697275, -0.024572495233861055, -0.015715524742575756, 0.038240560324621684, 0.012704781038372961, -0.06275680642026774, 0.01170075379543273, -0.013712387291662109, -0.02417578572521281, 0.02184558174431671, 0.03682141151771253, 0.03326000425414995, -0.029972054400808516, -0.011043299137543377, 0.011832032472766157, 0.03484404569389268, -0.017054018898624738, -0.006595721777832419, -0.03885275356827526, -0.0371685230620401, 0.037338619384644375, 0.05674032232714453, 0.008548317827140349, 0.051402267274473445, 0.034132961416515784, 0.008421627675973476, 0.0610676790272789, 0.10181246255559367, 0.030817899601105023, 0.07784052354107766, -0.07638556438727503, 0.04325422458933109, 0.012448932911762852, -0.005014690282410795, 0.005425241347136462, -0.07035086736290692, -0.00756786329255589, 0.01285016026471733, 0.05278193016933986, -0.01850965065263026, -0.028874771531899556, -0.017919894413733446, 0.03269663421583444, 0.011782062172557709, -0.01889982740017319, 0.01865036774880653, 0.010014500302373913, 0.050992141718011544, -0.001891577057792354, 0.02413773954371239, 0.037658171452786826, 0.02003005926807687, 0.10134717305778551, 0.1275512736934764, 0.13954058165836583, 0.12413247166286608, 0.057587954666359915, 0.07616370707193576, 0.06229654278361187, 0.022654021715798504, 0.020932879902354012, 0.027184890441399205, 0.07190079657943167, 0.007480391245895163, 0.009890666157273286, -0.002621912980049388, -0.0685241822893769, -0.0009469241231863171, 0.00215107892646523, 0.08797039021705536, -0.0068680811073206114, 0.01081649903273657, -0.0011163452138065622, -0.03967980438342316, 0.05371880670226056, 0.05401838845421307, 0.066221946001268, 0.03954176983579494, 0.1644117406243478, 0.10744778671979381, 0.20795076163253853, 0.31004993030121364, 0.2153663649568637, 0.21965130905530886, 0.22598102242914472, 0.16563457618741978, 0.07769973720089696, 0.08014883827879678, 0.00816601878627054, 0.04049564029761564, -0.02524062066482602, 0.051404770167833666, -0.03107017737374441, -0.012365172659584887, 0.02890315404123402, -0.04395751694831284, 0.008123569093004622, 0.046683669795801, -0.05737546192685925, 0.006623007663550057, 0.010477865585180953, 0.04021076353633951, -0.018731245348447122, -0.004326880798635041, 0.09602643146943918, 0.12913512522184542, 0.17026669457294857, 0.21191075369544635, 0.2111913152439085, 0.2632329272456276, 0.2630535862041268, 0.21167525723151237, 0.29779675089919666, 0.22040579867533355, 0.10041159032217116, 0.10178773170041601, -0.0027378311644729292, 0.03909811058866552, 0.03932087804252109, -0.04190884781233082, 0.026636382180792062, 0.012296390279058617, 0.02901642313955124, 0.06774597582487853, -0.008763861285816804, -0.02691918814636559, -0.03176145286150963, -0.02934670875879478, -0.00020695833844758702, 0.028655712794115527, 0.04412566000657316, 0.09046920632010173, 0.08693413039383151, 0.16924619732434396, 0.14204818201876182, 0.27261019359905037, 0.20926837559914258, 0.14061654674270133, 0.10764029625821733, 0.15704904783273818, 0.14830500477133637, 0.17085803658417567, 0.12876018395125408, 0.06059878060266374, -0.01380197348915494, -0.05850553462320724, -0.0236161373337538, 0.014489427590275755, -0.0034216587923261745, -0.047959837657001125, 0.005084796849782086, 0.01371499873427891, -0.031566337007183316, 0.005482068564431468, 0.00214436894762766, -0.04130054913819275, 0.015270182529835568, 0.035732111802164825, 0.07789093576460444, 0.10093691660126744, 0.035594703593329, 0.06775703436707106, 0.12931502971672362, 0.14454953232074916, 0.14059754716222206, 0.2397949810179906, 0.11526024996288761, 0.1412514013178592, 0.16641992751903825, 0.15453648584903568, 0.090124471281807, 0.09010858967225635, -0.008414269999437429, -0.015574590665791777, -0.02459587884095286, -0.014828671993275021, 0.06739254632438135, -0.07396012192900026, 0.02261113613704385, -0.05765038865727718, -0.016844627769324494, 0.0388838919646534, 0.002368018232789739, -0.03928608339535896, -0.02740834549231711, 0.03502584299559175, 0.015046946791222444, 0.07454392793379276, 0.06801364803076793, 0.047391215714327244, 0.167900116985719, 0.11542682116513846, 0.005389377822407867, 0.072842748169592, 0.07368588966779524, 0.1406259843996594, 0.10017747232351235, 0.1258999997749702, 0.12491771924043321, 0.10614316396154864, -0.007619633354093419, -0.003945164431203278, -0.027305080481963794, -0.04492804025171341, 0.042394296116541205, 0.007211415428373725, -0.0461039855934784, 0.03270150339594234, 0.07579129275045118, 0.03652943329708199, -0.055356138940885674, -0.01921713784633227, 0.03955458733394644, -0.02029560912389642, 0.043199768527432, 0.06613324957619618, 0.0019312334525720548, 0.049748588498917015, -0.04844706581262133, 0.02597684745149605, 0.04515577598713477, 0.028147743412358792, 0.14864366378053226, 0.05412434462551687, 0.1025021304582115, 0.13077687518662248, 0.15704910469136174, 0.027746099412051948, 0.09401089177579838, 0.02879399918149068, -0.03468898712451413, 0.0033240063539881, -0.007957997362661515, -0.027958631806445835, 0.0012442894422874072, -0.013863430940514329, 0.00405416933120799, 0.023397930717259346, 0.05533063681980457, -0.04691599201226355, 0.0660095647395268, -0.07243454283680362, -0.002318801212244597, 0.024119873784503153, 0.023624977018354816, 0.01686484598153877, 0.029267550223466474, 0.015736303480939132, 0.015207251515862871, 0.07898057682359841, 0.0630719309927219, 0.0431158929548076, 0.13458784491252687, 0.13824063304089873, 0.1441642822511178, 0.10565264704898014, 0.04675718215494373, 0.03398657035396107, 0.05651964805968104, 0.02432605354753868, -0.007090434481751415, -0.0004155676117402855, 0.0446901770606262, -0.021240077304822698, 0.01953643114499042, -0.007253415677634997, -0.007976825519317707, 0.03594511745897645, 0.02050789362707266, 0.020870176126745316, 0.040072234188136546, 0.004081255231962129, 0.03629488954270212, 0.01920432661298023, 0.029885256875624364, 0.0008039754677391237, 0.009254673843337806, 0.02114795153942031, -0.020505670060997155, 0.11818262895282614, 0.07181973733161924, 0.0825097238940953, 0.16081106505230805, 0.1338016476522846, 0.12195274745165487, 0.10358800221255504, 0.05482699229909553, -0.014258503874219714, 0.0045864574817107455, -0.026087119583609306, 0.03380660921718437, -0.005388664568943572, -0.029482042742589698, -0.01148523543813614, 0.014691913274361056, -0.024707634519718944, -0.03916932573797973, 0.0037590437254965575, -0.0026517616512592764, -0.019915129950212773, 0.002842359177778571, 0.046588348517919154, -0.037283682147987086, -0.04647418760564046, -0.040862559624927595, -0.03154084666405802, 0.0077486444004873645, 0.11881452500175937, 0.15236859967960528, 0.12874636816611745, 0.12284027002831698, 0.08874762958757666, 0.1154571470487788, 0.0848401532069279, 0.0765295643972711, 0.0037598915497990657, 0.03368208369603373, 0.054865972372699384, -0.005222998780270015, 0.013804081019385333, 0.024648714312037533, -0.014328796154776379, 0.007976845980668881, -0.004194817911850815, -0.009599057431256414, -0.03517186028387086, -0.00566005607061733, 0.03722223090830706, 0.09816327600276892, 0.09339532031272096, 0.12672879508267365, -0.005259150669374249, 0.028759895483231716, 0.006441731384153264, 0.13871027779643785, 0.08839679511091347, 0.11028532239035493, 0.12637741836047262, 0.0672218405392534, 0.10674915290513988, 0.08586018889478923, 0.10199349027179823, 0.08685540505699357, 0.11659159359181999, 0.061864321926538186, -0.013324293684698832, -0.03169556224278146, 0.017591789592017886, -0.0471541590793795, 0.06539656222231491, 0.04210488780318798, -0.020087163990651375, -0.07182117293239515, 0.04459949311246972, 0.005908932553103572, 0.09162522764037596, 0.03870928370194186, 0.11023411041791327, 0.13106737420223907, 0.0989331645925775, 0.05807631828637924, 0.12483193905469955, 0.115349094997722, 0.17045888610882387, 0.16021938144283593, 0.16276577115342075, 0.1760653774002204, 0.08077835759116249, 0.054286429088150547, 0.14859390901371325, 0.09826969793661249, 0.031164983976460437, 0.08960874139061367, 0.011985016401912843, 0.043226136988070235, 0.0024300213910427655, 0.0735971666767355, 0.06268681165105433, -0.008932757886184393, 0.030589165681206898, 0.01799569553993026, 0.06094898306111174, 0.006427188192038261, 0.12453349875046756, 0.20058024465721447, 0.14966959275122146, 0.17783912646779146, 0.11108385768276542, 0.1660703546163919, 0.22416719546788152, 0.28919916489908476, 0.21582923867318154, 0.2197245947666238, 0.09859027912200814, 0.08282957225643771, 0.10777360968940902, 0.11387016919189616, 0.10982838684547434, 0.00835586701019355, 0.058085005509129, -0.015375558764766125, 0.03286503094407772, 0.014660860983660014, -0.03342997063297189, -0.018352389904881913, -0.0378346905355227, -0.002372859297471608, 0.03171566772880947, -0.030980242452901194, 0.04986048729309112, 0.05921532969834366, 0.11345910996282732, 0.20777914638768724, 0.23293337205596895, 0.2615395173232707, 0.21299422495653414, 0.3169005712948163, 0.26378835480584706, 0.23317403576628254, 0.2136165538145711, 0.15123645102841685, 0.13236799806080807, 0.15614518780587328, 0.15824485510507977, 0.10961051556791153, 0.09750665506297877, 0.07796367951818775, -0.015707641325036697, -0.014215507510003387, 0.06477153868089566, 0.060584215581294405, -0.008683999003111119, 0.020591320109134514, 0.011100960070463779, 0.10974065359372898, 0.03965508840001201, 0.014254636034281948, 0.01872174823914891, 0.04744630826588426, 0.18048184886922766, 0.213408090070991, 0.2347916405711145, 0.2836346475977024, 0.2568798240264581, 0.3408884598304283, 0.32312534516310065, 0.27246883037358993, 0.26546876916262563, 0.17718635754940817, 0.12041248114334974, 0.2060078720719246, 0.1935149638687218, 0.1311711996796087, 0.13453737694314946, 0.07333907061081558, 0.027526085290676384, 0.08437832643695653, 0.09182183510096938, -0.04809480595159272, 0.020154805861038412, -0.023238545589076922, -0.017410598791848947, -0.021554775198873322, -0.027493833083056914, 0.03301616437651376, 0.03664240380684666, 0.12474897566452876, 0.17985199455988804, 0.2370007295271597, 0.269440398311406, 0.30132715438013064, 0.35369111278568405, 0.3439764856295326, 0.29193086727355316, 0.290097260598488, 0.2591402620204215, 0.14617521671246944, 0.2114463973249592, 0.17069675482930313, 0.218968537625266, 0.14178020535848274, 0.07594297049618576, 0.0558621914212191, 0.08308347483370158, 0.0622727379361628, -0.012761130961477286, 0.02445187059713336, -0.0592404854046351, -0.002359674006665133, -0.0432562523359652, -0.024244429474138487, 0.007869382683126319, 0.002165710235236871, 0.047204837882153815, 0.14804665803805533, 0.14998978808901647, 0.2606369218122949, 0.2627628624722073, 0.35960934923244553, 0.42493438742316286, 0.3011028708195336, 0.34869507723716453, 0.34447075937523075, 0.2706609269990715, 0.2649516397027634, 0.2230271798194878, 0.23540421030448333, 0.21600141461010283, 0.22296887457487383, 0.14945949390998267, 0.1262249095214791, 0.06253668110729424, 0.032743338888038036, 3.354455793917156e-06, 0.015674366985097245, -0.014957103767970686, 0.010349102032014744, 0.07412237807131868, 0.0300943398307701, -0.006378458747254137, 0.07003777391936541, 0.033904289607239325, 0.020524447964444522, 0.11415041778503382, 0.13505219324485324, 0.2595895837856688, 0.3199025777458764, 0.431421879348718, 0.4229860165519896, 0.3941576228512841, 0.3800031493858878, 0.21588296822876563, 0.2780393241590114, 0.28165121686402067, 0.17954578331138435, 0.2586302840753486, 0.19114144141866118, 0.11376021843268155, 0.11599013178679249, 0.15340552603029883, 0.05793513740394831, 0.020069414062588956, -0.015359430497765184, -0.030351779427675075, 0.029655468774161604, -0.030561690435783134, 0.0024942557268103635, -0.012568364525620738, 0.03392545927940357, 0.043873827582124623, 0.1007955736404646, 0.09082690233405681, 0.14067915115247137, 0.16805361227667132, 0.20432131878334545, 0.27627831395238056, 0.3126583378403834, 0.2531067187203445, 0.2917738532740981, 0.2758003154149679, 0.21772955725340265, 0.24901073615767916, 0.1316742950354966, 0.10005548834412556, 0.05807447010771373, 0.14249123599985056, 0.09092156014586894, 0.05060592118829874, 0.040028992363583614, -0.033069046276914066, 0.08774069857808259, 0.004616389374127278, 0.003907555815242449, 0.02591993575496964, 0.01721668669395538, 0.008509222083503385, -0.023631693606228524, 0.030030653042250846, 0.10089625404590032, 0.1095472758311199, 0.14044364311575178, 0.0859697206689127, 0.07006391995042963, 0.07612164778676224, 0.07905842555657, 0.11172387012214446, -0.012354949286751567, 0.09465092106036013, 0.0265226020772044, 0.024515006471602048, 0.014882375161708422, -0.007338936611991828, 0.07927391841615221, 0.044048098106769455, -0.01284047051661316, -0.023464012048254553, -0.0011761872903353645, 0.058380345760605544, -0.009249515345101194, -0.05368118983111898, -0.00877653800306943, -0.009740127490988222, -0.09633794072865819, -0.002603675307131874, -0.009750597715183877, 0.023200147294878633, 0.06742762484139954, 0.04940105321363363, 0.002191494765401509, -0.03663807787824197, 0.08438812256641341, -0.03258684192259195, -0.056842005897274936, -0.07441184267291147, -0.06397736990843711, -0.06832643226103517, -0.07393210429846878, -0.04811086090247655, -0.01127844687561574, -0.025223796670459226, -0.025101384233697118, 0.004214670748552574, -0.007043789319418609, 0.056647405268549146, -0.09576830173064109, 0.037464408277081675, 0.044498325444471645, -0.07404965115743391, -0.012238842645726741, -0.013265745214135408, -0.050279237008289325, -0.02827057304221284, -0.04173355880485774, 0.05830338170866699, 0.024679951768187092, 0.028190759748734504, 0.004861994270537478, -0.07266220414702004, -0.061560337621043, -0.03242075827953913, -0.09610593637913609, -0.031652380158595, -0.05902204258829767, -0.05502391625883115, -0.00922943893166543, -0.012100820334463695, -0.02848512653254197, 0.021709367106313552, -0.05719965528086616, 0.008358556893912938, 0.011444305816757766, -0.013913236865710575, 0.01117156190184874, -0.04458024776643321, 0.03300115565812878, -0.006603647730106751, -0.01866867930425141, 0.03746461520846033, -0.02515740291923368, -0.050328548235307274, -0.055819576727451053, 0.020668764854275785, -0.04836085612846705, 0.05716671025480524, -0.08237331638025923, 0.04966002112126589, -0.007207289059497054, -0.018817722035219805, -0.034948498523395835, -0.0014536771300236323, -0.0187737736958249, 0.022449163893806207, -0.01540487426867249, -0.007829443954765213, -0.021696713665778942, -0.0093528136567361, 0.005456611173882425, -0.06713636243579336, -0.052791444623662545, 0.02496140262463051, 0.005977225276331528, -0.006570833441167111, 0.00065835475233547, 0.012413632334345394, -0.01927713143962005, -0.02779659733579688, 0.00699447339634577, -0.03494363287585526, 0.014532763774633566, -0.06093491974609196, 0.03641111103379118, 0.01628339575065815, 0.008289334889302325, 0.03365413042484558, 0.05688605061055414, 0.03328737325923756, -0.06832712956262849, -0.04841436771527931, -0.025057543473100855, -0.0021193337642730894, 0.015447388150781968, -0.02777806152033741, 0.0055487467720041275, -0.028144160962127324, -0.022625112832363313, -0.05049557143496031, -0.03306963135106719, -0.04827978427562995, -0.034852616177761885, 0.03763006416456569, -0.03390710317256939, 0.09401364517276395, 0.017618496460031757, 0.006601290131959782, -0.030655635006471903, 0.02501106712174968, -0.020559957033713102, 0.004352165480295507, 0.09142376969333373, -0.003442552981752441, 0.041033714824872475, -0.025121869536003382, -0.0012868138106043212, 0.06318595988366557, -0.022939363822711705, 0.06452490337092436, 0.024991577550430744, -0.0207791881788656, 0.021508618053381685, 0.03442416401648855, 0.02209975747829197, -0.0563330868032503, -0.026066103047520103, -0.008843798859335589, -0.002668723000236416, 0.02216437533240724, 0.00634646431904478, -0.04769086995393219, 0.0135784946787844, 0.02180663376013654, 0.4473619610295727, 12.288300097512113, 3.996091841575889], [0.019992515997537135, 0.03859931162695077, 0.029782934091032286, 0.016399288543872736, -0.00250591826638025, -0.05932003333985682, 0.015343507826163779, 0.007417417398682541, 0.009699244185549053, -0.04559816342215391, -0.03860916215743794, 0.03761260190474655, -0.001414967707007213, 0.024334310234784332, 0.0010113705760878323, 0.0010627192677051154, 0.0335101359277142, -0.01843016886490621, 0.003432884890749408, -0.01650983173946581, -0.015517722408296984, -0.011041861552451406, 0.007933348986918312, -0.017098165059409896, 0.044848433056197165, -0.03195026079355371, -0.006673987291477108, -0.015704680652649104, 0.05167778158406189, 0.00701981344684195, 0.036851590695308384, -0.053055727608463284, 0.00953683990406443, 0.031770089955186, 0.0029177548073096274, 0.03800081369399054, -0.018551009319139066, 0.05021652085663343, 0.08184724811051947, -0.013234357333879627, -0.016189407465862705, 0.05164860621847737, 0.05621443829522081, -0.018794809288651886, -0.015157946381108709, -0.010278822619561633, -0.04823137134120902, -0.03294129356422725, -0.03597120922905933, -0.027493050793701092, -0.0012808865095468361, 0.00836188682477317, 0.05537501760050274, -0.03565550145495682, 0.035154371374163704, -0.007642458722339605, -0.0017665610590154618, 0.024100696148807266, -0.040097337867887564, 0.013657490935144664, 0.005933912304287331, 0.017580197652162847, 0.010189305132648912, 0.08688355745320518, -0.024009160226147953, -0.020469651616804495, -0.02465094341449313, -0.022787685830486515, -0.02489599013759038, 0.0389963725309418, 0.04550848106495543, -0.024055726717612184, -0.03197125886233938, 0.014052747048517602, -0.023123168494988616, 0.020234333214800615, 0.005971763087679503, -0.05503178756845123, 0.05473414331814879, 0.06399694093600115, -0.021930267582749827, -0.013864168672505416, 0.010209478240175183, 0.01194488535667947, 0.023519438309743942, 0.07179301924165533, -0.006317930014180938, -0.02851794795593253, -0.04926637554235965, -0.026173892870464628, -0.0019395944532098102, 0.06192956655650729, -0.02258535814948765, 0.001686895632342435, -0.008954011760492294, 0.03207173181185088, 0.07885526446783377, -0.03275788807233146, -0.03341564447933223, 0.022092495987002084, 0.010705804551305289, 0.0500779938892537, 0.006139727998127943, -0.02376088528631455, 0.014702369055242751, 0.035803566726191394, 0.02833829349345897, 0.01763868160215261, 0.03776418162114335, 0.04169356349161221, 0.04934837369613511, 0.023168210271058663, -0.005968502868459084, 0.005239774515475815, 0.04309596885310953, -0.02917914761834323, 0.013090017140344405, -0.014906001704468782, -0.0020598642451024906, 0.03927164518444553, -0.0035733033421594756, -0.014603564310029146, -0.07103975985646609, 0.0026878417853985035, 0.022067417349663804, 0.10198923605953843, 0.025538587003889914, 0.033384386984260904, 0.021510419575580027, 0.05169726589799136, -0.02474258903040297, -0.0125808296564292, 0.0067943019304952754, -0.0021941728984295143, -0.017535776186914123, 0.006546092813921361, 0.03760657282257858, -0.036953245602183576, 0.004671201699572692, -0.025009681775354772, 0.0426802367473158, -0.054399532313706235, -0.019965717869830337, 0.013424093891517615, 0.05554370704634758, -0.005515989887964938, -0.027064993073592777, 0.053110069848717724, -0.07311906268250987, -0.11033197400960992, -0.026245314828712774, -0.05828293940260431, -0.03910794404995319, 0.06765779647818798, 0.07374506268707005, 0.04970034617079765, -0.024080338406825323, 0.010210158394969469, -0.024506786380263944, -0.05178119863878618, 0.02798531705264993, -0.061220118431152555, -0.0697951657657492, -0.03411567623949365, -0.005364744485412245, 0.007732845911384593, -0.008870265218371646, 0.012572568595855265, -0.04469783657823015, 0.05156223444734047, -0.0029462052453958294, 0.03977225361714859, 0.011121262005141267, 0.01111545444666316, 0.0076433069364545796, -0.004570026083460768, -0.012649767384341003, -0.0035157414671292695, -0.0478519775215282, -0.01503773535552214, -0.005524228454580452, 0.12256811274777296, 0.09382496301609815, 0.17361451338541137, 0.047819688898890614, -0.06395113372195008, -0.03130261103831742, -0.06320278022933666, -0.008710469068072692, -0.05767208099353099, -0.04220182213300351, -0.08795238320417585, -0.02941617617897535, -0.09169500864952017, -0.060021659495447625, 0.027018965522298835, 0.028063999756714125, 0.015163804381964999, -0.03457607135443479, -0.0017140773644368128, -0.002348302130845427, -0.04899063493708991, 0.03792786171563207, 0.001268594297932372, -0.05399175831026852, -0.049143725541348375, -0.03208439582720731, -0.0974365150335865, 0.013592724146321669, 0.09176095592113188, 0.145161587173262, 0.15139569122436258, 0.1427259372409705, 0.02522733057115002, -0.035544305005209074, -0.0025854630398556458, 0.01567633156686922, -0.00732149854719109, -0.03943020740626807, -0.05850486518871876, 0.001093097636002761, 0.0011105668436447638, 0.027699601971696648, 0.02255405988648576, 0.037474788872576735, -0.019130694494419738, 0.046926894047269636, 0.006610281975224087, 0.07157278756031919, -0.03558152808111266, 0.04188913116839948, -0.027861291034100163, -0.06022003842950138, -0.04214480513116022, -0.015672505820518223, 0.03014885149382997, 0.08846081497140111, 0.12463243643446205, 0.20182945329413787, 0.25190942951736617, 0.1292650962032177, 0.026935266890232054, 0.003955567618828922, 0.0020108998995023364, 0.004478814130173602, -0.06538165539261952, -0.0385281751807233, -0.09059535497474412, -0.011060467404291304, 0.01021623309843848, -0.0207835756957911, 0.05608820411649588, -0.04376495635005864, -0.052261286441614395, 0.00781527594471337, 0.03673169237659673, 0.058279044272998216, -0.027345940726200658, 0.018378667616022654, -0.024093059020206163, -0.018685133882815726, 0.039342946202609856, 0.05706818977908873, 0.0011174022959391404, 0.1291381548362569, 0.1727811862870488, 0.17802357717820708, 0.19051865732107556, 0.08792799705547659, 0.04013977313930385, 0.006358322953058426, 0.00268406067742641, 0.007789956061426467, 0.025840589397339887, -0.0012322589768570245, -0.03910423066872103, 0.005932202323569684, -0.11482274814039053, 0.03910548350188111, -0.06220156843545079, -0.012929686964059392, -0.039945321244488, -0.04654999776162658, 0.04134197296278082, -0.015319032786136676, 0.008398247496517115, -0.008401876120750508, 0.012888489248907611, 0.016842134366771712, -0.004716496298447384, 0.1019712478134942, 0.051539285608465546, 0.002084468459675012, 0.10274592789971781, 0.2779541716658861, 0.23038206462984737, 0.07775326347920587, 0.043282961035044046, 0.036789505179368215, 0.12624267797184938, 0.040319197083410786, 0.023005846723063654, 0.03479883217515518, -0.0024232572195509562, -0.020203313974825072, -0.014014815030368572, -0.003224268079292606, -0.0013986995978413632, 0.025989125749899804, 0.0018714287597430444, 0.025873829152440304, -0.002335673539113651, 0.006022324131823133, -0.06923452587786579, 0.03280653044478578, 0.01969796082090678, 0.06851821125392375, -0.04626903606591341, 0.1537702958877608, 0.05259533286610016, 0.06104771450603512, 0.06636620271586904, 0.26131717970109347, 0.17368492165222052, 0.08136121992844784, 0.15597185226700264, 0.07571166167268908, 0.07658390723980645, 0.06997785490075303, 0.0345181430401165, 0.007455944899025852, 0.008569676738272103, 0.07976978892329376, -0.007985050679553185, 0.006961737718858257, 0.03754729579911497, 0.03948392065075789, 0.04239325274622205, 0.022594653571996307, -0.03956884077390383, 0.06198872450360942, -0.03538830657451038, 0.01817873038555906, -0.005599833596334252, 0.03939930758228087, 0.072452586834674, 0.0816634863734537, 0.04056135550299257, 0.04513837144757702, 0.13242351437229938, 0.250318143901596, 0.2619021549859067, 0.16748083502648706, 0.06512650774910005, 0.1113551150835413, 0.08896682311645225, 0.021435737354988937, 0.0639283959764092, -0.00384494111867261, 0.0029367611284363995, -0.013389463325936967, -0.002690674795216528, -0.03897064629653266, -0.05127288689060587, 0.05695479688213826, -0.03024826039912514, -0.03525391644719492, -0.07495798591636106, -0.016323583843881433, -0.0375968317184764, 0.07128462613533663, 0.05985040775008546, 0.021545486368534907, 0.13817796712206173, 0.09286010736822145, -0.003370219626527706, -0.09457765785528427, 0.2327339001069161, 0.23492236659397206, 0.1866353580078598, 0.18032999803583608, 0.20554400904257467, 0.1411647820306529, 0.06862120519300371, 0.0380867808394514, 0.03428688278151016, 0.02334208604771309, 0.0035960078306612195, -0.0035885045867212156, -0.004818940040367969, -0.026966872706725355, -0.01002423199975229, -0.060462743364120906, -0.0035135450489292342, -0.034988003154467165, -0.03749788497781639, 0.013371035150250675, 0.06138519820492171, 0.04837246622799475, -0.030954317304326892, 0.006955006723428219, 0.08051910269441076, 0.0008554919187100501, -0.003102188300077314, 0.0425079732603006, 0.15424198821032786, 0.2879925055278806, 0.19433393324556444, 0.13395887422641106, 0.13880778164537338, 0.011148124226832923, 0.04073838221902302, 0.003964994516449432, 0.016279782910583962, -0.00030665151843783147, 0.03988499699762561, -0.0008345349111171574, -0.017145384308047067, 0.0041704565446007355, 0.019399000214876474, 0.001744986051183547, 0.0014465407864492376, -0.024935002751902715, -0.02024889227007654, -0.044097581063542265, 0.07329088486693935, -0.030977975577479448, -0.004825003239368398, 0.008528969253361926, 0.06638215908334773, 0.003293218811467153, 0.04602907639287576, 0.006740955376188554, 0.20033028059088803, 0.24209290734470668, 0.32095473022750237, 0.11250116266123683, 0.11169298588062716, 0.054078346083772016, 0.020132932971619097, -0.011674619121865413, -0.01682596774046886, -0.008350962021590212, -0.013615030437865036, 0.030778357439914653, 0.0775742601722365, -0.020268457628825527, -0.048937825116122866, -0.0031530243579662447, 0.09212442224701865, -0.028819506031704443, 0.061084394370491873, 0.06372689357926033, -0.015074102535343848, 0.02276329483425976, 0.06856710078060708, 0.005469398946191508, 0.01371875157932548, -0.01017560408813769, -0.035059317092997505, 0.018425938996434136, 0.1580820618721438, 0.2950710342246963, 0.22166304878911547, 0.13304741141425447, -0.0129180259689106, 0.004079582471012447, 0.0073490863222952785, -0.08916353355145976, -0.004290004648156646, 0.027666369677049732, -0.058454376318436634, 0.05219006950727828, 0.012116894830611579, -0.025612937129774076, -0.001998598547468959, 0.019940246875775797, 0.0027153101090841665, 0.01908984838267, -0.03165482837965574, 0.005163249271303826, -0.05484229372525035, -0.01455697130497424, -0.037731028862299947, -0.030427021087297137, 0.04203760209305539, 0.034940342984129236, 0.004655966844702063, 0.002414531629263301, 0.2011831040016922, 0.3721612848063687, 0.23624681727743232, 0.1604485229123734, -0.00566885659038422, -0.044848168978669105, -0.051753407494715534, -0.026140830430259738, -0.03209409108004549, 0.000772905192942673, 0.015086686012414028, -0.038185365598399, -0.051462015011682204, -0.06596694909991098, 0.01813535695279268, -0.0393993754078188, -0.07688633635703451, 0.013735508707531322, 0.0891141201957849, -0.006012864023628158, 0.014302512217638478, -0.023973008662166773, -0.030689048873876402, 0.002818958247502609, -0.0441621115692913, -0.0306592258878173, -0.028239921408993004, 0.015601016624300464, 0.26986407544317825, 0.3197583739694458, 0.1653152100768933, 0.04263055963841413, -0.09077898786990234, -0.07312351440319541, -0.04962413432509425, 2.398771056545354e-05, -0.01464363324402695, -0.027989868419937423, 0.009045654850766409, 0.0370025335268732, 0.016953116052096092, 0.0003045227051360716, -0.046808775036244615, -0.03803642612964502, -0.010886702833568919, -0.02207303671051519, -0.008025564523516932, -0.007049683106942022, -0.004321786521655346, -0.039235152122757924, -0.027977170495044317, -0.051415993567090056, -0.1289051369894802, -0.0987206385323021, -0.054735313539016464, -0.0017870319417184317, 0.25837350290494276, 0.33866782961565167, 0.18042241822889496, -0.01763082273157532, -0.02256152755048544, -0.07046058384392843, -0.06365482335779159, -0.061646977832156655, -0.04348854043398197, -0.041835538584335356, -0.011900784204744202, -0.005499741838088765, -0.0018023824740570904, 0.015405647953584574, 0.04255079404602812, 0.03391264769433299, -0.053045163900743784, -0.09159137816677103, 0.030590170673648782, -0.05713370757302074, -0.03554263690542771, -0.0848519867208725, -0.12421344016898646, -0.05129341832297192, -0.04445986435810466, -0.0885458100565499, -0.13870856916122803, 0.035931710029554115, 0.20995068448068963, 0.16279612363819676, 0.10719008413706416, -0.020568401036550162, -0.048462335280263, -0.06820102375675223, -0.08909714131395036, 0.0010801271690729136, -0.03723508593143318, -0.026991109363360726, -0.05168931529492684, -0.02733229129675361, -0.032812602996646165, -0.006358061372566774, 0.06112218433970955, -0.048995181272757975, -0.05762947820232828, 0.05216747939244549, -0.010174633964528492, -0.03149958747705059, 0.013827155501497797, -0.06195494399762244, -0.000726463387241112, -0.05893184922205674, -0.10212320275861055, 0.003005041307419876, -0.07208377767633081, 0.06900044807451938, 0.1433474747906026, 0.20616662916933284, 0.15048071380011668, 0.012896290551288379, -0.07459245196586767, -0.04434019541045626, -0.07782787506167407, 0.0358499365845877, -0.01982564520318577, -0.03267444630889895, -0.005254780946581799, -0.05258146869670714, -0.035096245002617786, 0.04277383702262624, -0.023460509963264133, -0.0373884300889553, 0.0191664339191141, 0.042035655658672066, 0.023363259772422606, 0.029869078763202103, -0.04115531225732728, -0.08321046936565837, -0.006281578253759562, -0.10088549726887594, -0.10017664666514654, -0.03012019608652238, -0.025905870527303854, 0.03995018301642821, 0.17318124232837298, 0.13149215352600785, 0.14576816041838628, 0.050215655469908374, 0.004384330228076422, 0.0134192272172509, -0.020505505482232667, -0.008798565128817422, 0.02388155903050463, -0.021805264910552406, -0.03438778365869309, -0.03920460304969429, -0.06999970555598249, 0.07345469343523807, -0.039400298775774396, -0.007901915128063285, -0.009886189281747166, 0.010878634661269228, 0.027633630229268798, 0.02735329002661793, -0.029761893782118527, -0.024072216827862165, -0.02842668187852506, -0.06479927748416582, -0.00010213560972449832, -0.03046303680742876, 0.00927686320991402, 0.06402868549878794, 0.13972133256855998, 0.1529832386652959, 0.06988669079368584, 0.0786088171062612, -0.009893106244495397, -0.03516988237709275, 0.005935121935742612, 0.03843496423172417, 0.002368185654893246, 0.014385779496457864, 0.06158000007966779, 0.009847685231357074, 0.09309507307637163, 0.0202539709298107, -0.06288438425556492, 0.026905057896590444, 0.013612799460099205, 0.04605114633297162, 0.023640105325100566, -0.006147044099104199, -0.04594449461375403, -0.012656581042099518, -0.0410061280959649, -0.03707183468380837, 0.008232863666757195, 0.05804658060276705, 0.03449483378205722, -0.0017176581585816265, 0.07529986635339264, 0.11807152152000447, 0.018642146869595335, 0.015588612044498854, 0.010036138935754457, -0.026938167453882726, 0.027159460607258823, 0.0008990911642046423, 0.022341642962809643, -0.025381751193070557, -0.013658447416292954, 0.025608954960466914, -0.013384011686408686, 0.06168099320816925, -0.014272720914807226, 0.008024454491138783, 0.033306815424038926, -0.0506535333670882, -0.06288869637040832, -0.054464764332351354, 0.045790496869512747, -0.017425690321594356, 0.09604186811778458, -0.01308552043261755, 0.019680423959083353, 0.0768901499651137, 0.1036409811597226, 0.11261599058501737, 0.09423415549574053, 0.07648433301206059, 0.04677063769414604, 0.04442155162420705, -0.010804355626520365, -0.024009332303173758, 0.0025884465858196726, -0.0035182874602128554, -0.012048222229365756, 0.028194006732586728, 0.03575654423079431, 0.003149141030982894, 0.05277933069158124, -0.04077461121905375, -0.0069164092599899325, -0.02560079716438589, -0.06666202203832357, -0.002952881637239259, -0.004342667834658994, 0.05421386035291691, 0.022899078549906023, -0.03560798381825853, 0.06734625738861527, 0.04496209242371538, 0.02665239402325523, 0.003735970902421965, -0.018669217779679156, -0.0018074079937060966, 0.050544934544725625, 0.07579205537299243, 0.06019656284079915, -0.013074214253442755, -0.03800031239661015, 0.005863506563298408, -0.06257167091059453, 0.012190722348046497, -0.004995046304783868, -0.016527889740118172, -0.05693017020083822, 0.018343041814172335, -0.01902105886408341, -0.041782744132510284, -0.10258079333148747, -0.0009826751803798661, 0.06329469988106229, 0.05933068623385249, -0.016324866306652565, -0.021502106954702865, 0.01675986338023141, -0.035605934377801504, 0.010876579404323305, 0.02748363409982719, 0.04429083293859727, -0.003059842706844603, -0.007019808612755452, -0.03113248570309007, -0.029222384961513154, -0.0073928286782196945, 0.013246683287024927, 0.03261105564007604, -0.02863673292898798, 0.053373037749400776, -0.009633174285431386, -0.0007365540434206266, -0.026678370751090245, -0.08657975565663024, 0.031573049870037485, 0.026315853467586903, -0.010047412754221906, 0.0023925256151739968, 0.018426400632289265, 0.31702582138751534, 4.5681273109227325, 1.4742433443938288], [-0.05580520917451938, -0.018894738476653385, 0.02836659570077954, -0.04479605082747319, 0.010484211863093902, -0.048449350165121606, 0.016658213658340224, -0.0012729100820529846, -0.05768327913948248, 0.041597834087756115, -0.026235413457073177, -0.028937587036227883, 0.007162464874704978, 0.041022830230590036, -0.03627751907867615, 0.0022029280969148575, 0.015314875011806176, 0.02475377168796943, 0.006301484117043756, -0.013108137110118653, -0.02955679359459713, 0.003076567251656241, -0.03829067899948596, -0.10433394583909311, 0.015591421577059564, 0.03228338718164983, -0.08439044412649423, -0.03606181088249777, 0.02211265217875706, 0.07348198106113209, 0.000742632416978853, -0.02600010504389765, -0.006532015753744291, 0.04910132355898421, -0.023154756051920727, -0.028738393436657225, -0.017385396615825575, -0.03421166320180195, 0.003990767186780607, 0.05751213804706919, 0.010976242382870286, -0.009409297970595112, -0.010662844546188703, -0.05596834907128637, 0.031342507155138165, -0.002924514307686858, -0.006550664056487357, 0.11396365159135104, 0.010621590384725533, -0.026864526628056894, -0.015246307693276404, 0.040993677482094246, 0.004045371804920159, -0.05136707065419167, 0.03282960480625727, -0.023862288769249784, 0.06690349200776947, 0.038573145204094585, -0.015975852840399554, 0.04574765827248119, 0.0024104796970505797, 0.03044881196701809, 0.01718583424688632, -0.030926069447522297, -0.023928685668063707, 0.035407702600581174, -0.014530282372079246, -0.017889085585043443, -0.03748838133167534, 0.01082040656005095, 0.0690485301663588, -0.04218906717731675, -0.0015275156132055529, 0.04881242457894007, -0.004096988000988317, 0.01498165435887766, -0.04006187926358511, 0.013689893835415442, -0.00718663336946715, 0.03507590206583928, 0.04235015755496784, 0.0924694331064249, 0.0207011847576277, 0.011635582735077372, 0.006942296484904857, -0.01261308188609601, 0.012088607150639512, -0.010563256559742598, 0.006011403400586976, 0.04701665484298762, -0.036087832743903564, 0.03995338217927984, 0.04572038911799924, -0.006766011446398681, -0.07957407959927561, -0.026022982801626647, 0.04381018245805597, -0.00832264728633715, -0.046338858125163425, -0.027836524574229766, 0.022316074971919602, 0.013761353166032404, -0.012099334755581165, -0.015973032556526445, -0.016488998334841052, -0.03393862896949095, 0.057363604039518984, -0.011348344745875559, 0.04347757380434197, 0.05431572281571803, 0.03565396064814144, -0.015415011168501727, 0.01441893179773605, -0.000865131099655985, -0.032278078646374025, 0.011588700477954777, -0.042078068487303354, 0.042316287185555766, -0.016815181337419296, 0.006226940957054463, 0.010136213077456544, -0.014512637189673647, 0.012062756496254733, -0.024285317552302798, 0.018906105855780127, -0.06993734685839527, -0.023171229081132554, 0.03933084369277944, -0.056354685527137224, -0.037022217775398956, 0.01654119019129134, 0.011992589168623113, 0.02406073273911022, 0.030369926023283703, 0.03521743049224874, 0.04976038097389957, 0.01855919144490924, -0.007984750348612468, 0.024117767177515705, 0.06785252372573304, -0.004736919513663341, -0.03480461802395148, 0.03953121680170806, -0.004300965265371436, -0.07745675587379958, 0.03153752455145776, -0.016600569580025707, 0.00036574821566884796, 0.0232019445741839, 0.011990515551719256, 0.03287395472217285, -0.016340786328002153, 0.005391006709685441, -0.04619895956422527, -0.022280800019142424, -0.03126234047320712, -0.05735321510007417, 0.05349921177786465, 0.025666595965234462, 0.0839534703033063, 0.07941726889104049, 0.12757216948404407, 0.04544967484012281, 0.025079439483977065, 0.017491617202816646, -0.005936886602065585, 0.02906939937058033, -0.057720387702574115, -0.03763151496951265, -0.038135838794730634, 0.03404106470017895, 0.06157918226727256, -0.00028922059251657413, 0.004025009111413824, 0.0198923495397644, 0.07003424896308054, -0.0009342155623405857, 0.046117823658505884, 0.0736826282877071, 0.047757734371666485, 0.008460170736332541, 0.011328516547836393, -0.1266724279420153, -0.0019437584512693993, -0.017886777265649613, -0.011722148790809128, 0.1053642173729876, 0.14408197674856713, 0.09276020871287172, 0.12595747654597914, 0.13236458140361992, 0.0977751792964951, 0.08751484508833132, 0.03738160728627537, 0.006321057879837676, -0.05715281901304302, -0.008782265339037448, -0.0300792863185784, 0.07872611711787467, -0.0020333287707919043, 0.0112491693079206, 0.039459677286805044, 0.03942341935748773, 0.11540425148525342, 0.05551486217152923, 0.1091033239738758, 0.0865456076770812, 0.06263504810451508, 0.06434330897197392, 0.06073490057689371, 0.03576388822170388, 0.0377525164690457, 0.040840905005373976, 0.13562115805981723, 0.1078341743663995, 0.1760355257877663, 0.12917685482476984, 0.05241179358875852, 0.06981997982610506, 0.025245478018382846, 0.03961764384067655, 0.06227552227613566, -0.06329859978496583, 0.004162552856250152, -0.005714725356808632, 0.02546212324607694, 0.011125243445974344, -0.01707720944960565, 0.001568359976907875, 0.005033067235832729, 0.10005310737586698, 0.09925436216602969, 0.2144707535580825, 0.19469242840149786, 0.1727027653412853, 0.14436426441350164, 0.11953125513064729, 0.10880230675999204, 0.17000876531005366, 0.18428821262494807, 0.1479891269905419, 0.2614147589192807, 0.21094409281256243, 0.18360667934079614, 0.1835074596700076, 0.13656129793105615, 0.05821713147089688, 0.006423386201326992, -0.05222402639602884, -0.014927394239900436, -0.00510090163561785, -0.03525186538409312, -0.004659495217307984, 0.0051908047325295885, 0.0011301813748184166, -0.004756653657356374, 0.029954148681924808, 0.06662587248664589, 0.04305720134122887, 0.18241017214032978, 0.18895437356029254, 0.22889526894295903, 0.25910912858881036, 0.2508429746890901, 0.27170224767846085, 0.22550874624293063, 0.15204799400646954, 0.18105416949613576, 0.17639465800903165, 0.25535165828279344, 0.23854524940284555, 0.1644362724995638, 0.10120780916905782, 0.006889439665382175, 0.01984750805947859, 0.022363335354318826, 0.017443216651742834, -0.026828430573430654, 0.04822212586972527, -0.030908918226674926, 0.034676328043132955, 0.01848329549252841, -0.011267169691000278, 0.08217375527729455, -0.01280305858989923, 0.0891080408948046, 0.12516208659087066, 0.11010475332839054, 0.2456376393353763, 0.21808305317005097, 0.24514847151341518, 0.2445341755325602, 0.1974192096139559, 0.17591473099573868, 0.12202251597565746, 0.03685956637240914, 0.22656345348787435, 0.1843542219830102, 0.25577664026340047, 0.1815424072121671, 0.03849742846124721, 0.023574378804857077, -0.029985619002165828, -0.010113140889724268, -0.012216250210123507, 0.029435304398332363, 0.04687872922021156, 0.04985170275346283, -0.020047873525296803, -0.0060706079032919885, -0.05346903542327512, -0.01841584670788553, 0.06024710321504405, 0.10500533310487478, 0.03360847004874991, 0.10825665126325368, 0.1892964912961842, 0.23248172648022777, 0.20447718762227973, 0.21164072142161444, 0.10847854358570387, 0.056984741651511295, 0.04019117814849964, 0.038558927731349536, 0.1257778124526284, 0.2203831916373386, 0.20642202210286062, 0.10971913653258242, 0.04873688584228864, 0.0704999779112481, 0.006983536275724227, -0.02792267094696865, 0.017789028575904857, -0.013123447202082004, 0.04152223680574495, 0.013102698762507137, -0.0038131593426670293, 0.0162359037039887, -0.05389583981730377, -0.033679322154913996, -0.024490431755735977, 0.04354747569156751, 0.1315417955504569, 0.2079539983081946, 0.2206191141896408, 0.25687207175469756, 0.15524008330509265, 0.12852511558778132, 0.039271862213799844, -0.008206117177265404, -0.010402317775789422, 0.019068124862389964, 0.08724018967403052, 0.2806307161506927, 0.19118035170233746, 0.12845997341361085, 0.12407092562929073, -0.03577629896340581, -0.113514317366127, -0.02945829876526255, 0.03279302400121901, 0.06864080162405839, -0.044648838268728855, 0.017386369242720093, -0.016618230599287617, -0.0036653372391639532, 0.0963065365495772, -0.04801714765752046, 0.025983988363390317, 0.052341235638597536, 0.11546139119100136, 0.13600137896172526, 0.21860826559197125, 0.235090432590601, 0.21771262426630025, 0.11885826041759465, 0.07200911615077138, 0.010002595330324464, 0.032666817917939364, 0.07827637696289687, 0.24115706468769113, 0.29787101305910707, 0.18831142636037598, 0.1832011949256593, 0.022112643911776177, -0.018511413689770898, -0.035938626139982, 0.035111307255484774, -0.08122519049373032, 0.11234643296716974, 0.03767917085777453, 0.007974908051736184, -0.0019576164477431214, 0.010250504224007749, 0.02056008494634019, 0.031465911505112736, 0.039112613032435226, 0.043848404022214404, 0.07957103313750487, 0.13802771628671748, 0.20032459513453502, 0.27892317167887354, 0.21582041219817913, 0.029840325238878827, 0.11445501940496627, 0.07614093797399385, 0.07891143345877318, 0.1480648527438426, 0.3183337240077644, 0.3924992117793809, 0.25786618015491247, 0.18172823853122422, 0.04450555744453822, -0.01979281439549164, -0.01247192933502803, 0.0287412084833932, 0.03303384921515621, 0.018149293517731438, 0.025867199651572022, 0.018435089973283754, -0.02290775858894719, 0.015422755770296457, 0.029497983171718367, 0.03420618840908724, 0.05766299492988929, 0.06324126146268821, 0.09189873259477704, 0.1605632642955492, 0.1761954892622255, 0.16289162991645648, 0.17426130196980053, 0.12653450010620304, 0.11504497265278418, 0.1229702027179226, 0.12129263482358132, 0.2301659234860442, 0.2853738618356164, 0.4042834527270809, 0.29576988824331873, 0.14644562135810793, 0.11068728512817363, 0.07813777001971622, -0.03598880754779621, -0.02319813164341477, -0.026186364729106605, -0.033031463422417764, 0.029642569130372748, -0.006921438318970071, -0.009439220309000103, -0.07156818843667866, 0.022658491310400826, -0.040056213055257944, 0.012629295605923012, 0.03811445251877139, 0.10953979256706226, 0.04340513256304882, 0.005683064963647793, 0.13996834732952973, 0.1916408380766683, 0.16789155350600427, 0.13273432641933494, 0.11269732403148512, 0.21300116178112227, 0.25244748394528055, 0.3906680730226629, 0.3703369135937092, 0.28285975510560357, 0.23398483110935248, 0.08110699046422008, 0.018074575845626252, 0.014200080537824658, -0.06189418269703097, -0.026913003489071562, -0.015065081496957448, -0.018718233657007834, 0.0054429390265499315, -0.02937214044222145, 0.04003557069767432, -5.337548633630483e-05, 0.00028504736300782066, -0.00832868840445551, 0.018634923484651494, 0.062350370983088994, 0.00932088923568402, 0.023417853040617463, 0.041219739696848993, -0.00012177122547788195, 0.025069241916298522, 0.0438742076158346, 0.13154001311977204, 0.18895537846451305, 0.2977206654373341, 0.3626076995877155, 0.2626471850319179, 0.18553993826492649, 0.08199463948854803, 0.04831456251020339, -0.00476503755746789, -0.08577527111067727, -0.006244259949498254, 0.04882841197980973, 0.032869324526959114, 0.03448074866440566, 0.04415033489887255, 0.0031681870851650524, 0.007046082537759734, -0.02223243549233718, -0.012038866951940804, 0.01965423494500862, 0.04242648525015602, 0.0018186482566760595, -0.013722606184117728, -0.013586907634803018, -0.005722552127526319, -0.08752492071877348, -0.10646641870224721, -0.008183446955596082, 0.03629804426812631, 0.15095322067073158, 0.2481081457467592, 0.24767552362626857, 0.251694510279005, 0.11692303043150949, 0.06262859180128744, 0.05105664036728629, -0.030525089136029096, 0.037303326824487344, -0.00398464051531055, 0.02254445437942243, -0.039066229030916104, -0.05547510701076329, 0.029206486979590333, 0.013443197360625592, -0.03219411926379121, -0.03167276224149737, 0.03855148643390321, -0.04816429497760226, 0.05208348431598553, -0.033767305397953785, 0.010237587611140934, -0.04252022634756346, -0.03882614579177061, -0.08590706162328181, -0.04958397413444631, 0.006230831630903929, 0.04577571145454217, 0.19105153948126005, 0.19696307740777566, 0.20291949728312722, 0.12578650962655002, -0.014408558841984767, 0.033457537616626905, 0.10952134712382462, 0.035228349064623306, -0.004660651751823033, -0.011796717068074771, 0.00022540965295753693, 0.019312584566547, -0.042195929820992205, 0.03979328262855023, 0.025549332694330143, 0.02563191643228333, 0.014601345990644542, -0.0020020340276367884, 0.0173501238262143, 0.013675448360119328, -0.01678119988140792, -0.036180246210736615, -0.029010170785307147, 0.004761119478419989, -0.09084816498874716, -0.06621927508032763, 0.0474748080587171, 0.0988864500079384, 0.16290244342995777, 0.1974480259403825, 0.1756893936365978, 0.1922496092227538, 0.015476718181408895, 0.007911468301993595, 0.012414325731970911, -0.0555248959608649, -0.00885376518421005, 0.05974666292113287, 0.0007903924368175996, 0.008323170345821428, -0.045030335174336106, -0.02200443346212978, -0.013399870725854891, -0.011360615294015691, 0.04520881857121228, 0.016596702700942392, -0.046970586865363796, 0.00014080088433845734, 0.010539407639799919, 0.033466883799377484, 0.03898456259870748, -0.06437186954594647, -0.03345776448138031, -0.013490062005377371, 0.06716609281409655, 0.12987193007781267, 0.19159073794136644, 0.1842109922094508, 0.1635793398033695, 0.14101368805723705, 0.045797106666928024, 0.1156781694342901, -0.037278390742162285, 0.012804839788100195, 0.07565090108741639, 0.0028966840659808285, -0.00567670667479716, -0.012691225799902072, -0.006479179866202309, 0.04902929749787685, -0.0789950682617681, 0.054764989127891975, -0.05115405653212073, -0.01232914763790143, -0.02104261451334032, 0.010981281814823203, -0.06773338870557205, 0.008122004899574453, 0.07411108520582187, -0.035002718490237825, 0.04585724695105619, 0.04487299024492305, 0.1155283866167684, 0.12017671131665292, 0.1328412769209602, 0.19748534041406282, 0.2317171744652435, 0.12470114846526634, 0.10675933740190902, 0.005290262554677307, -0.008144499050152163, 0.025396572208649305, 0.05995212258680694, 0.015964117112494486, -0.010294487383821457, 0.00033174117225850545, -0.04466070963246225, 0.021587977387242555, 0.03151189508297889, -0.016146083315467154, -0.01689389461985707, 0.007759671513172291, -0.018311344324754158, -0.006879801992815196, 0.0675425444749798, -0.012330448304716995, -0.002182060219176736, 0.010991034812726303, 0.08997729008983933, 0.07920095096055832, 0.08236193518409203, 0.16951003757201938, 0.2045437161329244, 0.13700357481930683, 0.0713631669101554, 0.14559602030818566, 0.05020466227066698, 0.0785515557518417, -0.04062371436183991, 0.04178960382349442, -0.03974650831982588, 0.02709002600916841, 0.002117638618224482, -0.033884629429841065, -0.014529092848533954, 0.02451137346273931, 0.0037819447541155094, 0.02087189215973158, 0.07053600615057287, -0.056362928680389376, 0.057584634590056874, 0.0044568140235356655, -0.029432663968496704, -0.03586485408808635, 0.01645810974631801, 0.08232644460981951, 0.06168027414238151, 0.1340401790407652, 0.033010823773704956, 0.10797820698038689, 0.0922632100590595, 0.13814733195297632, 0.12872319479353286, 0.061052971556154925, -0.045094679561897506, 0.041000749082110974, 0.03031754251829587, 0.01709335105075043, 0.04471263517234169, -0.038583180938184, 0.0235901720789694, 0.04252125319393506, -0.06352163174906011, 0.011416136639963471, -0.018006422535988265, -0.002911524039344496, 0.012409568776665313, -0.017414002397233327, -0.024008917750832123, 0.002858687232510138, -0.03310760240588097, -0.02528740223693245, 0.04629621445830965, -0.00656664040977539, 0.06203123945251816, 0.06257949017560006, -0.0015086819884718623, 0.04376693622029361, 0.12025675920852952, 0.03711670940798578, 0.03196820177568661, 0.04087900820876631, 0.035459417339762433, -0.004730465836676585, -0.02106564853807845, 0.04964595009180797, 0.061643059462348715, 0.035726940181244, 0.0030212464141461917, -0.028879281722368394, -0.029658728805591617, 0.018661218045205624, 0.014942793603167276, 0.05005709260522962, 0.02323036044771926, -0.05368143934856493, 0.03770184421452574, -0.03509464465003557, -0.011673985653707177, 0.015388498775392907, 0.08392714776482744, 0.12734005063526502, 0.03919052572329345, 0.01836458948305153, 0.0546361118928789, 0.06668935410104877, 0.023217132135647217, 0.10503299874198334, 0.042149010879145216, 0.037392194078006626, 0.0320095124071138, 0.018952195109165244, 0.033291368420636964, -0.020541675589434275, -0.018988229546669743, -0.03920548664660487, 0.01569314567406758, 0.027832585605700306, 0.01634903093399592, 0.05980330119098347, -0.00019985781532309122, 0.02388363055687545, -0.03898931700497551, -0.01382498937408575, 0.024863883781091785, 0.030428799391661588, -0.010246225427326953, -0.0020591223187330044, -0.05331597487451272, -0.01010172348089982, 0.03434614452934212, 0.02393998577015918, 0.024872940118355405, 0.008075491503878528, 0.010205360709993257, -0.01397666015373681, 0.035271714692547015, 0.021139407504152198, 0.021312238562727518, -0.016623795711522782, -0.07498787871041607, 0.039217328059757486, -0.01707789919360148, -0.030806996534574877, 0.024767103996928344, -0.0140004514256832, 0.03785487085880792, 0.022035926770596338, 0.43677614700703726, 9.473722980491075, 2.5835642999598294], [0.02441319011430277, -0.048784132542876224, 0.04328371376380002, 0.009330376115494858, -0.01318846925879297, 0.005121016690794681, -0.06343697260351143, 0.014594743267166815, -0.0367632681493597, -0.048309653065840515, -0.05436997093635325, 0.03973887053535447, -0.02247369263188531, 0.05477598963987497, -0.019135766537582064, -0.06097706991403381, -0.039875872855309254, 0.04413612928596209, -0.005567792069166697, -0.019581689160378602, 0.00571493663759956, 0.01792081200598375, 0.03990710056794502, 0.051732115353318786, -0.012848880206753063, -0.04735884593150137, -0.014766612897259857, 0.00929573237796022, -0.03441996165037896, -0.03418396124625153, 0.012278138626781622, -0.0017375839846589694, 0.001174947377646135, -0.027074704847249532, -0.007962044034001727, -0.03238016215392053, 0.03254127606614607, 0.038193861227441735, -0.06372210045423232, -0.030047185897069055, -0.05035236388737962, -0.020304766630811374, -5.8479801441198725e-05, -0.04939675192152611, -0.030823308657739388, -0.03372464586949534, 0.009109161962418729, 0.0037361662213855756, -0.024747308207439655, 0.006782466060319124, -0.019267423866704717, -0.009615048791381215, 0.059766146082090604, 0.047873608992512424, -0.046413615604557056, 0.029633300638541946, 0.028978448374699716, -0.041009403169736364, 0.02924460677898552, 0.054927154129917444, -0.03994336106625384, -0.03269813599741103, 0.03739880675955714, 0.01887147348876875, 0.03230612596384232, 0.02117601488631279, 0.028944855319892642, -0.021415975763805856, 0.07701397453455218, 0.10269786719797401, 0.09585881799859497, 0.11367499213386278, 0.0324555324246623, 0.08454475859045062, 0.0730443495247652, 0.03987698241249162, 0.06857800859160976, 0.006086818275686612, 0.026693665567625223, -0.034713665609121695, -0.0004369545760391009, -0.006181534585642063, 0.008046711501462193, -0.013197390315477082, -0.004695449845416707, 0.02950168469433951, -0.015594408887856607, -0.057319547003249136, 0.06254530888299331, 0.04950775836015192, -0.04254690352511738, 0.036182790948454634, -0.00615826202498402, 0.02786471148282263, 0.03685776648901903, 0.04315759692234831, 0.046610145307151754, 0.10132272109692071, 0.16067819443800405, 0.18662021234772114, 0.18870847167166763, 0.15904935949388618, 0.19574434064025154, 0.18712802908713336, 0.05139558592986726, 0.051141737977042225, 0.03531720641006765, 0.022708445011726995, 0.005238152170750754, 0.026685916748371636, 0.017219669666704705, -0.044202229368832065, 0.031041288013902612, 0.031688958473812215, -0.02725901506513028, 0.001365286639637026, 0.024259152441508572, -0.008344183849580212, 0.03976213155916777, 0.08958641275776191, -0.024502689385659138, -0.035912514102282245, 0.0373413860819844, 0.0815283779031178, 0.0712690568407702, 0.20119785591171743, 0.14963241162896943, 0.22464459931055522, 0.17211756263099592, 0.268178225126583, 0.27024779576024155, 0.11241847547055175, 0.0747456567519455, 0.09733805222531038, 0.016801225672147924, 0.004531847569132703, 0.002176775837853286, -0.0684394133481021, -0.0005504269829622696, -0.024633134788006217, -0.017611529371420426, 0.05155828583817193, -0.04483040150583183, 0.02890961082340283, -0.011037772294844334, -0.015169119790389143, 0.025326828596944097, 0.008665758952952986, 0.020177844854721235, 0.040667886500722845, 0.025868587228111833, 0.047468284290426405, 0.08856277713990918, 0.15710118589873992, 0.31104714716140985, 0.239113239918918, 0.14565042151952456, 0.15109174987467508, 0.17455368634146723, 0.11473639583657413, 0.08232671060067502, 0.033182322163839255, 0.02728981243406734, 0.02164666194739494, 0.007862730619216728, -0.07912307100992631, -0.008212161322454836, -0.03040726495231129, 0.006257550675304002, 0.10661639295012178, 0.013142598941381338, -0.011694284397776533, 0.030443774135350248, 0.009324810107933056, 0.005868346746731342, 0.021111870306908663, 0.07765148544219948, -0.016768347675900724, 0.07897394003480439, 0.08208416679103774, 0.18534378136969737, 0.17685881329106318, 0.185299071273802, 0.16144634665774832, 0.1913583811151973, 0.14018026120341365, 0.0029768224882530336, 0.017456833392374218, -0.025183122000576534, -0.037026624993859746, 0.007149219129908144, -0.0019758896864361824, 0.09356864942555444, 0.018567848289501022, -0.0487887091945118, -0.020070027509826588, 0.03647755841885948, 0.07457850986479514, -0.05664049901793832, -0.06783842137999578, 0.06284408335739038, 0.002800243634314051, -0.04113264936383825, 0.02651185960772174, -0.06687162460149178, 0.056849810659108595, 0.11353761125017983, 0.184215193317455, 0.15392677485846076, 0.2106133346128577, 0.14666357236436517, 0.14522318111539126, 0.03664298860231844, -0.00953525644432643, -0.07325557014721029, -0.0173124959868451, -0.012055278727048941, -0.042135604123427185, -0.0069105447253914685, -0.05005932843985184, -0.003830226814947104, -0.0003525575215685602, 0.09453783803692929, -0.039658915499897696, 0.05228952230970211, 0.035592279270394, 0.01000734231361363, 0.06197840968572686, 0.007018736126012936, 0.0011692463037043556, -0.005849938980477734, 0.06775390991690844, 0.0888558005699103, 0.06233272092136328, 0.09917102939731563, 0.17955998351735505, 0.19233944316073998, 0.21804723785347005, 0.23032289660300456, 0.08569365831727214, 0.009918450782090148, -0.06097648894093336, -0.06322848289920152, -0.16588271295460613, -0.09335477499797755, -0.04141023265117873, 0.018830137173727425, -0.016585383364783598, -0.06393857488384348, 0.023938722269471555, -0.022203300710770445, -0.04247587504921695, -0.02229832429123317, -0.006615883178379675, -0.02177280608758067, -0.08078422811835878, 0.02500433848153404, 0.034407666690595605, 0.029576070491360882, -0.005890694232259754, 0.06793923912805974, 0.130453207891216, 0.1969298848742781, 0.2385683714296306, 0.23093077408475263, 0.2478914499722543, 0.1933046873709151, 0.11538947965848383, -0.00913040354628112, -0.06558640931609626, -0.08858639583275145, -0.028524306852908982, -0.04864585142819667, -0.06498914860427385, 0.03692745339953934, 0.029662938357020115, -0.007883369944343539, -0.014311839343758584, 0.010976920755884152, 0.01656690603451808, 0.007046152343971666, 0.010974777012144554, 0.06039193735437237, 0.03549935809923234, 0.001376905785716697, 0.028055389749085235, -0.019798876591022453, 0.061331417782637926, 0.16828385889504469, 0.163156892428793, 0.18122265741902283, 0.2338237490085925, 0.2712766434234291, 0.24559254571357533, 0.14385083421933076, -0.013452330856089746, -0.0339081847364413, -0.028953036179062655, -0.07197296043572661, 0.026841977149375962, -0.0006548161823200694, 0.030977766243872554, -0.01460554908801924, 0.046179943502427, -0.027888235849630905, 0.03588239911775756, 0.006265144934584002, 0.01979913670267708, -0.04198552162945898, -0.032037735293328165, 0.02116514894716007, -0.03562348011009322, 0.0115624356726126, -0.047703517218422545, 0.050285436088290884, 0.011130192853798196, 0.15464373746391594, 0.23838437995615908, 0.23265772715854302, 0.33452548279759947, 0.35367136834704516, 0.2329152237778132, 0.08941996625104578, -0.02609076412110986, 0.041745355224826246, -0.023822323902962756, 0.03770015663199505, 0.018932221370435154, 0.0514999452906028, 0.033743489044476285, 0.03220509678872783, 0.05690422764173894, 0.0265443344572579, 0.013398265894136516, 0.017000302435922456, -0.0547097925239237, 0.02702816714239221, 0.021871041040604347, -0.036343160645447806, -0.010052851597238406, -0.005217760338278275, -0.005740314703403146, 0.0352427183202217, 0.11626901088392266, 0.19451661276704704, 0.19575226833042134, 0.3009455125195898, 0.394613852054192, 0.3460971814568224, 0.2637504859693621, 0.21955397706678562, 0.17832555817887233, 0.1758523863889455, 0.18615169905475687, 0.10595627888324588, 0.08694629088436155, 0.08211231390945781, 0.15321200852959824, 0.05339340232250493, 0.10451071035043408, 0.0382253291010401, -0.04878125509755046, 0.013597930704661958, -0.07469972238156179, 0.022339572029679847, 0.03160630035876235, -0.02147479383051582, 0.0030566528508506113, 0.0650245189296247, -0.01566490342968975, -0.015102025380593376, 0.12611453472639822, 0.24467471825013654, 0.24909845265526295, 0.34948639381025204, 0.38804049847827965, 0.26956649183972925, 0.2130356017475348, 0.2758653819032339, 0.35863983556882606, 0.3220809141755276, 0.22083946336399177, 0.2533758890806991, 0.11655597684309732, 0.12940794690818172, 0.15273302495644603, 0.17123886367260086, 0.09778036530563224, 0.048225758135313775, 0.02078501845657333, 0.0015144898348843766, 0.01995258746853936, -0.0903414313462251, -0.010594540600166501, 0.008137804233027532, -0.04213242750879977, 0.00793732699556139, -0.005009192763804176, 0.08450157102626793, 0.12973398918921047, 0.15454325702865318, 0.27498473675780766, 0.36122420392503796, 0.3408361818403442, 0.30489190886630585, 0.24095951782567798, 0.28293797577584257, 0.3957063825941107, 0.3622591357284698, 0.2500864965708357, 0.24400485934344016, 0.15067601451714577, 0.19275749608120654, 0.21140888035004046, 0.13750688609775386, 0.09205074092664278, 0.019755521142945532, -0.0009859534357753291, -0.007794883562823447, -0.026670690708276337, -0.006313362968420788, -0.05530779638799095, -0.017785000050464277, -0.012270033217133153, -0.016494753916059167, -0.013177614814516424, 0.014090388329375153, 0.09905595747223703, 0.20342960511060515, 0.2846676218647035, 0.35436235673360283, 0.3350267272485463, 0.29511142356211095, 0.2854162979918135, 0.3277281096185312, 0.29442217576478436, 0.24788466121534128, 0.22973131474743164, 0.24091058218913125, 0.18465996752163086, 0.1862456407441494, 0.18712327185406777, 0.1399905715599845, 0.04905961750383237, 0.05523482990745989, -0.055831258160913354, -0.013512163810010224, 0.01069910698049133, 0.006565518440089441, 0.09617977371358916, 0.012405424949013167, -0.038666318009703535, -0.01547669007665438, -0.07615251010347714, 0.0006971035515477854, 0.04638434031146282, 0.21537830558629462, 0.2985700853636582, 0.41096418420982606, 0.3724614740865471, 0.3951413706789127, 0.2938343630889877, 0.3621934917711789, 0.2506516959492222, 0.1439079731821551, 0.15588233069848378, 0.21407357739655128, 0.15116162970182864, 0.22202223940402943, 0.23390175369055807, 0.12196713890992224, 0.01737103341833686, 0.019964119312085638, 0.06562414474604508, 0.04382003547250049, -0.0022831347997121615, 0.03398033132350309, -0.013105334603304335, -0.061014667672477846, -0.03759749998554588, 0.035980917351065005, -0.03542905352428999, -0.017422036729606485, 0.048720134523879445, 0.25820702749460295, 0.37891304712388063, 0.5093250858699826, 0.42691160632310515, 0.34866455445593847, 0.22105154001234245, 0.2755687045004233, 0.09904764414207101, 0.1055379882514539, 0.11234604283459329, 0.20160406738203937, 0.2439014371661263, 0.23233625495273086, 0.1718296558167029, 0.0789718545007677, 0.06951024090802524, -0.03280044129521066, 0.0071431707209080875, 0.04262891496758669, -0.018349368948073572, -0.025642008395955172, -0.008245087633038923, 0.04180496216147435, -0.0015382359396610911, -0.04442538575695049, -0.021086279272095474, -0.05731392252645037, 0.07071807537749004, 0.19011429130445606, 0.31250931222012723, 0.423633957145722, 0.44744917747278085, 0.37956662491700544, 0.3060726841266301, 0.17237869664561284, 0.16558833820106275, 0.10035502632126571, 0.23115252231803696, 0.2955181098562718, 0.25461725193372786, 0.18750580061276212, 0.12625240487905579, 0.08133218522302178, 0.005113361889917279, -0.08222448918466928, -0.0807164948956008, -0.02231704161272663, 0.01628433861619139, -0.09812517295447266, -0.017869509591479503, -0.019555914600517647, 0.03854923951198849, -0.04225404744335218, -0.02888682954947206, -0.028288978796747855, -0.05990364704025138, 0.15200387773864807, 0.28368625835362166, 0.4467084160025331, 0.638234604478737, 0.35365281645688745, 0.39282459766513245, 0.27308976404665497, 0.3091506881502376, 0.3398204599560369, 0.3603549421423068, 0.30587864993337943, 0.25680299475343826, 0.11034041561050335, 0.1204331868172571, 0.022436366644436056, -0.05157097922683146, -0.02378605340523064, 0.039770106867737444, -0.01986982218470623, 0.012748840418241711, -0.026105581275552615, 0.02704298389132883, 0.023246063178766742, 0.05633405983123173, -0.033542812350615576, -0.01765641643051492, -0.04363212552342804, 0.02259114716374988, 0.03219495262347621, 0.2015600866863322, 0.32640926568916434, 0.4538559767866758, 0.4853220099579725, 0.47766521672890216, 0.46644953471893374, 0.48342046137322686, 0.5172975978074827, 0.4182633971041377, 0.3060043239839692, 0.15878857791103, 0.05732063499801372, 0.06549205410906014, 0.028433467558746935, 0.032681747899248444, -0.034678307526842284, -0.012110813613497593, -0.05889338352349844, -0.014016825216459746, 0.035591805289693086, -0.016677281237101577, 0.022089569966151742, -0.013085956954550412, -0.007946078684254952, -0.07742430901253136, -0.04478224710399057, -0.1514034790694614, -0.011803632035807062, -0.0006616547507481717, 0.22297118878674083, 0.3347574219673457, 0.42914238783866565, 0.5233987492161021, 0.46128499685104585, 0.5231686493411104, 0.3884843248734018, 0.23510953952905064, 0.19736585725437572, 0.04429748073764229, -0.007621965417171134, -0.03331596224928747, -0.03813968267647066, -0.051787147089348874, 0.033707853682820754, -0.0117728251723411, 0.01242994741142867, -0.020371394124152096, -0.06502154514962256, 0.00964471454249781, -0.0686002913136998, -0.006942695295703673, -0.06015391992981269, 0.050635856714194113, 0.0015745655616139632, -0.034045803112227435, 0.010044738223100499, -0.04908137409897795, 0.0488238555082861, 0.09838363969200835, 0.17882394003906676, 0.2543540706094236, 0.22199525162110764, 0.17385572869908236, 0.053312955024241805, 0.02598218027671723, 0.016333726889854516, -0.0006632100709792061, -0.0477235015613836, 0.0693457027640856, 0.0413663535644465, 0.012214395550327058, -0.00426534842957722, -0.010510728067623204, -0.03408452638303439, 0.002764018360558622, 0.009205447862241095, -0.04434859198148658, 0.011863753926883793, -0.00800331786337127, -0.07287116046928925, -0.03861195597552454, -0.026706655946250896, 0.050259482647283055, 0.00019605204604037187, -0.06538545018133857, -0.00307033558145751, -0.06437255662212611, 0.04225154913833047, -0.001542741520826229, 0.015836334391659757, 0.06234161329257178, -0.04748849261217258, -0.05862832308187085, -0.030111713579754496, 0.02912610834495617, -0.06173317854155501, -0.10947332551094936, -0.023292848754002962, 0.012933153199395473, 0.037713634242327765, -0.018089404702545046, -0.014738050675934736, 0.041210740509133835, -0.06677648927483644, -0.013875741970821759, 0.006793302934524673, 0.015561869432669698, -0.019555390537230176, -0.0009336957886292166, -0.09200682342014346, -0.027501177993825142, 0.010334784652385642, -0.03894062057589119, -0.0017535131739195313, 0.011656870820154444, -0.01347518849968548, 0.0058632447542206305, -0.03694093644652132, -0.012905488070703273, 0.011956930823937072, -0.009057297939474962, -0.03357040899644512, -0.00047376546105764, 0.021029022124029677, -0.07795427307229154, 0.03744247735362916, -0.014140028424608785, 0.014660076212847805, 0.042715343477987, -0.048988346329659496, -0.025337178658126663, -0.010305310566989457, -0.027991197183015296, 0.061959642539716586, -0.030601815495546802, -0.019937768710769584, 0.006854873775620753, -0.04413277760325247, -0.016839251379632963, 0.005781174202026425, -0.020948773527422075, -0.01588876947900769, -0.03253334105499683, -0.06893086481931021, -0.0024939673925573327, 0.05202228569181763, -0.009958948443483912, -0.005069485901794714, 0.01193446071872886, -0.05646177764741823, 0.05306241505138123, 0.003965833603042892, 0.05553009888528185, -0.028154462396158122, 0.06377029239256139, 0.0276022972920005, 0.01975143163758423, 0.00835801622689814, -0.008876022074087477, 0.04287613065978116, 0.0050128524945731055, -0.07025248941382688, -0.039900546410454145, -0.006655418647040313, 0.011011602757360158, -0.002240758860580289, 0.043085647888843615, -0.07125044377207433, 0.002563492985292712, -0.0676344544712702, 0.024516940050242707, -0.00579436091692219, 0.01260550013484195, -0.0332487026278203, 0.04273356038536152, 0.0346502320073995, 0.01921607435502025, -0.006033670636811991, 0.01918416197472079, -0.026018727280284648, 0.030231119545073053, 0.05879745896980946, 0.03821583061304593, -0.026059815758288005, 0.012907761331182245, -0.04618362656280885, 0.02044251111341699, 0.01609297903080496, -0.06677915498329157, -0.04149228013972728, -0.01011210345513454, -0.010744990969315223, -0.04319650702839517, 0.013889357403792262, 0.008973250880201683, -0.0069474284373151835, -0.027012981492262823, 0.037416450607394736, 0.05904346528743465, -0.01740732973262555, -0.021983628005243255, 0.017434514405945983, -0.012940938017767023, -0.005120274884342972, 0.026386079229326547, -0.06822293107700812, 0.04701880978593517, 0.002573527057852989, -0.014702359874306771, -0.0031869340793374613, -0.0013418087492671881, -0.0618286179801759, 0.05339065098047271, 0.0014759154382363738, 0.015821504658834827, 0.5878153935431433, 15.173545748148575, 5.12256239164723], [0.033983920377644396, -0.036470087770010734, 0.016909710679829586, -0.009558610389242626, 0.030241813400589058, -0.07597240786969627, -0.0035390821514738927, -0.021529309135141485, 0.015437962522648414, 0.016787292406007223, -0.025272353386500933, -0.02543478086343013, -0.003950993401157247, -0.0319939669820284, 0.03009981597394785, -0.013184764373393295, -0.10382100783291576, -0.01338650202220736, -0.037090850744427584, -0.05825985055217662, -0.04419380850794902, 0.003907445422606073, 0.04745145815172254, 0.011185159780892143, -0.021660835293419282, 0.01628229268466796, -0.016396082507821135, -0.02480715604154088, -0.041227238151178014, -0.0625653145268471, -0.013925846662837332, 0.0056447674971475655, -0.0034496496539212474, -0.014851243061085295, -0.03368301413786613, 0.021943184203425038, -0.04676088343686502, 0.02815132930070936, -0.03501766903114297, -0.025793895077222084, -0.05132414199697888, -0.016988864920801504, 0.0358412863519905, 0.019295459619507096, 0.03576478549847034, 0.01940170727151455, -0.038799798744958945, -0.011338907920477738, -0.027484414597490864, 0.047685675708940785, -0.04265219171742221, 0.03194589025697981, 0.031891209646741754, 0.06534357863271739, -0.014631664022482048, 0.02544007712786293, 0.08148756559067295, -0.022058631319060593, -0.05482213866104356, -0.0671392615083072, 0.02547178106022804, -0.06723615795012494, -0.012798706219814326, 0.019708702559028495, 0.012657396932256669, 0.019967244683263725, 0.014020941872952128, 0.054119496878757244, -0.023379753406924088, -0.006859058990542312, -0.000680835039703313, 0.05890680405072646, 0.05711108007334582, 0.035325202827744685, 0.05542643014102914, -0.031239383616534565, 0.06817550850675164, 0.06011387069746058, 0.028384112503381142, 0.06418305145605473, -0.05899315785556569, -0.018687708101575287, -0.026260837881498293, 0.025767118705619402, -0.03750502641436234, 0.02705339819062448, 0.0489494019183568, 0.024865140656836576, 0.010149782566376159, -0.03519618345286614, -0.02770566014401687, 0.051561210580072285, 0.03741488791833685, 0.012163673276631927, 0.0015264806875132037, -0.04726829661951312, -0.007056959315249305, 0.11639871129546984, 0.02328372544433218, 0.08428068250086147, 0.10517803197096197, 0.01467158518458969, 0.05714669148842126, 0.06938529135879155, 0.01773068786873481, 0.11213969860147305, -0.05491636946491802, 0.0391030185699677, -0.005642371430966449, 0.0276221175818759, 0.015752366740451242, -0.02618414989678559, 0.00817844258783358, -0.06635362326422455, 0.021540321636644155, 0.010667896934049464, 0.022741039945333958, 0.03795263902581557, 0.017578624887760484, 0.014339218590761559, -0.02283343213045645, -0.010337202437346536, 0.06792472378083793, 0.0922028501117694, 0.043901087347538434, 0.0825726442921984, 0.07666689827736091, 0.15513050642713477, 0.1323838497463184, 0.1663158695376181, 0.044138040079620314, 0.03292263653931236, 0.037103274152736544, 0.040526148846355955, 0.0007175586839096961, -0.030406749862788043, 0.030854137725633668, 0.025491368452396707, -0.03279146927648071, 0.048408671468053416, 0.04179281104273585, 0.00479630347313546, 0.0028587414932528233, 0.01974763727202348, -0.030967101574245048, 0.002718171991355785, -0.06862740824085424, 0.041645849925810725, -0.045308640394066554, 0.07082224209208372, 0.02119798503097183, 0.04426481389808293, 0.054069232206915396, 0.09524548071216316, 0.16455386774452724, 0.019010233330339483, 0.15444724077485514, 0.11737696054883556, 0.03757137090870045, 0.010491136376575047, 0.08715750474849518, -0.016360504617487386, -0.032603180925961324, 0.03948755161917365, 0.010677593760577404, -0.034266256869685256, 0.007570542180911315, -0.03663550699898642, 0.03931504994366447, 0.03790610004265666, 0.019008499379806146, 0.012615208400786393, 0.06196849151297139, 0.0028517786580839624, -0.033160504900192886, 0.02595360308999504, 0.08172756454116055, -0.01830834381241957, 0.025600627459303707, 0.07906720423015766, 0.08898413104139466, 0.07426974037695039, 0.14270620707048426, 0.17010350757606738, 0.09589352945445664, 0.05053207701499036, 0.011156170510448255, 0.048834212910099845, 0.05537956255484704, 0.023069712020256754, 0.006444635945613031, -0.02247791975998083, -0.04183344114238895, 0.028796154917670572, 0.03166145176924956, -0.05517679843184699, 0.05677996350645299, 0.020492619526705485, 0.05006083021936601, -0.04824062250502354, -0.05072611361690417, -0.0037678951102060854, 0.02500104610002017, 0.07289670432699416, 0.041224809857136904, 0.02142772049498511, 0.01555994701672509, 0.12571648611502775, 0.06382980645394574, 0.1570749833078002, 0.07877242642726003, 0.13525864920623237, 0.09981945351195048, 0.0682661886407988, 0.04536939985266313, 0.03140163229026512, 0.03311353711463436, 0.0026008502031550935, -0.01946870627791893, -0.0077146582665655085, -0.0021248300061976967, -0.0806650325092218, 0.014384696322968703, -0.03497756784934374, -0.04117828755909253, -0.060243826187081205, -0.06363183269605101, -0.04828636727334793, -0.02956158452918342, 0.06643241270141033, -0.010948119300477, 0.025000492020092868, 0.04116988210336716, 0.047797108643846134, 0.06994346282043674, 0.051191019854290004, 0.15842414311541786, 0.16589133203010148, 0.03872510136696633, 0.04542198143374357, 0.06561456440017348, 0.036103801456038934, 0.07801643606767425, 0.018844643175210403, 0.10190900538363733, 0.04855756395789187, 0.005224434503506878, 0.03146476666186499, 0.030621606099226026, -0.02443153245596562, -0.030448783208676795, 0.002767211440595569, 0.030774789790386763, 0.004992885917378941, -0.055474003797072284, -0.0291680714648315, -0.008482112949356874, -0.005149213843842447, 0.07902011039725879, -0.028687969661785388, 0.055291096718684984, 0.11260355258520424, 0.1648609165539292, 0.09218346223449142, 0.14133192627725644, 0.13220384139741462, 0.09472235965981031, 0.06199993822803874, 0.06603993666965219, -0.04291609128586457, 0.06695722617485447, 0.0427370075112888, 0.02724975598894676, 0.09922692427128334, -0.012831176068222356, -0.009879771043455568, 0.06572346114410982, -0.034191696953985225, -0.020719420591204015, -0.005249373524924311, 0.030028640235495833, 0.007574326060310834, -0.04534776960215492, -0.020967650044619437, -0.027465552256611944, -0.000507881347826213, 0.027056986098286565, 0.03897166237869046, -0.014599105908330825, 0.11423897869823924, 0.09729558057272647, 0.16180078978586768, 0.1328238384712885, 0.12224495952619815, 0.06260292952042176, 0.06850171620462928, 0.03217282560665305, 0.01280692135416467, 0.10324046861555987, 0.06638538409700721, 0.07124743287020109, 0.008248194418463514, -0.004981178427306241, 0.03134928329568872, 0.007516560521243797, -0.02440787200390399, 0.004460232218872934, 0.05671302184159968, 0.024836061544800333, -0.040697375330724504, -0.003723463172775975, -0.031218133129766314, -0.018499221000239062, -0.011019087298222983, -0.002625420072005509, -0.009585077126631309, 0.055516722401370566, 0.06596866795498786, -0.006966784898587449, 0.17212649634197563, 0.10944488160425636, 0.013142386796689578, -0.0013811911732024556, -0.06413337043443912, 0.051642131028063074, 0.06778609560623328, 0.02149301477209263, 0.08445820620878715, 0.08079619162527882, 0.03172234088141129, 0.0537452382385572, 0.04209190039159701, -0.005139288740925653, -0.009223539895327305, -0.003910263242149114, -0.002958307133074528, 0.0018663746606244003, -0.037874072416604225, -0.02559049597927586, -0.0482292936392639, 0.03194210737062493, -0.06902746172362711, 0.06411920666587113, 0.0977540460681813, 0.06224929633564569, 0.007580919544941955, 0.09071841277935325, 0.08734311624247601, 0.00021488665072446407, -0.027333215236439945, 0.02146631493304701, -0.004486464451646453, -0.0402973775565485, -0.050621453531238, 0.014389615574685547, 0.05651697847315479, 0.111569228366471, 0.07506608865976916, 0.10303710712024299, 0.1228415660933338, 0.05036180881590405, -0.002321878079175263, -0.0072565832057078245, -0.012974160766917524, 0.04216574687329087, -0.022397024883609916, 0.0019090492890151865, -0.00028345950161871153, -0.021248406266070666, -0.03840345468115612, 0.04365494460936129, 0.06403479509538457, 0.11054504339052648, 0.0955794367808186, 0.1620972850921517, 0.039649661746649675, 0.07231927012714798, -0.08719322145116658, -0.008164443866832929, 0.011342930403127425, -0.020470777722500177, 0.04437574280782127, 0.10085168051024751, 0.0014062944250607605, 0.12118003078680988, 0.015804455209819913, 0.06003154509415765, 0.1242517255684143, 0.008926846706426777, -0.03937491769228216, -0.007006430305541475, 0.07386796092443482, -0.06541722311450093, -0.037563085682824175, 0.05392015885762645, 0.06491478246286225, -0.006120988398384483, -0.02720281907523673, 0.12205822246024768, 0.14293002611361075, 0.14106549254505396, 0.11586814309414156, 0.13060890290931707, 0.058518465107389096, 0.020428575761750094, 0.03769176903846741, 0.032978335701876284, -0.015946251607126073, 0.07727520395246112, 0.057915769067717476, 0.10494794579761149, 0.1500075719622959, 0.07702635852583421, 0.11356365013731373, 0.08201806253499944, 0.013129783167540933, 0.04553544792789388, 0.09367854526006726, -0.06540492095517392, -0.001147187727666522, 0.022876533395527622, 0.004383491045127016, -0.0038808763936880454, -0.04853943226526407, 0.00734740657748075, -0.0023649831958543932, -0.016837060870818595, 0.1528992591160867, 0.18271366755516663, 0.17334582410494512, 0.1494585117300493, 0.10470207919125071, 0.028945583770017946, 0.04086298522064609, 0.021992879512132364, 0.09428950396932716, 0.05444781533434646, 0.06828670391901287, 0.047528194342044604, 0.11898628071662443, 0.08907306985108884, 0.10056928237085361, 0.06936216641086707, 0.030205784268980823, 0.10674286571390125, 0.05317992118206328, 0.0691038169400822, -0.043627335424453725, 0.0025447767825318747, -0.04621263763733014, -0.025061370762080013, -0.03495373903112523, 0.04601530145177735, 0.018727507262012947, 0.11323086586610653, 0.1451240270057974, 0.2474398729697075, 0.13122454402445666, 0.19198538070606452, 0.12033813037074918, 0.008569885338497205, 0.07384806991887073, 0.0669626173205989, 0.0485396406384029, 0.026894699412242856, 0.05085973577952595, 0.18061140691431865, 0.1256347612647868, 0.1535840670648364, 0.08999853797039553, 0.06413815540794629, 0.10011504855935521, -0.02017408824218849, -0.00826520056257215, 0.0018196679897536142, 0.004045465343198906, -0.006396188750577014, 0.014118129860326206, 0.024404625661641314, 0.02371110641064331, -0.029466057655714487, 0.028459081335354706, 0.11980578392993878, 0.15738322223302423, 0.11851834066504449, 0.1916139338810942, 0.07485318084715209, 0.09195280069182402, 0.1308452806806684, 0.03273710745132958, 0.04463516034219201, 0.09594709296080248, 0.021729158272020075, 0.0816815661199187, 0.15800774492960015, 0.12464871358127061, 0.12613806940674005, 0.13680381850277556, 0.09661243987385572, 0.058243691641066804, 0.011964540462959824, 0.021499482248594524, -0.003908277535285132, 0.016371418315407085, -0.01774757232564208, -0.00653040766586901, -0.035848668599759916, -0.00431147252510391, -0.021348706159521162, -0.0024765192747427975, 0.08307002633591275, 0.12839375951577411, 0.184724049542799, 0.15545355967370753, 0.164893976745116, 0.1382902991933, 0.11772644015448659, 0.07244223372578203, 0.10647339082738973, 0.10724332221878514, 0.11087775663931437, 0.07255044431604439, 0.17205058202928505, 0.23072886408066445, 0.10749943776667382, 0.06868821039717236, 0.08012301012836832, 0.04737646350925238, 0.06226013689090438, -0.038310533643994324, 0.026561207777415195, 0.021120302603907955, -0.005076662033590927, 0.012095338884999042, 0.03600698628516275, 0.0284060664153161, -0.03424380603111226, 0.05819184631334804, 0.06387442179876913, 0.10550930374410374, 0.1358942313608194, 0.14980344708061438, 0.20676933445452525, 0.16036442093826322, 0.1183388265980701, 0.14259508517261815, 0.16267345937652816, 0.20146109901498196, 0.18947033295297244, 0.1587621376142169, 0.25988262907754167, 0.14528889440779547, 0.14883496702792917, 0.07083252964763745, 0.0678446195539433, 0.05235709079037159, 0.05743868711663558, 0.04172398415163091, 0.0314910824561851, -0.011232874340720574, -0.020419501498430772, 0.011888555831820202, 0.03246213799896902, -0.01005283059501583, 0.042775446146159586, 0.07079478201658702, 0.013413930252786322, 0.04648436457560859, 0.09888736900363092, 0.14569073396762394, 0.14608989044949702, 0.2408736021906555, 0.22775560002366496, 0.21892671044680173, 0.15753508850311515, 0.1498694111417971, 0.203403250192544, 0.09941814307023616, 0.17017250660856537, 0.09540155003291437, 0.19150302602431357, 0.13054626201374625, 0.018827659017824645, 0.012316296468290144, 0.047367476538082945, 0.06392004205851835, -0.05820455101192767, -0.06379912376266737, -0.022215528769799334, 0.020804122400469003, 0.01725197761382309, 0.036605390786218654, -0.042528735117348504, -0.07450997655468869, 0.05380568658047125, 0.01614476978366881, -0.010483991735883819, 0.09341708914532364, 0.1483960077876375, 0.15492075873744063, 0.1727743911507346, 0.19009954075654542, 0.17874387285218277, 0.12297540070793853, 0.11860201470122211, 0.12472165522535239, 0.07507887978949668, 0.05141324569875186, -0.004178064173775986, 0.01060100314959896, -0.06665783304886563, 0.017115076314164018, 0.05774338787747374, -0.05112491838132815, -0.02076856023586498, 0.011756142753457419, 0.04474437980098157, -0.016009055089419338, -0.024903258813226817, -0.07264987252530458, 0.0006646586503312179, 0.07326846076678592, 0.017658910236093006, 0.018649248757504098, 0.04092430382386242, 0.03619526606492181, 0.02536701156574099, 0.09758378516973777, 0.08827405325573712, 0.08799355208843582, 0.04124380572490958, 0.10455193041136894, 0.05649123941148608, -0.006276293712120164, 0.03470964177823897, -0.022947647210337725, -0.03125867586131643, -0.02765922904961769, -0.06194728064723843, 0.020457371837321416, -0.06419860295668525, -0.04542864474851529, -0.07411380041974129, -0.003069617486267399, -0.005368587866852573, -0.011667721899513001, -0.03728875738978922, -0.043500497958627336, 0.013584242071765595, -0.022474519809100663, 0.010632981649064305, -0.02987845261718105, 0.010663364908512607, 0.05020191509115511, 0.027561850437055734, -0.0068188934937341225, 0.00970771003021056, -0.013501580725135564, -0.00859188576844795, -0.029983469908515352, -0.030720542845183323, -0.018739804122341427, -0.05963039849449652, -0.05584426195683986, -0.06226817435264429, -0.06462135120678476, -0.048768642700300166, 0.003665542559113824, -0.03425450218416358, 0.017168034735878003, 0.0012251260138115441, -0.07030372190850191, 0.023391985150774633, 0.02895709448541821, -0.03551716453154536, 0.014502637795508444, -0.03156269144768583, 0.002044149040730686, -0.046241078925424964, -0.06615807799905443, -0.016318742844767087, -0.013525853055127528, -0.02524916318748394, -0.05546823871989635, -0.029916665322257934, -0.004912126622529618, -0.014889363771155118, -0.009817876779786022, -0.043404201214418285, 0.025056071777549233, -0.05766214566124147, 0.002825066597952913, 0.031700811519653815, 0.0096429851210683, -0.012769578391641754, -0.020831276677570162, 0.0366403806631737, -0.05080722911010131, -0.0346458180084593, -0.014198491624704334, 0.044201919911142785, 0.013563129858603428, -0.03457646457539772, -0.011087444696770919, -0.02195028866699743, -0.025374480657959126, 0.03501829715456065, -0.048236290143539404, 0.05834894356352875, 0.029906581792998727, 0.038750077292188344, -0.017257161905554926, -0.006266410093327526, -0.054073568412535945, -0.022441920701742248, 0.013121935773431393, 0.0400826937238372, -0.04631096139675333, -0.02046430585079684, -0.011446832982923828, -0.053242780587442966, 0.017688280062770692, -0.028301045860476288, -0.00792194943416514, -0.016206982723049296, -0.028189349699747065, -0.0002500391903224872, -0.007700342091715084, -0.013280638652809484, -0.02601648648858367, 0.01141159538510555, 0.059057759589010175, 0.00500528607376472, 0.035604811018400004, -0.04942703727991641, 0.006375412270070413, -0.03814115117724452, -0.051855281709309864, -0.02504123241256028, 0.044459969237910006, 0.035411306624168915, 0.009592544026922039, -0.053337478978040455, -0.004842622927298794, 0.012484949048776318, 0.0063322024603623345, -0.06743136890352291, -0.03335114916941585, -0.0027105085963506437, 0.01917761395449386, -0.07829376821660307, -0.005774499926625081, 0.005107534873948822, 0.030343285304150466, 0.024744913722765594, 0.0208061185288859, -0.02856930381078336, -0.06814293346868955, -0.014037598466478606, 0.035772565186020004, 0.04976884709555386, 0.025386352888390046, 0.015354899661348467, 0.013603270515975244, -0.01979236229056662, -0.004509302260559853, 0.05976199177838629, -0.03342968096773041, 0.05821843423418951, -0.01106891275789075, 0.04782145546640135, -0.04970057338150597, 0.021769382272944046, -0.02591139744096404, -0.05035290939101483, 0.008016270231449513, 0.03612517112198718, -0.030178436051926886, -0.053524478939187825, -0.0032776129458079546, -0.003122690313470754, 0.019582843841232107, 0.033914091834446006, -0.002121970759731932, 0.2480389268223546, 7.141518584187613, 2.859624002739037], [0.06626797552836654, 0.008008383733403276, -0.012372375214532128, -0.05755597711081528, -0.009380697154148847, -0.012013819478969151, 0.03429659986719537, 0.01651727228810193, -0.04212032577259347, 0.0061519423718227675, 0.02398325613318048, 0.054572548549565454, 0.031694576135918674, 0.027171927379701588, 0.0021494882957276227, 0.013868434237839285, 0.044625175025219954, -0.047599192767130344, -0.012479975972034141, -0.027591741027008603, 0.01354118281164729, 0.043936506273242415, -0.02132051024003835, -0.0853680131239085, -0.014722169465159647, 0.032624061857764515, 0.0192010679624957, 0.015292365993234861, -0.009999760781231418, -0.045679669150706655, 0.018403368629445263, -0.029795778929808024, 0.07800285663295037, 0.02037350043248553, -0.02073743937692681, -0.02184085337900883, -0.00335816008834599, -0.008606509400884406, 0.03979873872160425, 0.006565890655898674, -0.026184900530267313, 0.06743704804138265, 0.001857583066573916, 0.027672355952665238, -0.02167854001068509, 0.012771919888933775, 0.01088066140661918, -0.06764495003896538, 0.07184897318461338, 0.04600537086743249, -0.014227348397289345, -0.03937344212984594, 0.012412914778698287, 0.003096346407657021, 0.012702462448686763, 0.006842049864074629, 0.018080035332354503, 0.05168948926399309, 0.020289202382297238, -0.03748769638964075, 0.04865186699486427, 0.05859367582544121, 0.1125040923569404, -0.04054825349106249, 0.007945095159671713, -0.0749846870416848, 0.01925862421250727, -0.019596313356639077, 0.06798647222312701, -0.030205751375080633, -0.057901514179447916, -0.011638482194711242, -0.07388849410890533, 0.02143834519706437, -0.07883177096399435, -0.0032350763304669645, -0.07726025043663916, -0.013574039366984252, 0.05758279554468574, 0.012556760677992072, -0.03094365260269588, -0.0011383469861274914, 0.0006434597158730923, 0.016879655208693056, -0.04881637011717237, 0.021163116923118952, -0.09658340104852932, -0.02250357835060435, -0.017440645742126015, 0.022607023214555603, 0.0011360775672868589, -0.049476208104419085, -0.0335532422478532, 0.010019395593318657, 0.0031280319237000447, -0.014107370106184356, -0.012208736990871865, 0.03365595083250084, -0.011025939830409767, -0.002868930066992992, 0.06426482540174541, -0.07829002348595779, -0.09559982011839162, 0.0011979774087666024, -0.043883057086031345, -0.021356669377975944, -0.03187856241213044, -0.011278874170101453, 0.05599349966556416, 0.028438259105585464, 0.030747282105280185, -0.050579537706880194, -0.041112633448316754, -0.10139566641019382, -0.0288953815203567, 0.03417610563966766, 0.018474827603888085, -0.007814221747970748, -0.0003444770131154874, -0.024740775105314496, 0.005690153402924042, 0.027505819227503895, -0.0496825727988884, 0.034686622941366416, 0.10246762178759526, 0.10983359146976522, 0.15142273675403758, 0.2078151630487541, 0.09787568030359808, 0.08716708408164657, 0.012984627863231287, 0.03681387175137948, 0.03436166293880456, 0.009449070880651752, -0.03792406690428815, 0.003852819465184571, 0.04965544288999677, 0.015136893651642811, 0.034287194572999044, -0.008476629789815648, 0.02678215140798965, 0.009973851364875925, -0.03395075660029983, 0.011414436046352184, -0.03555032162195726, -0.022679241977520484, 0.0071691214501029546, 0.01214296112679149, -0.0390811933397939, 0.04663260384598717, 0.04498463463739957, 0.03121127508145509, 0.08172633662283627, 0.21708718759480086, 0.2288342736898479, 0.25420737640038127, 0.2048043454757944, 0.10478585995299908, 0.1128084283144333, 0.07504840528710569, 0.06468347610860928, -0.015598439886350528, 0.04707053340628813, -0.07990525449152644, 0.039742870876337155, -0.010803031031437208, 0.03027168627482593, 0.00283133175135085, 0.040698412000909616, -0.013834365202810565, -0.039235933264150695, 0.05064458596168544, -0.006247833216473415, 0.00813167788006409, 0.044570246258488655, -0.03372470685311075, 0.02951512096356613, -0.004806223377458012, 0.024272887116228423, 0.05478751779756442, 0.06752720966286357, 0.16866656611914366, 0.27521919741085804, 0.24833501878539996, 0.20266665857082455, 0.19412958185475557, 0.13656410602190897, 0.14849039746322074, 0.03387637540110742, 0.011276615670294138, 0.025488211214279025, -0.048701633839281964, 0.03902221701069073, -0.06068325798627961, 0.05635775630747714, -0.013497788419145878, -0.008667812422331491, -0.06751450510115016, -0.016189869817529845, -0.03750302740127726, -0.02363649380606915, -0.005375421727602915, 0.03538558770125059, 0.017249192865412093, 0.021305006973834875, -0.02321216863119076, -0.021248807364340486, 0.0761074051153442, 0.033447032135852, 0.20099567361721052, 0.18944974953165683, 0.18600913968153027, 0.20766576815574128, 0.19361866353607882, 0.13065540920551844, 0.07015851399070343, 0.02806911711555295, 0.014491527792604948, 0.017151946620589883, -0.02820716610421776, -0.0014673412582093478, 0.04802636233879275, 0.010691324874898834, 0.01100541587670573, -0.05424602081599877, -0.09397302099961025, 0.01389432047166798, -0.0036877450107738706, -0.01845503995174703, 0.010858443630294952, 0.004601385975325296, 0.061251282402701, 0.016020017826272614, -0.014490608050431238, 0.03609172947986304, -0.02247439499876921, 0.03822981173965086, 0.08217167007439852, 0.17412311315002676, 0.22446438973870433, 0.177025342195896, 0.17555377917593068, 0.12281192883417362, 0.014609223734708089, 0.00822281069035076, 0.02625191859210327, -0.028382558757756908, -0.031252740954011156, 0.01468150521680641, -0.03516099222188058, -0.057925982399439246, -0.0057840892892402395, -0.017291926830312037, -0.03459450518063093, -0.006466198483985031, 0.017320485320349868, -0.0004784350852856237, 0.015078493968585694, 0.07069461792222102, 0.007172745886913076, 0.024974364568391187, -0.007607890047971725, -0.03767626406172778, -0.044063568157575894, -0.040450287101001646, 0.08054658177320836, 0.3340726574233845, 0.28426443602401985, 0.22502132929327567, 0.19161151205257, 0.15244912505696764, 0.08644303878251575, 0.07063743679567218, -0.08618377874740363, -0.09485021632393395, -0.03098245448581788, 0.02999794054887147, -0.06187533358023145, -0.10857258042020843, 0.020369000827529998, 0.008702043703668371, -0.03903483578977842, -0.035427780287810615, -0.034805358081458494, 0.004165452786270018, -0.018306641820166954, 0.02408146846361238, -0.08963693419703105, -0.019371908664291903, -0.04383798479141383, -0.024024125538267847, -0.0519030190316714, -0.01633373859384323, 0.013562549457343184, 0.3263702946166976, 0.42440944641003675, 0.34268707359899253, 0.1608209253701797, 0.13550163703339746, 0.0009727468095068943, -0.056296706063888036, 0.04356414491772957, 0.003445350064394893, 0.03998518328175468, -0.05035158121843219, 0.016994356010136824, 0.06680484055182964, 0.01498035381967521, 0.009877910913966026, 0.0002758147108269935, -0.05620720006459031, 0.048444867659304246, -0.021905288763771274, 0.021131412629681903, -0.05238328306706317, -0.03428083815772654, 0.047600197595312456, -0.034341948684879275, 0.011564029387516286, -0.0630680332909462, -0.12823348317471225, 0.14972631412408585, 0.4203622956912193, 0.5112229504969886, 0.26883284669582685, 0.08635970526575806, 0.09712438628564736, 0.11826809869225226, 0.0384809274785757, 0.007435781132958632, 0.04242341851112587, 0.008888618719523778, 0.008726422794966859, -0.03780686926656284, 0.008815008039325107, 0.037100067696756604, -0.029859362575000888, 0.05087412706908242, -0.0032911004339475805, -0.03158309147899507, 0.03594870737708882, -0.012136298977820037, 0.023490196616506857, -0.016479102061444848, -0.02731566791513046, -0.029854771184538963, -0.06432799453242238, -0.16917478047734277, -0.11093054843312837, 0.2366868895143515, 0.5481701239872426, 0.47795425568775723, 0.1751865574778879, 0.046399836206056026, -0.031009977107634114, 0.009534559008664815, -0.014697031994785982, -0.03351033371555435, -0.004967267544317761, 0.009794137229565826, 0.07577697330360252, -0.05232793460863499, 0.042303042926915446, 0.03517686146665189, -0.0278133836914634, 0.007257918948779777, -0.01634443613954992, 0.006619692588693052, 0.05337131408422722, 0.01818021106010078, 0.009067847836696931, -0.03477388217314652, -0.09587840949878537, -0.07691736785244244, -0.06431369333580322, -0.1761559202352948, -0.0861073724502643, 0.3275994210382406, 0.5806743162118921, 0.42479240861199485, 0.11942608063042517, -0.03426348414452228, -0.03525542163257576, 0.017378860476420593, -0.05903316422684811, -0.07103147692452104, -0.03168119683726802, 0.018973776446445746, -0.009912612193747323, -0.01661577155378326, 0.001763793754615999, -0.062340235844424954, 0.017664155015708508, 0.013692857915127041, -0.014618598531111802, 0.03586808814853082, -0.04092995720183105, 0.038019926680230624, -0.004640970692807871, -0.03581868072357544, -0.04480018314502237, -0.07990223457372495, -0.06374977878384222, -0.14285313567622543, -0.002018277137056203, 0.49266379095354257, 0.607967442667416, 0.41531987107875706, 0.0994287204968911, -0.06304890357446682, -0.01956235689856958, -0.07674646687175443, -0.0033391147936093924, -0.022771654034920878, -0.0016424989591239112, -0.03326759316334425, -0.06363431868560555, 0.017671711345221358, -0.07341747829280505, -0.01132727283764423, 0.03361230392202951, 0.006851151362435268, 0.06957984135815543, 0.0358546170887596, -0.02367094641815899, -0.0021916358062848717, -0.011351444281575187, -0.07490221782479517, -0.06638893005857928, -0.0773576392401966, -0.14336711517941578, -0.0308615523984406, 0.14382900073018462, 0.48465115591727037, 0.6287301887089565, 0.31551331545598277, -0.0054015498992512935, -0.08349078333139395, -0.048757871034999394, -0.032668356856190926, -0.033623687491216414, -0.06490417980883983, -0.01258154565234961, 0.03077526939490355, -0.02541331134149713, 0.07501836005645691, -0.01837119491983807, 0.0011987535716181876, -0.02401766184536444, 0.007967965332951242, -0.062309358704614654, -0.020508001281850936, -0.038548243712427835, 0.0031122642890137556, 0.030556294110610054, 0.014102261848206211, -0.0969899413139015, 0.05040768271639193, 0.0017417364318141918, 0.04428907201541073, 0.30553922950352647, 0.5887812702173949, 0.5380051122939479, 0.21669291626118686, -0.04179776567215696, -0.08290051582829656, -0.09972491893124481, -0.11471660768368587, -0.03756624350015561, -0.008238199125127304, 0.0026698059580382533, 0.027043444428577538, 0.015029277406550435, -0.016688943938210923, 0.030550308149637235, -0.04844555838648347, -0.03216683508973143, -0.034424128549508326, 0.038347415909738586, 0.032587128720699375, 0.018744589794198987, 0.03823437703881934, -0.03487272953640112, 0.01648485590140044, 0.0008833639356928004, 0.05116038132397302, 0.06946455790287319, 0.16219321204095008, 0.41540587099834836, 0.5971049927568517, 0.44712753589830356, 0.15526520863988794, -0.05442196145155126, -0.15471041443125041, -0.061455840986203394, -0.02628595076669765, -0.019133197159069682, -0.0845466835924324, -0.011569411763590349, -0.06924875355874223, 0.061448535018337164, -0.03339016671524488, 0.045559598368519215, 0.03379922226138279, -0.03216439002842916, -0.04045931551917825, 0.01216381900792292, -0.031047356420658066, 0.005360258787836587, -0.02162431162081106, -0.07327729100138798, -0.07556380274170069, 0.03540610419059766, 0.04889963116516999, 0.11711680743739879, 0.26204800401324785, 0.44409811557678275, 0.4842052226555801, 0.351331005975925, 0.15466093779632722, -0.07035901107068526, -0.05858980022900347, -0.034889586161569675, -0.007049620515551587, -0.08167899993633469, -0.027275569404734325, -0.013442897354681951, 0.025606464445584377, 0.03648835997010798, 0.06096330360414509, -0.017118276540312134, -0.01768716115758549, 0.04106380478030968, 0.010603217087532334, 0.04415607730935791, 0.00917551975076065, -0.041510708665396016, -0.05760842612175553, -0.06415641274154656, 0.02924148946619161, 0.08522925407779193, 0.17411820978777318, 0.20708386102437198, 0.30703950413723025, 0.32922397701955136, 0.32992603979655527, 0.3003280448674806, 0.12460222276520498, -0.013197391515068286, -0.04492871963739142, -0.023367597185404296, 0.040054387831559, 0.05088482251450571, 0.03700868322523253, 0.0638414861752637, 0.04931443692744181, 0.002794367904363422, 0.03287153667514167, -0.04923560479552817, 0.03769885999530581, -0.04266153356307268, 0.010189093304234191, -0.03144657175189294, 0.017828134378454194, -0.003181041862538236, -0.0725441909617892, 0.00834612941444292, -0.012546891842845725, 0.08326930697795129, 0.13175167549877362, 0.20918071366115482, 0.19327469168003583, 0.23317278588378373, 0.21625792399822377, 0.20564768501845618, 0.1466391083702265, -0.02822909424704401, 0.02047889963682393, -0.07538866684631876, -0.020152834539406583, -0.003351565731430168, -0.010309528763327046, -0.017660161730380902, 0.04409985554608393, 0.0085836584627205, 0.01743234627550036, 0.025033612852381044, 0.009498764327420712, 0.023493405628016845, -0.0024787147682878022, -0.04270095805392452, 0.03682492483951066, -0.023498097234269308, -0.04274588967192844, -0.010606423745660364, -0.019005482859689858, 0.046749328276729576, 0.14017117153832057, 0.18101229240154756, 0.13638433007002937, 0.14524483518974202, 0.18804440894303487, 0.1492868424477723, 0.17446689964072132, 0.10421478357809096, 0.08435736914048585, -0.01327443314772761, 0.06667500498140945, 0.04058013894900995, 0.019395796853735606, 0.03770995529511191, 0.054305719344702616, 0.02648065334063558, -0.02902742128532298, 0.0266105167750833, -0.022770304098165627, 0.007740488204591735, -0.010834013594059277, -0.008061995205081303, 0.024945251269244278, -0.0407413029154064, 0.06753607838251002, -0.06621758913383899, -0.01070194290417602, 0.06639962791310497, 0.12438529658479124, 0.13415718793982645, 0.11818236108466346, 0.14465649684974846, 0.11378673228919516, 0.21705090972270277, 0.2071154231516476, 0.16722022597753392, 0.0559256253288375, 0.051052043302218846, 0.029374590955960136, -0.0014343059691384326, 0.040271926957113194, 0.0011713577155161633, 0.03429814855837883, -0.033014063059244196, 0.06274365121327312, -0.03194611361911744, 0.007833480877641477, 0.028280689656716696, -0.020380015364289742, 0.030322743625091523, -0.04612723297079115, 0.04784516732169283, -0.002927607998773036, -0.020695468321380757, -0.006090859246766042, 0.062332900226322374, 0.04994312505333804, 0.06452927759438468, 0.08762084508749068, 0.0770004643438855, 0.1950096567882098, 0.16255772780413344, 0.22451944894451298, 0.15233060388595146, 0.039036277981586286, 0.035216004550588514, 0.04991863675787104, 0.008929860835931043, 0.054836848356598536, 0.04504538827876786, 0.036644863781560566, -0.014676518600372274, -0.03784756688592018, -0.021857148960689993, 