[[[0.017739791178972595, -0.004938010756113737, 0.02313173350359616, 0.05439392344314376, -0.008362620525833427, -0.008362034176756447, 0.05640045769669255, 0.027408383184032454, -0.01676694235481972, 0.01937714441378445, -0.016550631886159364, -0.01663320548465203, 0.008655379719020107, -0.06828804350394702, -0.061589715925527255, -0.02008109362378731, -0.036172540011943706, 0.01122311902125978, -0.03242943126861468, -0.05043941790483184, 0.0523445988900555, -0.008063439303090558, 0.0024117215959972797, -0.05088386379333774, -0.019442240161613666, 0.003961521061066646, -0.04110691347936796, 0.013417786369488283, -0.02145138178281446, -0.010417633921188456, -0.021489521865335603, 0.06615279230389064, -0.0004817393183681675, -0.03777409370849146, 0.029425289212366548, -0.04348115439967094, 0.0075931374659453255, -0.06984274037345586, -0.04710218118722761, 0.007504597801864376, 0.02694200724594774, 0.006630858919592432, -0.0036934647195237744, -0.010319016220678394, -0.05229365352190406, -0.025363754876765957, -0.016191813880225014, 0.03796888974152869, 0.012449820436847708, -0.06286436815050864, 0.011622968421013513, -0.013734949526765461, -0.02417578572521281, 0.02184558174431671, 0.03682141151771253, 0.03326000425414995, -0.029972054400808516, -0.011043299137543377, 0.011832400607589992, 0.03484167204928502, -0.01709061509971258, -0.006620284697926443, -0.039373120973405354, -0.04165467633226784, 0.03053943940741483, 0.05019462872942856, 0.0004190374899075741, 0.04071588463218155, 0.02045868090790793, -0.012966363683455233, 0.02763390456360095, 0.06913408199432042, 0.008018434171298555, 0.06333305552689988, -0.08608510008264013, 0.03569304817064346, 0.00864125091603442, -0.006929913472424198, 0.00448347877142323, -0.07069291924941162, -0.007723806364186698, 0.0127953365342557, 0.05278193016933986, -0.01850965065263026, -0.028874771531899556, -0.017919894413733446, 0.03269503592661843, 0.011760675267517947, -0.01891310545420834, 0.018429496614761936, 0.004810831704736566, 0.038191836777371486, -0.01791357573543193, -0.0009469438832080931, -0.000315395853759354, -0.03277375815944105, 0.03434461243213684, 0.04572955841301335, 0.04484090628744349, 0.039331166384574456, -0.010693498748679064, 0.023870656895961028, 0.02557068604513286, 0.004476731500491717, 0.01401580149596107, 0.022407155547890616, 0.07076907880701455, 0.007194127059694013, 0.009645845529597645, -0.0026277987684249094, -0.06851993516854682, -0.0009469241231863171, 0.00215107892646523, 0.08797156052235315, -0.006881491468530649, 0.010773009388670807, -0.0012308927743705867, -0.0412649478258582, 0.04295966836913101, 0.031108319609793395, 0.03155254276967713, -0.02596615093705773, 0.06316524276898423, -0.030260882774758618, 0.04340626162584607, 0.11504341094139046, 0.0041756092240490695, 0.024748936566487207, 0.06257062271121122, 0.038759485673115, -0.00036659664252775134, 0.047606332184595264, -0.004237646622753552, 0.0338247481651183, -0.03031283075549192, 0.04997991401291107, -0.03185047051261584, -0.012483654935755829, 0.02888574427184155, -0.04396532942177332, 0.008123569093004622, 0.046683669795801, -0.057404480924393944, 0.006552131593744917, 0.009511267160421803, 0.030604061318131336, -0.04119651960969468, -0.04437941353797429, 0.026988552049149073, 0.0183369091030087, 0.022553925999685143, 0.022464690841994754, -0.005695395862806442, 0.0369417566442474, 0.036793005710681746, -0.008374216754918229, 0.09189491651979748, 0.05237543449692746, -0.006931172178400808, 0.04505055681271756, -0.02628027104392326, 0.02861965805023849, 0.03395010782528027, -0.046297247662126166, 0.024164436605826747, 0.01080365100871763, 0.02877952333031907, 0.06773081718447835, -0.008763861285816804, -0.02691896099527928, -0.031779353385564424, -0.029091479195978747, -0.003925502738592848, 0.011885099892967918, 0.006463306163902624, 0.02290596423687868, 0.0004288651812021015, 0.053225999577447426, -0.019563291536069914, 0.07370461347750323, 0.0033420054330966565, -0.06740426636777078, -0.09207422157366629, -0.05386689796518241, -0.06643701344072618, -0.007118212808533949, -0.005065337735425433, -0.021686734335093143, -0.05152076657699875, -0.07815889258395171, -0.0330630256073899, 0.0078007055913011, -0.008903798476388565, -0.050980051615087646, 0.0037912971648913093, 0.013656580725818053, -0.03156695843549946, 0.005483505151673109, 0.001849121194752921, -0.042534157783752954, 0.00647531002554339, 0.013267320487708114, 0.03100542895056624, 0.02950270605298634, -0.060867727294817556, -0.06286695925027345, -0.04219693106459059, -0.047683607515903066, -0.05643746245819572, 0.04349297883022551, -0.076848445080952, -0.07016692652487795, -0.06484534875582684, -0.05358789450336018, -0.06403304513604967, -0.01707704239252872, -0.07126044817448929, -0.05924484781830958, -0.04529076057054817, -0.0276988318541258, 0.056860137834294895, -0.0809978944464723, 0.021051033612484164, -0.057692570964655805, -0.016844686775940837, 0.03862659313399067, 0.0008260539710238348, -0.04291454515374387, -0.03867362040370201, 0.014159312623977726, -0.03197232465750483, -0.00032625486033296264, -0.030060044201327147, -0.08468388454205432, -0.004286897919466478, -0.0716288383225989, -0.18284177886953487, -0.10745999660865665, -0.10788683962000965, -0.06148865052161962, -0.1268149128802927, -0.09140930026750166, -0.042482058799018785, -0.014847965938332975, -0.09247504381649219, -0.057365262797541915, -0.050062372104314766, -0.05612783791610928, 0.03134074507511604, 0.0008578800054293654, -0.04784048036891898, 0.032614643624982384, 0.07577920011777581, 0.035923997725050734, -0.05897732554328204, -0.026564904735031578, 0.027552363240128913, -0.039788232123591914, -0.001377370400721432, -0.002280249093621054, -0.08878037787197783, -0.07681763460686516, -0.20950942059366476, -0.14492242525668694, -0.11108800888765442, -0.11217725591163681, 0.004053319838730281, -0.12538002881126212, -0.1025125968344517, -0.07483669422831947, -0.012899152814110427, -0.10424444637719436, -0.006301499819523566, -0.03300004414405334, -0.05830662943163502, -0.005830129878063931, -0.017008698470684033, -0.03382842003969504, -0.0001566435538098294, -0.01398264225150557, 0.004039468217979663, 0.022865846521138353, 0.051964902807288195, -0.05400657312479428, 0.05763014277960836, -0.09066845528639006, -0.043254243344345265, -0.03230771009306282, -0.06084210353678968, -0.1097382533506871, -0.11910954563915184, -0.1405498254814129, -0.12381654058851951, -0.04106648069227822, -0.054967430662451605, -0.11771400927700411, -0.06215591271576154, -0.07104166378599687, -0.03257305168819296, -0.040515755048555674, -0.071056437840473, -0.03224875901188559, 0.030490605145665994, 0.016805278995126894, -0.011617033413636601, -0.0024306645926959218, 0.04426527905373383, -0.021323386780401358, 0.019531236521249756, -0.007494012827642081, -0.009183546601619661, 0.03314465370404359, 0.01399400674629989, 0.00493847695952869, 0.007304070942653939, -0.05096306179862604, -0.0534945942518225, -0.11768739414652586, -0.11283511483291103, -0.14108462588056372, -0.11697429118015526, -0.07790731248765254, -0.13128087282447673, -0.04845311469509673, -0.14196875020128288, -0.14711970244156433, -0.03635834029920717, -0.02995889089986273, 0.0015692825862599021, 0.03386354740483994, 0.024391142914235057, -0.025671697148220332, 6.326638162225408e-05, -0.02647884583857914, 0.033833151483251354, -0.005350896590676347, -0.02948222697118408, -0.01158468891004678, 0.014040768932962367, -0.025199963760962528, -0.04485590229136364, -0.01732327409605444, -0.028945386451282893, -0.07130276939960428, -0.0873384661395837, -0.07418887088207407, -0.16767804618950233, -0.17311877715442495, -0.15115916459809148, -0.1275079805919841, -0.1244245075587298, -0.08285496707349968, -0.0889329261663369, -0.1264601797910212, -0.08242292390139068, -0.07813689014394798, -0.0009009656054021575, 0.011291522036550091, 0.04222505052259765, -0.011094611570539398, 0.02423753361391819, 0.055310423118404235, -0.004540012175646687, 0.014107138201353373, 0.024648325110090522, -0.014370103739503697, 0.007569942616200235, -0.0036416696772424853, -0.015092869625267827, -0.054568018970741164, -0.032679104706009994, -0.0204906138816136, 0.008147643172034813, -0.01815908401949742, 0.0033327692989092847, -0.12368045581207862, -0.09218642983222701, -0.13319700652709207, -0.05282512720530977, -0.16386549460397598, -0.16736345391961321, -0.13605669076843432, -0.15817082091298867, -0.051758915154535165, -0.016342755472705094, 0.031135605653171087, 0.04795070911964834, 0.09768563518810061, 0.04838210903146236, -0.017805490190770042, -0.03174295873665307, 0.01768687337307048, -0.04715827117655736, 0.06536867504935653, 0.041867080968703514, -0.01944902840643445, -0.07548380589331004, 0.03185525534417823, -0.020054319523635827, 0.02992757140438505, -0.06281168963678257, -0.017214399885704616, -0.01794590526726003, -0.047853313769780345, -0.10456948353756837, -0.08589360329584604, -0.1443978905629839, -0.13996661520024528, -0.1469844903014421, -0.10943185901193153, -0.05188739997519934, -0.07024121837926282, -0.035076387748516555, 0.07709507273584922, 0.050211476384231624, 0.005209350879029809, 0.07110753871498773, 0.007607790973523594, 0.04275659306572693, 0.002429146706731163, 0.07359570177853186, 0.06265713738974686, -0.009009233558727927, 0.029354255791414142, 0.016935991166096873, 0.05405286402368081, -0.015443368310453297, 0.06251825345889798, 0.08558723834937326, -0.002655159756208213, -0.006185102652096528, -0.076447100775403, -0.05140187803038823, -0.043917760890026886, -0.02718723905032682, -0.12612119603345287, -0.0991624017952797, -0.18152770867006854, -0.1316513985801711, -0.030873800366001007, 0.028495492961509473, 0.03587463621524324, -0.038676047969713585, 0.030727818934576805, -0.02981049496520993, 0.02874032543957285, 0.014145286715996982, -0.03346954812779089, -0.018353066815194413, -0.03784482492278901, -0.002356020741259495, 0.029696023497939757, -0.032517374685714674, 0.04113698598504228, 0.03237556819113033, 0.04594309120957947, 0.07864150098598752, 0.046884877605735224, 0.04165892233845155, -0.021472097629963535, 0.03942277226783854, -0.03604561060560204, -0.0772447820703467, -0.10055714220489402, -0.1253564819454536, -0.10701507193229443, -0.0334063119638446, 0.02753045637052382, 0.011991888063751243, 0.02679377213870711, 0.03318285019046417, -0.043823231946842255, -0.029874141223363057, 0.05717369683623485, 0.060299040406682984, -0.008812144347911282, 0.020591320109134514, 0.011099264842380158, 0.10985327592134551, 0.03683396127500941, 0.00682088551914244, 0.002548622805650598, 0.008068805600604075, 0.10097403045548922, 0.0733092661443703, 0.03291852352899954, 0.04916224852927641, -0.004856356696307569, 0.06616734534401603, 0.03214619126110955, -0.04017412903943486, -0.03234701505186126, -0.07202955695274853, -0.07898005747831582, 0.026720262909896545, 0.037283590727313506, 0.008357741895122877, 0.0467292026821797, 0.017974766471626907, -0.007810951777368624, 0.06181765085933765, 0.08103096383177029, -0.04859505490756016, 0.020168770795820072, -0.023244915538007498, -0.01740585968702068, -0.02149237716421214, -0.03312633886317515, 0.019282922326769373, 0.0127212871951324, 0.07276516616978879, 0.08790527400665916, 0.08902255195994614, 0.06073606055297102, 0.05882648260706586, 0.09176002063476892, 0.06719269814184996, -0.006944446457063738, -0.020884196948476437, -0.021389612821942974, -0.09280741489777974, 0.012282939295814995, -0.03435907591603845, 0.035953424961572986, 0.0017935259480828445, -0.013695293956336431, -0.010121849943938617, 0.042174332544914366, 0.03952216206461735, -0.020752747019191987, 0.02326616428564704, -0.059303548097007566, -0.0023600187461614475, -0.04325834196795043, -0.024042110790386956, 0.0015911164590859616, -0.01331979542353105, 0.01999286589435177, 0.09045116216759969, 0.060576605835904844, 0.11629268772707858, 0.05106452784699945, 0.10336532121574714, 0.13855533844222093, -0.0006606907929768276, 0.029648976145488302, 0.030574634984850742, -0.01865076576944136, 0.005081974859046319, -0.007681614028100045, -0.00123280820630096, 0.00666892536666495, 0.06133375733926326, 0.050600476110378455, 0.06315342503179745, 0.024461671831254608, 0.008292772763464103, -0.010251157549472539, 0.014645612881959704, -0.015025363161587894, 0.010349102032014744, 0.07412329961679211, 0.030435021337049215, -0.010800362704548759, 0.05520199092670619, 0.0072407203912113515, -0.03201482376091446, 0.023216907167179186, -0.004160663960223358, 0.049208893932183397, 0.057017816191764215, 0.129999979877658, 0.09403036439207665, 0.06240630167271351, 0.05797268144087499, -0.08768126504078926, -0.0031642444228345717, 0.03286072665780908, -0.04757504228967197, 0.06394552748854226, 0.050675913509072114, 0.028168975873891923, 0.0697892319840499, 0.12019717251345656, 0.030164295679176063, 0.010864320247882215, -0.01595256983861398, -0.03035261944834964, 0.0296549895557746, -0.03057561669669637, 0.0025306582947884956, -0.01513873406131074, 0.024820826717335355, 0.02322326455070687, 0.05243371551864831, 0.013390590767111943, 0.022493442865026223, -0.0055849908639738445, -0.010929481378913544, 0.02590989332241263, 0.047228919709229426, -0.009617469086751512, 0.028188683869850482, 0.01359465332599751, -0.024434746618134866, 0.04910365147013439, -0.026612498727247906, -0.023634550475852712, -0.02864403464055183, 0.08886648914523139, 0.0586115906022848, 0.024627128170253067, 0.02156731311529278, -0.03976103205419133, 0.08761355324916063, 0.004617035752623602, 0.003907091572430035, 0.025920354285051347, 0.01723018745650727, 0.008122088953684164, -0.02698492106418483, 0.01872243883155063, 0.06727255511238234, 0.051482360289324965, 0.06119713987923733, -0.02819237409062706, -0.08641647159309686, -0.09729186623686675, -0.0917393479512894, -0.034062223011046736, -0.15033123229803, -0.03373743445295203, -0.10035490853446721, -0.07971457412614552, -0.058354096635444545, -0.06079751976442861, 0.039352882265287166, 0.011865030315415876, -0.03292026210974728, -0.033123354087323684, -0.006642556201260034, 0.05811773179674031, -0.009225673298261275, -0.05367999651697192, -0.00877653800306943, -0.009740127490988222, -0.09628897141540507, -0.002373245517061904, -0.009598591500230081, 0.02083311696445542, 0.05630235930148818, 0.02652447328310044, -0.032129394760533864, -0.07946166966305532, 0.014493262198010622, -0.12766923064923769, -0.16818743738397884, -0.1645062878247534, -0.14722390667718877, -0.1367013081735475, -0.1356141130214187, -0.10360776481743253, -0.05189874407179034, -0.04434454763740685, -0.042068525441987824, -0.011876571538101146, -0.018396119621045547, 0.05305870156541711, -0.09618654212452114, 0.03789099749623739, 0.04452694058649906, -0.07404965115743391, -0.012238842645726741, -0.013265745214135408, -0.05026430232303173, -0.02819772659636084, -0.0414151518690049, 0.058329444981747226, 0.023004177282452964, 0.022871334059565544, -0.006771212031240054, -0.09077002230274482, -0.09041296627717868, -0.07585102588082762, -0.14756790017558694, -0.0824759123484699, -0.1114430262181007, -0.10474614501929681, -0.06468923172978078, -0.05681863995378498, -0.05720761562970527, 0.00860258211334024, -0.06294877024334913, 0.00495111069882288, 0.008974922652538127, -0.014520453659601001, 0.010839975141988511, -0.04438836912706288, 0.03305411721796568, -0.006603647730106751, -0.01866867930425141, 0.03746461520846033, -0.025157554295494412, -0.050371566197514976, -0.05613484928284254, 0.019178554388121216, -0.05164658783886762, 0.05126658405506079, -0.09196552594861358, 0.03051111767381588, -0.03540599374509671, -0.053234686169955615, -0.06724217802761447, -0.040627623380417484, -0.056079833672045463, -0.013534220050528461, -0.0596643451293712, -0.04328775528433932, -0.046570091266188475, -0.02526253518940144, -0.0023047322280924233, -0.07112682634951056, -0.05448652050032965, 0.025032683084305583, 0.005912490116469669, -0.006528689324814257, 0.0007139153293485044, 0.012413632334345394, -0.01927713143962005, -0.02779659733579688, 0.00699447339634577, -0.034949322872070886, 0.0143872963127064, -0.061438075208521487, 0.03518934982802842, 0.013959348859283936, 0.004086169887363071, 0.026568207301572472, 0.047471878586555084, 0.022343743527085614, -0.07771633275596006, -0.06091050443079068, -0.03941771783231567, -0.014027662085474188, 0.0017650696082554416, -0.03774051144894841, -0.0031158797623994784, -0.0353512763515675, -0.026307512764652093, -0.05151197473122972, -0.033342900625387056, -0.04834670893223635, -0.03485878038152205, 0.03762812996849372, -0.03390710317256939, 0.09401364517276395, 0.017618496460031757, 0.006601290131959782, -0.030655635006471903, 0.02501106712174968, -0.0205648342247903, 0.0043288317713795965, 0.09136234906519791, -0.0035918476091316097, 0.04085149452790217, -0.02541472925152293, -0.001650031856956297, 0.06275285393084706, -0.024545241191290878, 0.06351000189933932, 0.02339014813935513, -0.02220386600721346, 0.01908163450801542, 0.0335890767475175, 0.02125015820311248, -0.05766277457063815, -0.026635728623633177, -0.008910795142991274, -0.0027154827242809334, 0.0221609747172122, 0.00634646431904478, -0.04769086995393219, 0.0135784946787844, 0.02180663376013654, -0.2123601810889831, -2.9229446335746623, 1.651616520473822], [0.019992515997537135, 0.03859931162695077, 0.029782934091032286, 0.016399288543872736, -0.00250591826638025, -0.05932003333985682, 0.015343507826163779, 0.007417417398682541, 0.009699244185549053, -0.04559816342215391, -0.03860916215743794, 0.03761260190474655, -0.001422709650796392, 0.024299396154752906, 0.0009913824260959216, 0.001061886428122119, 0.0335101359277142, -0.01843016886490621, 0.003432884890749408, -0.01650983173946581, -0.015517722408296984, -0.011041861552451406, 0.007933348986918312, -0.017098165059409896, 0.044848433056197165, -0.03195026079355371, -0.006673987291477108, -0.015704680652649104, 0.05167778158406189, 0.00701981344684195, 0.036851590695308384, -0.053055727608463284, 0.00953674737649196, 0.031769675893781775, 0.0028846615973767992, 0.03791710446562282, -0.01866182646399673, 0.05012079616607504, 0.08171788313896025, -0.013516662922641698, -0.01655284028556177, 0.051385283772784486, 0.055981926851155626, -0.01908736941812878, -0.015495528799888993, -0.010416498379932899, -0.04826180943588095, -0.03299207707354906, -0.03600149946826001, -0.027502522268150063, -0.0012922449585942347, 0.00833975385338623, 0.05537501760050274, -0.03565550145495682, 0.035154371374163704, -0.007642458722339605, -0.0017665610590154618, 0.024100696148807266, -0.0400973572865318, 0.013655523975559232, 0.005925284051508682, 0.01757595164918272, 0.010114693431896056, 0.08607927079176199, -0.02516290389158898, -0.02118866742081572, -0.0254294751289834, -0.02471118759891, -0.02987073781818603, 0.033505736870935186, 0.03955452771475358, -0.027439309983318026, -0.035605914431873664, 0.010855514472203742, -0.025496578918046034, 0.018362476065272252, 0.004337646770560994, -0.056081191497522005, 0.05454013076254883, 0.0639280036998507, -0.021965857779446634, -0.013870349394383636, 0.010209478240175183, 0.01194488535667947, 0.023519438309743942, 0.07179301924165533, -0.0063149265319690125, -0.028519617893461673, -0.04928097540235648, -0.02623053719913177, -0.003062343660957355, 0.05899846568586644, -0.026520275550538933, -0.003382426928521472, -0.017153140098860768, 0.018869682594519734, 0.061364634952940846, -0.05293281977966852, -0.05469582024762901, 0.004190042170961386, -0.002139530517956457, 0.039757252562039345, -0.0021196385783592135, -0.0312833189768497, 0.00988021707281721, 0.034047743247577436, 0.027488593653969065, 0.017547030810867493, 0.03774753332557919, 0.04171317750924279, 0.04934823712472952, 0.023168210271058663, -0.005968502868459084, 0.005239496991066407, 0.04310367652508059, -0.02919006851448746, 0.013137627967675404, -0.014824170625727164, -0.003858281784058655, 0.034628036269551084, -0.011091209906930893, -0.030759736438037075, -0.09927371568235625, -0.03377248312497068, -0.03558479203372398, 0.009364184073190562, -0.09141250448980426, -0.0762449803740407, -0.06521614406984377, -0.004327888553075832, -0.043816299009866104, -0.01366217921950822, 0.009253488511439135, -0.00026298987029480767, -0.018356451039158898, 0.005599302376660735, 0.03683234981951407, -0.03708910070755635, 0.004681443917911185, -0.025016359077378543, 0.0426802367473158, -0.054399532313706235, -0.019965010444286148, 0.013414821510551119, 0.055585121769651455, -0.005742727840080112, -0.029156973255275203, 0.048700396987779775, -0.08683501957333409, -0.13689940587643953, -0.0633456187901989, -0.11202666429443237, -0.1426771390944818, -0.09570931143375669, -0.12825804323465922, -0.16187409057489793, -0.1867922607267533, -0.08608540358633196, -0.06309105431924944, -0.05461283078505046, 0.037294443543175, -0.05795577760917351, -0.06832739479527047, -0.03461766992669889, -0.008359208434965843, 0.005990656667014239, -0.009044854480648231, 0.01254662538967912, -0.04469783657823015, 0.051562495026822086, -0.002959600752585461, 0.03934335357541543, 0.010738167325272191, 0.009547835446704185, 0.005116426606806424, -0.011040029357015814, -0.02386520596778286, -0.01840027697061018, -0.08185337352231413, -0.08660536418449648, -0.13135001148219044, -0.08644347243974762, -0.1665641710279415, -0.09406702126830473, -0.1644806771200691, -0.19593942669117334, -0.10607181323977237, -0.10176867459546889, -0.023178128637091306, -0.0602111433112109, -0.04466754436711365, -0.088258542300919, -0.030886865315615884, -0.09409792612113421, -0.059692710213191835, 0.026995329365009292, 0.028063808865937852, 0.015163999521606748, -0.03461046881267769, -0.002612239355500509, -0.0032600966526167663, -0.05168656689430961, 0.0323800850431834, -0.010557207444187503, -0.0624856025567579, -0.06969250538250227, -0.08980889941488587, -0.19592790161166473, -0.1397482814321773, -0.14976624790194265, -0.15929063514706832, -0.1426236445423772, -0.08174951755972307, -0.1147470001301234, -0.12665905799855115, -0.0658163711211335, -0.013883500347431996, -0.012756417059306784, -0.03521399204304216, -0.055800921497138514, -0.0006805003808049078, -0.0005700796007404284, 0.02845984474584692, 0.022536710410499296, 0.037470994324621774, -0.019176828713038715, 0.04704448827737522, 0.00650121061469597, 0.07172172473053601, -0.03697346050068591, 0.03222816401646432, -0.04070561428398058, -0.07444166534473032, -0.08518749707787733, -0.1117340302132423, -0.10326690346157892, -0.09631317814868248, -0.11084417020712901, -0.08054913801305658, -0.010885429883233325, -0.04392309450823674, -0.09046397507824529, -0.09133741300427897, -0.07805862643841935, -0.047076561762086355, -0.08958382219031037, -0.05163975783372621, -0.09804924090365524, -0.01534674244229114, 0.008362791130412245, -0.020150555642528552, 0.05612087611620082, -0.04377826823362419, -0.052440955168826395, 0.007537939354026911, 0.0366964410989722, 0.05803359186611269, -0.028736026542726244, 0.010705489842683854, -0.03440398275306143, -0.045553548271702736, -0.02864650205055052, -0.06498795768063735, -0.15511877382385655, -0.034816299889321986, -0.01696135123009419, -0.06583892669862115, -0.023318304000871825, -0.03561778490015772, -0.050487693064494465, -0.08338978919402958, -0.08568333162674228, -0.06260213089169973, -0.014453702409676212, -0.027737603102173505, -0.054368572459356584, -0.004287554169741823, -0.11983950708277333, 0.037721854317553406, -0.06224610610998673, -0.012945160734444768, -0.04018693378935941, -0.04686764732201801, 0.040652839379473095, -0.015257385604728066, 0.0065883588780774605, -0.019166258663161635, -0.006225963381139125, -0.026674880744009196, -0.09277176806834495, -0.03560745288729342, -0.0965051987487393, -0.13360691208022027, -0.06853422269502021, 0.04287431079032675, 0.03696385979657965, -0.025769562463191807, -0.045070169143734636, -0.05558891165089725, 0.036091786548284946, -0.030626992725714574, -0.026196737519735537, 0.0017256943615752806, -0.018596450122335077, -0.028314359109016737, -0.017677071112304304, -0.0034939333543019565, -0.0014082184885695229, 0.025985850936444573, 0.0017939779055928676, 0.02581887616584823, -0.0015604391895775644, 0.004903612745878952, -0.07310425981052264, 0.01518479007553637, -0.006330765874971673, 0.010932318807469359, -0.1483262892528892, 0.01198260283324687, -0.08404987038949946, -0.044348643028277686, -0.09120572610863142, 0.025428710469974403, -0.027400601330741802, -0.033152333578348306, 0.04829216056071378, -0.02740121739879397, -0.012256021984473646, 0.005035480179378387, -0.013446126391964934, -0.027170469039694157, -0.008452339832190335, 0.0734244477481232, -0.008879330312156543, 0.0067816895104414795, 0.03750075039258522, 0.03948314273260368, 0.04238401311154674, 0.022731913004775447, -0.037381641024207816, 0.062452622347438785, -0.042812244625773425, 0.0004585513999836679, -0.036593423071500215, -0.024332992728017273, -0.026344796231275867, -0.05118813140868289, -0.08345529607730941, -0.0541415266477768, -0.0451559513867793, -0.014941487306005983, 0.021482019864074817, 0.022147211790755517, -0.06801853455366559, 0.0028174063785396815, 0.0026089624601665397, -0.030968230802928556, 0.023032623236213683, -0.03482768588922559, -0.01677608274593235, -0.019504193608658786, -0.00282782344296681, -0.03938114293498601, -0.05145996335540844, 0.05694684373534457, -0.030251180382466183, -0.0351933116533115, -0.07330073970677702, -0.01625639621657202, -0.04535008155939557, 0.059138698107260114, 0.02754603031826362, -0.04143715470602429, 0.03824894586565312, -0.03926888364172335, -0.12124684525291216, -0.2065862237116921, 0.01746047250387185, -0.08165281031386369, -0.0980414040675988, -0.0009751441754211386, 0.05556565287511459, 0.02716630239667299, 0.0006335728104493503, 0.003159563187658156, 0.0068512443779518645, -0.0008537544739705789, -0.01328814976039904, -0.009146579198122133, -0.004135372347052526, -0.02713847834229596, -0.01010149152897308, -0.06048051712811102, -0.0035149809859850688, -0.03493586791061417, -0.03571373721837903, 0.014214467809611383, 0.057108819194379094, 0.04126898697578926, -0.0537765986268791, -0.044636547833719245, -0.010510979061866212, -0.12329254225023692, -0.11667839554216006, -0.07545970169928258, -0.08936961130684012, -0.04109821166041109, -0.09046525158975355, -0.058755393041200955, -0.016188901849146564, -0.08000202776383082, -0.005885354044277516, -0.02201426446796299, -0.009273794130959192, -0.021311519874968876, 0.026071580844457876, -0.006709365073364924, -0.017391164047926348, 0.003971067877242886, 0.01939179622193591, 0.001739055833754077, 0.0014396688282948514, -0.02491913399707214, -0.020683334930794748, -0.04515817733453905, 0.07063556414045649, -0.03579775971327951, -0.022003705660126254, -0.03856268458775724, -0.013993770610679199, -0.08646452633130514, -0.03527907308681074, -0.08260231157798745, -0.020628616724223545, -0.05588455025822454, 0.0642779258171016, -0.0672091641358204, -0.028766470090443926, -0.028762954779752894, -0.02337152449240819, -0.04371130363872744, -0.04738979744433595, -0.032101593623927414, -0.028299108043792633, 0.024175608782831433, 0.07629916940420808, -0.020474347504100265, -0.04896835293151769, -0.0031536557259508684, 0.0921208018996437, -0.02887923763072051, 0.05930558406751334, 0.059196734046881326, -0.023629726912016383, 0.015700566472021116, 0.05047324678718679, -0.03405359698947978, -0.0480717440333264, -0.08353173055016394, -0.10417009575475387, -0.07167282042235018, -0.04965948812382132, 0.005120413590499753, -0.025375485779001793, -0.012638577340070789, -0.1143047794437217, -0.06258902221331897, -0.041141081274030794, -0.1365885617390256, -0.040392385605601856, 0.0055525398926490966, -0.07416811029860522, 0.04474200834570222, 0.010221713204618855, -0.025909792815335942, -0.0020537175098876473, 0.019940246875775797, 0.0027243068632700636, 0.018973198739427623, -0.034926004197502254, -0.003092808580242878, -0.07148193710294948, -0.037607673557372025, -0.06829695588587928, -0.06749874264639187, -0.01037733773808936, -0.024427080979609456, -0.045859211231439, -0.07328293981590234, -0.0035224295836771106, 0.06015830691201822, 0.0025367698299707765, 0.04565016999129833, -0.06760874694479739, -0.0953963544607324, -0.11052747745415063, -0.08423618808326871, -0.07885655359098152, -0.02767988517361579, -0.002327629281657718, -0.04589990563848804, -0.053940919501550236, -0.06623579815799514, 0.018102972802170793, -0.03940441467762505, -0.07688768872440718, 0.013559508524108636, 0.08494389054206664, -0.017048637840644934, -0.005143723234574057, -0.055868525210579584, -0.07532157489367684, -0.04226255993368125, -0.10098080985541154, -0.08522724171748826, -0.07108729564694831, -0.06341402497844487, 0.03761651559483628, 0.0018863833429000082, -0.05059028837860047, -0.053750154372155336, -0.13884354343503053, -0.12216285235408639, -0.1073833044150113, -0.053084934512744306, -0.05731186704968082, -0.05560484233327512, -0.005315511021427542, 0.031326475082942916, 0.014698508198523431, 5.8257476210465434e-06, -0.04685031944018027, -0.038039330352442106, -0.010915476180727733, -0.022491590809946966, -0.012044312257682259, -0.01726144421950655, -0.02118583465741925, -0.07343724564185097, -0.07917144019145342, -0.11556191704070216, -0.20398231058660618, -0.16362120595156393, -0.1120450838776962, -0.11350703435964574, -0.0055668357366133285, 0.018561263895374516, -0.024881808031249196, -0.10672819702051616, -0.06707180870234986, -0.13189573631282392, -0.12525955245235212, -0.11481740090378083, -0.08036160166204907, -0.06266219347432303, -0.02247550978339161, -0.01062424157794483, -0.004206631233706301, 0.015237071823494885, 0.04252470367806498, 0.03391264769433299, -0.053070136695627684, -0.0921293289462739, 0.02788004775618646, -0.06581615338062655, -0.046079534969397914, -0.11209438136195156, -0.17022426449453829, -0.11991558747175851, -0.12487598358280842, -0.16376291032355, -0.22842641655106108, -0.13425668285492728, -0.07117711356218473, -0.13857399046891075, -0.09755655316007826, -0.1273874926245301, -0.11514222101480803, -0.13378304630160265, -0.15025337188796498, -0.048728147901225205, -0.0666876682742157, -0.038148099821857996, -0.05698553450159563, -0.030675417688899944, -0.03459335161141541, -0.006435666881655911, 0.06113078296996585, -0.048994638288455496, -0.057642906137231366, 0.05201403777598152, -0.011469887574793268, -0.035789116704617846, 0.01155768332667179, -0.07783473393310718, -0.02635589585287221, -0.10502005120411621, -0.1665106657044979, -0.07609104159980562, -0.180479312766967, -0.11892301806295152, -0.11919748961298, -0.08331124948432857, -0.08276251066125934, -0.13638473194030298, -0.1589477139282678, -0.09808009083219923, -0.11695086504977192, 0.004719553577407039, -0.04028302051598541, -0.03801153516265823, -0.00875642540741257, -0.055403461064817486, -0.03723529099604807, 0.04271079268446061, -0.023460495125072384, -0.03738790407291226, 0.019165346481765554, 0.041918262678145614, 0.023192306546208432, 0.029480034132109166, -0.04259057848521039, -0.08856990230301569, -0.015214525111183541, -0.1129328398443477, -0.13576205365690044, -0.10239764982107605, -0.15199083072837838, -0.15542204274932797, -0.0763901196260325, -0.15590880030107518, -0.0880618113191958, -0.09824633038592386, -0.07092518710814452, -0.01718604325830455, -0.03340882490342058, -0.021130830513551777, 0.014956509077442991, -0.024987178863451125, -0.03842050808129605, -0.04182445094552209, -0.07154641031301397, 0.07347091490702472, -0.039400271382189635, -0.007901915128063285, -0.009886189281747166, 0.010858813180839385, 0.028161859356967304, 0.02809286873676614, -0.027211660150408032, -0.02275223964061268, -0.024568860378296243, -0.060928814012132425, -0.011381853260927883, -0.08008307703519228, -0.10327421481742469, -0.12210147902823776, -0.08602173330343747, -0.09404416954323012, -0.11575491102912476, -0.030530254367588393, -0.04476292637559303, -0.03844842185254605, 0.009384839089429357, 0.03596429948287668, -0.0008498481539544413, 0.011085300841380583, 0.05953490447241514, 0.008338731122963176, 0.09208076038349537, 0.020252323550881645, -0.06288438425556492, 0.026905057896590444, 0.013612799460099205, 0.04602684485681095, 0.023720319027141192, -0.005974309191906479, -0.04506788318862995, -0.010758670381557327, -0.03852786056434064, -0.036336375425180575, -0.0012436348511147969, 0.022014147936298085, -0.0430170488324222, -0.11274726244659525, -0.056579665140975906, -0.01785410802832776, -0.05534082642351879, -0.016773126825635504, 0.006529564176592332, -0.022954346369578677, 0.031199945699353398, 0.0008387392221277995, 0.019180413054877988, -0.027425942891268616, -0.013313411254684285, 0.025807704922537054, -0.013381322389743834, 0.061659348008573193, -0.014272720914807226, 0.008024454491138783, 0.033306815424038926, -0.05066002326930964, -0.06294407216222778, -0.05463771602993272, 0.04519591152828315, -0.01931634601102957, 0.09171634718194437, -0.021471424965167376, 0.0034398177349278538, 0.049314377791570635, 0.0626719288236944, 0.0643771445392056, 0.03345825010901408, 0.027918319018038727, 0.016037461250296422, 0.02722640598355475, -0.020838108030197932, -0.02794434796646032, 0.001390266125995768, -0.005688435684116859, -0.013515839117017937, 0.027378798742329867, 0.035437546709623235, 0.00309369587339014, 0.05275272641957025, -0.0407956160955971, -0.0069164092599899325, -0.02560079716438589, -0.06666202203832357, -0.002952881637239259, -0.004347934799970399, 0.054064952423971094, 0.022595076383080386, -0.03645170828577774, 0.0661755566274732, 0.043589829893114065, 0.021158680088818504, -0.007440706353954551, -0.03422165255365133, -0.015607318386174185, 0.035674414231328215, 0.06345816219568123, 0.051630405973839257, -0.020870308802554183, -0.04306427216113957, 0.0029768355977385958, -0.06551786480595588, 0.009955562828669053, -0.005410942098230889, -0.016660044177828275, -0.0569534158664105, 0.01834212185988689, -0.01902488805098521, -0.041782744132510284, -0.10258079333148747, -0.0009826751803798661, 0.06329469988106229, 0.05933068623385249, -0.016324866306652565, -0.021508474379292455, 0.01673769020575382, -0.03566330889002102, 0.01076590528140316, 0.027355511106319855, 0.043816482437853674, -0.0036141363454348006, -0.007413199571115258, -0.03190906426496973, -0.029872115404959307, -0.008443630838948819, 0.012571632991305908, 0.031970377027549984, -0.028897966402858632, 0.053144246670257314, -0.009923122021419418, -0.0010003171354575561, -0.026682441208779262, -0.08657866268144115, 0.03157320206003347, 0.026315853467586903, -0.010047412754221906, 0.0023925256151739968, 0.018426400632289265, -0.23847157823203552, -5.7835658336192015, 1.8509733896198324], [-0.05580520917451938, -0.018894738476653385, 0.02836659570077954, -0.04479605082747319, 0.010484211863093902, -0.048449350165121606, 0.016658213658340224, -0.0012729100820529846, -0.05768327913948248, 0.041597834087756115, -0.026235413457073177, -0.028937587036227883, 0.007151177464534183, 0.04100190523061573, -0.03627330093725429, 0.002203103852807435, 0.015314875011806176, 0.02475377168796943, 0.006301484117043756, -0.013108137110118653, -0.02955679359459713, 0.003076567251656241, -0.03829067899948596, -0.10433394583909311, 0.015591421577059564, 0.03228338718164983, -0.08439044412649423, -0.03606181088249777, 0.02211265217875706, 0.07348198106113209, 0.000742632416978853, -0.02600010504389765, -0.0065322757009283325, 0.04910144314723394, -0.02308850058572275, -0.028589843235701174, -0.017289828855654634, -0.0341438647264332, 0.004146254277018424, 0.057610847806539245, 0.011012182687792037, -0.009353353958907957, -0.010700578176854169, -0.05612106118803798, 0.031414373887034115, -0.0029510753231725847, -0.006615034083081004, 0.11389707895284383, 0.010574502780952167, -0.02689407941435605, -0.01526492294875149, 0.04099649753716523, 0.004045371804920159, -0.05136707065419167, 0.03282960480625727, -0.023862288769249784, 0.06690349200776947, 0.038573145204094585, -0.015975926125469324, 0.045747505274051393, 0.0024087269379819165, 0.03044694318126421, 0.01721969293696209, -0.03151053501696992, -0.024411938209139155, 0.03658425857163934, -0.012843017816426425, -0.016400008101753523, -0.036748217685213067, 0.011479116515237626, 0.0676421674962658, -0.047951521281832395, -0.004405820372543951, 0.047886231244013686, -0.004840326706100753, 0.014453264055162115, -0.039741627139975845, 0.013893858953551438, -0.00720938806407468, 0.03507283443913272, 0.04241071597075675, 0.092502904728591, 0.0207011847576277, 0.011635582735077372, 0.006942296484904857, -0.01261308188609601, 0.012087842408435502, -0.010558088244204428, 0.006014489537264064, 0.04704804045552318, -0.035448727786453374, 0.04097837114823059, 0.049043827412336156, -0.0012878774980895566, -0.07112875787623905, -0.017135728207872895, 0.05334585112508342, -0.002160761680893292, -0.037188347153347026, -0.01979221567493748, 0.026414305245948372, 0.017651288696403866, -0.009977378625234052, -0.013608802475317554, -0.013225901947663835, -0.03240930281959179, 0.05742499359748301, -0.01172257797105617, 0.04345719882764019, 0.054415298325202185, 0.03566492456754626, -0.015415011168501727, 0.01441893179773605, -0.0008646929426961167, -0.032280574668691595, 0.011587753731854845, -0.04215108815703097, 0.04225373979212302, -0.01605456641053413, 0.007592511233072494, 0.008817830265276638, -0.0057184727125365485, 0.02629080848025572, -0.01852306077331576, 0.013508994986350886, -0.06837094106201766, -0.010469883680524228, 0.05837068059281608, -0.03276917100393261, -0.01917926008784978, 0.02234856558072559, 0.008704798453515551, 0.012594259258010802, 0.01994596407371237, 0.026465980545804547, 0.04759337809089332, 0.018412460274149382, -0.007877297108219264, 0.024079554504492683, 0.06785022425280977, -0.004736919513663341, -0.03480461802395148, 0.0395260720057391, -0.00434504656614975, -0.07774125717873274, 0.03129449828710764, -0.01938072479360755, -0.001086035458821939, 0.02118601002726527, 0.024028237986693454, 0.038081268005073506, -0.01729004957606238, -0.001156204912225843, -0.04466005214929396, -0.01103306752865162, -0.017231781890615132, -0.04607930370138402, 0.04734528648409649, -0.003742948057441621, 0.04180474395706188, 0.03151020125382794, 0.08722092774233402, 0.016432427862238322, 0.007927393335614263, 0.010077111811439261, -0.007969636439545132, 0.028903832052732642, -0.05769291539020306, -0.03763151496951265, -0.03813603886034822, 0.033978447360276845, 0.06053751832313316, -0.004169053122493569, -0.003903542428643343, 0.005295216591442096, 0.05474033312694504, -0.01310731149940733, 0.027478889576270454, 0.05453324693563266, 0.028508538080537542, -0.012714214493048255, -0.006816456240944616, -0.1382989254040847, -0.018693442576787157, -0.04861583846330916, -0.060191825748044527, 0.024698824428776255, 0.0491830423104494, 0.0108444646958584, 0.05866764904439239, 0.08606272376704498, 0.06934541624356234, 0.07515271697868083, 0.033490618304113935, 0.005074449640950351, -0.05699695541872029, -0.008787574459491534, -0.030112128572012554, 0.07788365970258047, -0.005764785737135894, 0.0037236064146151018, 0.023333313774744822, 0.011219989141032663, 0.0831825197831603, 0.018350989042788906, 0.03898558430898444, 0.01251704897655638, -0.012430990702001078, -0.021460935022280567, -0.033838082643679615, -0.05783380841420264, -0.06819055178022637, -0.06121680141182829, -0.0006630801118785228, -0.04659091990664258, 0.03651252947523419, 0.01972617638439779, -0.0224104431467897, 0.025875961972567214, 0.010066763244395614, 0.041072743071233896, 0.06647047492072812, -0.06257218714689902, 0.0042780330676211245, -0.005735083141723873, 0.024332472108882428, 0.009195983238810126, -0.024140496282487982, -0.010715368341274468, -0.016983764138486422, 0.05517133808334218, 0.02863117723028173, 0.10446142634998096, 0.03991446429274003, 0.01889953881875712, -0.017770870190272816, -0.06640248288822798, -0.08318472124805168, -0.03159067132226065, -0.014126502645817647, -0.04659604892893649, 0.04885694622925865, -0.001372339946653321, 0.01652124876937061, 0.06121160208160166, 0.06509260482566948, 0.02869391446278016, 0.01169022906852664, -0.034719265051064034, -0.0036429900635586753, -0.002555505548819579, -0.03518267268295183, -0.004681309052802948, 0.0035487479354295234, -0.004182476148749672, -0.01775886503977588, 0.010984994371764163, 0.032833742909838766, -0.02213800808556625, 0.06546407066530163, 0.012580320571751397, 0.00677092176490767, 0.03550626558548023, 0.01908807485811419, 0.04622263629469021, 0.018779129979214656, -0.060825706070362806, -0.016479421090946123, -0.02615380979547329, 0.01480046625360078, -0.003461041360718718, -0.012875048421957616, -0.012139591494194931, -0.05369072163553983, 0.004675165867969422, 0.03554041015469434, 0.03908482235990315, -0.013341497677668995, 0.048962404264112996, -0.030749010156145867, 0.03463206843570963, 0.015887019960565782, -0.01911679702147076, 0.06793622345840868, -0.03563684768024787, 0.04527110868343739, 0.04089221266458866, -0.03160857032182235, 0.03934189347185733, -0.015332882698085444, 0.011487007806415494, 0.02763878565339266, 0.030328993318083194, 0.0349504942983165, -0.021683473908363077, -0.0980552652716457, 0.05945612184070981, -0.04224905712579231, 0.01515758287038886, 0.0015124668630420704, -0.07680609393462544, -0.04341990965374307, -0.05810631296322824, -0.013740062548147736, -0.0028157161265082264, 0.03799278113024314, 0.048065809698019095, 0.04988301262126981, -0.020068116172795396, -0.007140375767568774, -0.058132027278941185, -0.02669125292837689, 0.03991462926499789, 0.06007248622239377, -0.04827810682883635, -0.04063825478878517, -0.025316269085099583, -0.0031991091603287853, -0.004703051392560358, 0.05389103526303803, 0.02101607449147985, -0.010438982135632968, -0.043653607902783644, -0.04939452088768631, -0.004442919258537826, -0.006062828895782633, -0.04384442261281351, -0.07257485802664185, -0.061790254216769196, 0.00621261345666598, -0.02541106729203229, -0.04196456966268148, 0.017875312477148443, -0.007926263459753728, 0.04203764273573789, 0.013130108669613805, -0.0038242386490486713, 0.01619797326415352, -0.05478262336221558, -0.038443787672955816, -0.040493356927696095, -0.0009892913021991062, 0.045851696115340214, 0.04936920647155997, 0.007080032903493612, 0.02129897993917418, -0.025846378929154097, 0.03267779869508651, 0.0007048390135142449, -0.05911515830492382, -0.10299143380663175, -0.07943538117888017, -0.0563416852551778, 0.02611922639737549, -0.06171896399190678, -0.03261635229692816, 0.03257799847385473, -0.07937362214377214, -0.1461674992745516, -0.04862454486696569, 0.026905985823000415, 0.07186362630412005, -0.04426360443898831, 0.017455701789733862, -0.016619398935777834, -0.0037134449985517497, 0.09559221272705645, -0.05219366833618285, 0.008230670782857248, 0.00533473194805252, 0.018754379350142025, -0.018784661958814536, 0.004650889865207059, 0.005656175517583012, 0.04930320641674556, 0.039991712704665866, 0.02613940013407913, -0.08158191432171823, -0.0909821618218771, -0.0492837813355717, 0.04309909081988109, 0.004621976358897253, -0.06576647438355979, 0.03735890413156498, -0.047111424453379847, -0.0492881377925372, -0.06233674755366845, 0.018337203998739435, -0.0862934681713994, 0.11567711675505306, 0.037935846868523034, 0.007988609379343724, -0.0019256929678101544, 0.01021469674381024, 0.01967041293427656, 0.024531889379578786, 0.01797647782344668, -0.011459754249928138, -0.021708210266314077, -0.01555994195798529, -0.004899028358877453, 0.052777282546248555, 0.03263813646625949, -0.07876635756145392, 0.012093376865883382, -0.07080018365447621, -0.0801556692003537, -0.02551697514602025, 0.05856128593201305, 0.05580766044944412, -0.004155216180527593, 0.02985710904299275, -0.026135705871580355, -0.05185744146686533, -0.04018324546141425, 0.013985443024550093, 0.02858115634865072, 0.020921481077659898, 0.02620876309904764, 0.018438957754719654, -0.022898511701851174, 0.01541277486886754, 0.028997651152858343, 0.02792709949626188, 0.03986753137813994, 0.012468084933361328, 0.006992408632465675, 0.03520623364546069, 0.008050297759071685, -0.035457161794458535, -0.007219393244259508, -0.006680281094396225, -0.019093122246661983, -0.05475572403358513, -0.06961754145182812, 0.0021527854452054592, -0.023958861324005983, 0.0502916849429203, 0.0339127917632616, -0.008280531980452711, 0.03365181148089321, 0.036206765365763116, -0.05754165090634774, -0.033018667208553565, -0.028252470288367016, -0.031918197468257414, 0.030184140764540648, -0.0068637197224548216, -0.009446111359097172, -0.07157917981456623, 0.022558059546529417, -0.04354835156637221, 0.00045266992248641614, -0.0002762776882992489, 0.05304325531458736, -0.04300538651031209, -0.10831092178095747, -0.009717190812193901, 0.04379410153248356, 0.03464539201865873, -0.012388096538179714, -0.0631675977154481, 0.02404461949409717, 0.00953365112521934, 0.0647686469218949, 0.05785042321663281, 0.05520998100420694, 0.10723360091318919, 0.013024959257990664, -0.018640555358948388, 0.004744916255014981, -0.05846687842099083, -0.02245411628774141, -0.012206101881220338, -0.01793810484625131, 0.005516389896143203, -0.02937214044222145, 0.040027492554693164, -0.00015100013493184563, -0.000817670846071953, -0.011443755920111346, 0.0012417152934798698, 0.04217751370538543, -0.023686565124215856, -0.033780628922436266, -0.03709049774043968, -0.08527183642094179, -0.05450194429036801, -0.04533104547189764, 0.023028070632850735, 0.036132671976238144, 0.06301657519744312, 0.08038500852999568, 0.025602099211907446, 0.013575877372463501, -0.013574927568963436, -0.0023019919664190045, -0.02574059342717741, -0.0831646300298615, 0.007965266210499897, 0.058608786680650934, 0.03769649021004271, 0.035285346631382525, 0.04416628977357705, 0.003165778293197972, 0.007041204750564441, -0.022307163440818508, -0.011415196895116192, 0.023237074669968605, 0.04423595120805239, 0.013581393478689412, -0.004658130925562394, -0.020612017736957432, -0.01699990017922313, -0.10325490603496933, -0.12377609988852521, -0.036142247750549854, -0.019436400168709317, 0.02089223057045095, 0.03841338542795028, 0.010796474684898728, 0.06539244083171226, -0.015613028102618456, -0.008161691346554627, 0.017056478972360265, -0.04432003863675476, 0.04201295706769777, 0.01018897576253095, 0.034536081997112576, -0.034370838162476304, -0.055087772071744416, 0.029234742308959616, 0.013442932648173202, -0.03221049217045345, -0.03157931851559728, 0.04119395397221444, -0.0399895376139832, 0.06389702115139739, -0.011294791904461293, 0.03690593340985077, -0.02085878940845172, -0.01274138728824229, -0.0671776178366138, -0.04032953292009193, -0.0024167393800231377, -0.014845542816048439, 0.05070321080197183, -0.012661527882118752, -0.013381674051323275, -0.03821663086340091, -0.1166882323224192, -0.02095490079778186, 0.08523825064234632, 0.024245216861818932, 0.0038089150025950947, 0.0017683860098562838, 0.01240327149317661, 0.023456651443706383, -0.04177928228384846, 0.03979934122585829, 0.025549332694330143, 0.025626023646823613, 0.014879589424969754, 0.0008591212663088277, 0.025484675324512606, 0.025503507792917518, 0.002230257910662834, -0.006049343843260072, 0.006424305503135163, 0.04214132346662425, -0.06647375829156851, -0.04921150708321789, 0.02078577030491668, 0.0012323403261727908, -0.005673225147284672, -0.026040720126060297, -0.028595474339789276, 0.04743361476533409, -0.06131240612926497, -0.02258877677427804, 0.011839876751627962, -0.05114802690929157, 0.0037261316292227726, 0.07364628968114643, 0.011495635660011503, 0.011386930397694658, -0.04481641161910864, -0.022010405269256978, -0.013400666344478116, -0.011356277277320012, 0.04539907420092921, 0.019043292517488326, -0.04039334454246673, 0.007445119963755918, 0.01727806250919308, 0.0446401592345684, 0.06013099622117445, -0.035207404484968584, -0.018162020861972775, -0.016432508590134953, -6.361777890273263e-05, 0.005301052322497753, 0.007898818015627768, -0.036065454960025674, -0.023054946413579653, 0.01687317769594439, -0.02161764795930647, 0.09205399576517014, -0.03776992075760177, 0.02450676131808862, 0.08473382657705515, 0.011194406098014744, -0.00026421123123697703, -0.010379919992651797, -0.00635010372664058, 0.04902991633971074, -0.07899583901730936, 0.05476454597282145, -0.0511525437180455, -0.0108716999729949, -0.01668688120147191, 0.011775607792351627, -0.06941566104264532, 0.006008299991786002, 0.06686603426176627, -0.03678256921832929, 0.03164740729925924, -0.0017862208064326885, 0.010376801536629308, -0.027155025148318412, -0.061839554154403974, -0.004420165401178878, 0.059307593237879826, -0.001557397066244804, 0.04123654852437939, -0.03063023994778584, -0.016230218298326323, 0.0260102864396075, 0.06222783677152834, 0.02028595122094829, -0.007468238498604147, 0.0013568159112340027, -0.04463799435315717, 0.021589119864474354, 0.03151189508297889, -0.016146083315467154, -0.01688149683540193, 0.008725982956334406, -0.016736900558864117, -0.005886935163451593, 0.0674012783268123, -0.020413937098075565, -0.02907617125503891, -0.03059883133009276, 0.0345110575448064, 0.0024340622366337337, -0.02932686617276317, 0.029283862659975658, 0.028192855697025614, -0.04025337433514963, -0.0856139085469402, 0.016685025049513084, -0.027976558357289613, 0.03163099807320312, -0.06661626758347046, 0.02835756522567514, -0.04383035987900442, 0.02781311778263121, 0.0012896062959205515, -0.03315551485219021, -0.014526782406792421, 0.02451137346273931, 0.0037819447541155094, 0.02087189215973158, 0.07055401138990068, -0.0560859044977725, 0.05851087702632351, 0.005573404739908174, -0.030050586231597568, -0.0416511447052852, -0.005013317033360108, 0.042433464774051514, 0.012081639346285108, 0.06820990622547961, -0.042843084277498715, 0.026368205928151884, -0.010371473691264732, 0.02406789088237521, 0.018583274304725794, -0.03201848116131234, -0.10997827544683468, -0.0055532335685447255, 0.005149983328873397, 0.006691067062161978, 0.04085479186661827, -0.03902528093092782, 0.023381470610747645, 0.04258172478909972, -0.06351407180496202, 0.011416136639963471, -0.018006422535988265, -0.002911524039344496, 0.012408488677052344, -0.017242906278193006, -0.023351831083193653, 0.0037308857600543656, -0.032611129361648186, -0.028528180577935165, 0.035559139170551195, -0.029911249129453584, 0.03804730928570705, 0.025472464433148035, -0.05160086974815136, -0.01494352756743797, 0.048070999816771556, -0.03591747651989817, -0.02973715532023444, -0.006166827759006003, 0.0006633254234111463, -0.026082837795358534, -0.030618572213908353, 0.044650407199213815, 0.05971170675340095, 0.03458947225554923, 0.002978493010048676, -0.02886538993548976, -0.029648717066816883, 0.018661218045205624, 0.014942793603167276, 0.05005709260522962, 0.02323036044771926, -0.05368194807527955, 0.03765318193214071, -0.03509236454996, -0.012115175891447928, 0.011682768303191145, 0.07426782195317717, 0.11270841247236521, 0.022041822387352382, -0.005621513177947907, 0.024001334031803632, 0.034329582982640466, -0.012018182232101476, 0.06698934595400169, 0.010606367963053531, 0.017547661017009133, 0.021948125969769593, 0.013822079476929585, 0.02924913135896131, -0.022304627569138175, -0.01968532637431049, -0.03926938449306606, 0.01568961736629061, 0.02782198004744147, 0.01634903093399592, 0.05980330119098347, -0.00019985781532309122, 0.02388363055687545, -0.03898931700497551, -0.01382498937408575, 0.024854771840876436, 0.030379086128915433, -0.010429036468476089, -0.0025053494824585332, -0.054109357883135444, -0.012499221189584088, 0.03210485818624012, 0.02085226644082922, 0.018882993391546643, 0.002594494113784072, 0.0006646534424228147, -0.022295718868694192, 0.027902005222000127, 0.016309834812652663, 0.018602489318507862, -0.01745237586254525, -0.07599612043233443, 0.03915448483381992, -0.017043140281819063, -0.030798149007863634, 0.024767103996928344, -0.0140004514256832, 0.03785487085880792, 0.022035926770596338, 0.02503906060361198, -0.3963942404453721, 0.45305692939989084], [0.02441319011430277, -0.048784132542876224, 0.04328371376380002, 0.009330376115494858, -0.01318846925879297, 0.005121016690794681, -0.06343697260351143, 0.014594743267166815, -0.0367632681493597, -0.048309653065840515, -0.05436997093635325, 0.03973887053535447, -0.02245939698616947, 0.054792941739288, -0.019151735826250627, -0.06097773530106166, -0.039875872855309254, 0.04413612928596209, -0.005567792069166697, -0.019581689160378602, 0.00571493663759956, 0.01792081200598375, 0.03990710056794502, 0.051732115353318786, -0.012848880206753063, -0.04735884593150137, -0.014766612897259857, 0.00929573237796022, -0.03441996165037896, -0.03418396124625153, 0.012278138626781622, -0.0017375839846589694, 0.001171622656388228, -0.02708786850189321, -0.008185953278308827, -0.03290183431057071, 0.03190747104467975, 0.0370875066850463, -0.06566012781913988, -0.03273203177590642, -0.052922850943372395, -0.02281671352630047, -0.002695631075321531, -0.05150397271651294, -0.03267805571045792, -0.035509848325606, 0.007700428726992799, 0.0026977238723912547, -0.02557027455641267, 0.006437895076680839, -0.01948534586353639, -0.009688304926401013, 0.059766146082090604, 0.047873608992512424, -0.046413615604557056, 0.029633300638541946, 0.028978448374699716, -0.041009403169736364, 0.029242678206244706, 0.05492517670702848, -0.04007705638540017, -0.032761333848389834, 0.03646922964777721, 0.010490737222322768, 0.02084204269749152, 0.012178735099543888, 0.014846014067072083, -0.04347245231479135, 0.04433441162553838, 0.0502556213703495, 0.004247582798745113, 0.012123028983943034, -0.04409638545592595, 0.02605240649950927, 0.027068155926261682, 0.0028755025475501192, 0.04546203014565826, -0.007975963265285987, 0.02173543947421793, -0.035994675496372815, -0.0007472562451278754, -0.0062326335716459515, 0.008046711501462193, -0.013197390315477082, -0.004695449845416707, 0.02950168469433951, -0.015597841318608389, -0.05735528740816642, 0.06250714445033428, 0.04919956734157828, -0.046278431657471454, 0.02463954415750802, -0.019785847162781697, 0.005609220626015755, 0.00598625346493589, -0.00904130576459109, -0.024944857563866118, -0.013301798110442591, -0.016724008778881944, -0.01182474699774906, 0.0118243412921598, -0.006194781224673813, 0.04635930214124323, 0.07276793283751391, -0.0035328822322862005, 0.01890588532692561, 0.023374964216696742, 0.01928187677647937, 0.0038412177748546935, 0.026610541870506207, 0.017231329851354463, -0.044202229368832065, 0.031041288013902612, 0.03168610747247815, -0.0272718599166697, 0.0013137572512159034, 0.02413249008420928, -0.009770992738529678, 0.03194152775207964, 0.07197989012322194, -0.0524183211225996, -0.08437210834013678, -0.03537775845357334, -0.022151773709414516, -0.05362703984935621, 0.011744785358975919, -0.07857991383939433, 0.0008854230418821155, -0.0342317290964283, 0.07221102785384233, 0.09804490826972298, 0.0014612477629019215, 0.008525420541739574, 0.053366103724593494, 0.00036902729465257644, 0.00491158024385875, 0.003245978276280696, -0.06820384091312266, -0.0004971746061774587, -0.024630414761682224, -0.017611529371420426, 0.05155828583817193, -0.04488574833482658, 0.02877708888807279, -0.011349146584832636, -0.016363137814092016, 0.013112360875312035, -0.008980629951348313, -0.013524634102999858, -0.015256347399342174, -0.07046734885270707, -0.08580301913572118, -0.09487100045234614, -0.08380026590199793, 0.058262042967440336, 0.004990434140098816, -0.07380120238294816, -0.042667272815466326, 0.03984614111076279, 0.05232948546240024, 0.0542864965378547, 0.01934566669789401, 0.02148326419845475, 0.030809826896934026, 0.013158887699389082, -0.07744271176849017, -0.008036011846956822, -0.030401013147246123, 0.006257550675304002, 0.10661598377374257, 0.013059840890933018, -0.012536391974081879, 0.0278155933350053, 0.007157804478145947, -0.007983212321752326, -0.00713314061790518, 0.0346799371599026, -0.08004138544504931, -0.021820701029125474, -0.08052162635778529, -0.034509994124676306, -0.10863819505456872, -0.09888425784649968, -0.09944304424290153, -0.038801881484447444, -0.021765767505876287, -0.07957013545690689, -0.006865937706485191, -0.021899997502074813, -0.03040828138972377, 0.010415209594630822, 0.006372738901170168, 0.09990035661733221, 0.02079260512123504, -0.04788379751349178, -0.020112815493385332, 0.03647778418377239, 0.07455567036437791, -0.056789389970330194, -0.06945308319590411, 0.05801582627845928, -0.003593795592148831, -0.0575676891579425, -0.006591951884166951, -0.11670226122946442, -0.025172068218042888, -0.02192592253661241, -0.012028015831652021, -0.09408052241656323, -0.08229015853281202, -0.14240348612938622, -0.11660033582039775, -0.15954944726996018, -0.12420901222283756, -0.11142968911715168, -0.0250669533567838, 0.0015532905311472624, -0.014369322945126864, 0.011086313452357515, -0.040572459052134476, 0.00044071071867270997, 0.005216514950345086, 0.0953844313714559, -0.03966341549313304, 0.052287206800002976, 0.03560051790514721, 0.009642581456216935, 0.06008584403702722, 0.0018274437827038507, -0.002953374107708899, -0.021996715390479205, 0.03069110268737442, 0.031010030162777934, -0.031183725533381765, -0.07120339654785791, -0.036999964855418364, -0.07430797284565233, -0.06670284498844035, -0.03547805681976383, -0.12402619747568151, -0.11935550434595238, -0.11453815982772675, -0.05754627885065287, -0.14205707283223376, -0.0773961149282776, -0.01818871628446212, 0.03757955721383216, -0.010269178021728715, -0.05621416673276647, 0.02796421989062738, -0.021293835780929856, -0.04246045335777898, -0.022300257112328966, -0.006689105234080145, -0.022365219926665885, -0.0839980910626651, 0.021725858775245764, 0.03148966230684227, 0.006462746977148842, -0.04695896855788301, -0.006802314063029203, -0.002150123388095939, 0.005976410696544554, 0.013575835916076428, -0.04048226040000219, -0.019808639654709168, -0.02966582486264351, -0.027516993986460764, -0.08280143087424159, -0.09285417467188135, -0.09062832885480639, -0.024105953630370137, -0.05186996918618844, -0.06499556092287714, 0.03913876363164733, 0.029716288083871136, -0.0053732641945822435, -0.010247094574873248, 0.01244678187527907, 0.01655112078325208, 0.007044478861285494, 0.011017863243276428, 0.06012708203475318, 0.031917851889230964, -0.00037454987548642387, 0.024340121567256054, -0.04737429838490629, 0.0056969000253453295, 0.06309107217679989, -0.004221755516168145, -0.03371209554625549, -0.014112131523465089, -0.02750574332558582, -0.030527577307798242, -0.04346399632042069, -0.11491550853007791, -0.09544769295660188, -0.07979690366520956, -0.12932431009003245, -0.03288153618266052, -0.04930693822905127, 0.0009107964745147139, -0.038678588281920015, 0.027456262253634966, -0.03604353904654129, 0.03450252211452528, 0.006290286519535924, 0.019769118373027424, -0.04198519902026081, -0.03201126034113225, 0.021189614068923373, -0.03803043570556962, 0.010603830602342535, -0.053041440443827005, 0.017749336779971852, -0.05592357056234671, 0.019751126529071378, 0.030674800565938246, -0.013981520821165792, 0.03598107926501488, 0.014701310558400344, -0.02832232064251336, -0.06915799421319478, -0.13159102789593355, -0.07347928935683054, -0.15625375816359563, -0.09083395063520705, -0.09104363189137832, -0.03233515955077584, -0.0378234453498091, -0.023415714570510855, 0.023630349962629683, 0.012442783038880424, 0.011668907397051067, 0.01692301879417719, -0.054794234164556574, 0.027029798801700783, 0.021851824334632022, -0.036434100650450066, -0.011038532193725793, -0.005119417515200745, -0.011589719929552038, -0.0003560913390278019, 0.03761840962777577, 0.04070555690505764, -0.03447434018760048, 0.025008478860628652, 0.05044586757919478, 0.008224149198624202, 0.019635199810632543, 0.030455494553220705, -0.020119556727057588, -0.05450705625795281, -0.04611027678629226, -0.07641815668653337, -0.06013723767022559, -0.04278402592360647, 0.04244655548789702, -0.032275924651372245, 0.05601682040980845, 0.01935406147194592, -0.050482603686717066, 0.013316443358533265, -0.07488544884903105, 0.022339726148512744, 0.03160417018703331, -0.02126152273569543, 0.0030634622355318387, 0.06550534635977862, -0.023002415767041567, -0.04794373451809589, 0.04108819043061814, 0.07295195737451177, 0.008873547142112692, 0.030595157390302996, 0.03754115429930701, -0.04630395691315877, -0.03918245706028331, 0.014028311344128248, 0.03642583532091549, -0.034730665103149504, -0.10389994491138112, 0.0059559435357998645, -0.06020702210368653, -0.029832944494039355, 0.006114657018901555, 0.05744906116001474, 0.03637705624880798, 0.021141770448601747, 0.01661235679109262, 0.0013665531488294812, 0.019925038889600993, -0.09032480458855768, -0.010627023759522677, 0.00851193295281938, -0.04176580866788176, 0.009020991280116655, -0.012971559622305335, 0.05296352089256575, 0.04445502427623339, -0.017992138362574784, 0.0036865204876305926, 0.001199580612947194, -0.01693018116364088, -0.002535627607165995, -0.03606899984651468, -0.04260728224736899, 0.018154542423705202, -0.022757227671883092, -0.09746504380663208, -0.026165871599381395, -0.05674439067409446, 0.00883387166131968, 0.030405320966359915, 0.005629439960183928, 0.023124252920550738, -0.011949167089624624, -0.0067175127405015595, -0.0078954334050204, -0.026672127433736075, -0.00630801102096513, -0.05537082558006513, -0.017731371196524164, -0.010989735795720629, -0.015430395890826093, -0.01901829738231036, -0.011194258546082364, 0.010274503021517696, 0.02468548844334448, -0.017884779515325855, -0.029063998628450178, -0.015818010925448392, 0.002512743760692743, 0.00499486883037944, -0.00445762380866072, -0.04866026033853829, -0.06991721211773175, -0.06474881235066116, -0.036654686959697425, -0.05304644276215048, -0.018498596967033903, -0.026010482803785862, 0.001619022397798228, -0.02443548604993551, 0.024848607650375405, -0.06383202076636502, -0.013482497666585321, 0.01070500905138107, 0.006564991513606248, 0.09614433462160697, 0.012055116133632368, -0.03761023180113511, -0.012407167065600513, -0.07590926110332649, -0.013822128944300164, -0.040003908263857586, 0.022819221280116903, -0.019208999256805272, 0.007332991501145286, -0.0008360297427409394, 0.07768098832025233, 0.005332138632808037, 0.08425078790777113, 0.010446698640208777, -0.0505103640757586, -0.06649595112819517, -0.05000479266174088, -0.10472005120496686, -0.016275178991357237, 0.023945113078365405, -0.010334780711589109, -0.049794597436844, -0.0021884937623599084, 0.058791374061110034, 0.04396605741561533, -0.0022744040772345476, 0.03398033132350309, -0.01310631004731217, -0.06142353795069914, -0.03688040108305826, 0.042215901473284294, -0.030672653639841018, -0.02487509366683167, -0.02737745137983935, 0.06566888252649632, 0.06361230405420168, 0.09728587552861855, 0.026200239391316812, 0.03898989267873799, -0.03444489347314155, 0.05680386015242856, -0.07384693154885644, -0.0552871632816655, -0.11229626028994051, -0.0764780967434992, -0.048924413983350026, -0.028313108666344487, -0.03653397213251534, -0.034940119068258474, 0.019836367530444526, -0.04186675240095752, 0.004072221697132417, 0.042869012626566554, -0.018371929507943988, -0.025644068231303784, -0.008240112661496967, 0.04142716167298727, 9.327650557624556e-05, -0.036181638121714196, -0.010120864364168555, -0.06131895671231682, 0.01100427330680527, 0.016855320594416908, 0.0038713666484894997, 0.0002877868900611046, 0.004880655213557744, 0.05273412745003181, 0.06490790972069549, -0.0239471342900245, -0.005441455750660813, -0.12268375120277093, -0.07396069248929069, -0.04764356450680622, -0.04497472717921081, -0.04782118092300472, -0.04516415916036675, -0.010582912422074398, -0.020825087554915227, -0.08350490657509442, -0.0785176252627945, -0.02213623574705232, 0.01632892672635229, -0.09812503616909929, -0.017876268529559553, -0.020475269563702315, 0.03979018770296859, -0.03394694355922333, -0.013592917665585891, -0.019945752819984813, -0.09291394615426678, 0.02311026138761416, 0.023101007690819443, 0.04577355350384642, 0.17955774203032807, -0.033660295917557106, 0.08299415186182768, -0.004205859658472751, -0.005023434941189691, -0.03825093013572518, -0.05427227053998536, -0.06838727432623912, -0.014859682271288562, -0.07676413749076566, -0.00013113824893894166, -0.03611987553966532, -0.05357901553382651, -0.019040600825845817, 0.042814792614674795, -0.01950421244663758, 0.012791836454451257, -0.026105581275552615, 0.0270078754004837, 0.022380258459524436, 0.05414605053552276, -0.027925692137171026, -0.0023354228548494497, -0.022861134590207714, 0.019438030301793762, -0.0420213216229591, 0.028519467121628218, 0.0076296017511961, 0.021903365851536447, 0.03672973300759169, 0.029216907575615236, -0.0045575288634687235, -0.008839840311983418, 0.02224819822232072, -0.009289309786399273, -0.015417826342858239, -0.04586334970416152, -0.06240251748563307, 0.0035707999418860435, 0.014916606155419803, 0.04387376931745516, -0.026170663055418424, -0.009302193820912217, -0.058674743933147276, -0.01401523805674884, 0.03559226601180686, -0.016685440111340443, 0.021972699147203113, -0.014093360167035607, -0.006147686239695665, -0.06556936194284703, -0.027955215083038498, -0.14056448683691367, -0.037423013975716804, -0.08641302552520591, 0.025699254184637546, 0.019618076627480836, 0.016366867670922616, 0.05032125425190051, -0.04658060483004728, 0.043313774096431994, -0.001821961980112738, -0.040043300585497064, 0.008878521547313393, -0.06587469634037153, -0.05835763190363984, -0.04208507410755404, -0.028599378755033246, -0.04088022053418339, 0.04041851506902863, -0.009854144039851971, 0.012550181392683673, -0.02037056239864312, -0.06502109882507484, 0.009643041048728856, -0.06887097199863887, -0.0057026291452685505, -0.057605085204048036, 0.050267836406063575, 0.0039685211554309685, -0.029066403626938107, 0.009766491743225731, -0.07866330369989984, -0.030600152169810872, -0.054090585176564496, -0.05405626801973723, -0.0072641033202540525, -0.021386531750784598, -0.020184558118752163, -0.08658659297330826, -0.05802529210562562, -0.03093344557605348, -0.02003356011184125, -0.05319434663683145, 0.07659227164466689, 0.050403127756809954, 0.01988862817329811, 0.0006887442403991913, -0.008184927473962468, -0.034006890772797095, 0.002765553853805952, 0.009205447862241095, -0.04434859198148658, 0.011825824314564947, -0.006790847611489842, -0.072520585209261, -0.03990544705314141, -0.032165293134779824, 0.04028684425005849, -0.012732400172140364, -0.09736181519205951, -0.0509906955771639, -0.1291598183464592, -0.03168206367151994, -0.07098301349075085, -0.036293779916106154, 0.030018953065330513, -0.06484438844268725, -0.07337559082521353, -0.043413913084487554, 0.025266884848788553, -0.05781666377454323, -0.10447597825949759, -0.01949726371551125, 0.01727888690582927, 0.04150107049747973, -0.01683788490238886, -0.014700078698853222, 0.041210740509133835, -0.06677648927483644, -0.013875741970821759, 0.006762482814299806, 0.015538781998256649, -0.019729434548971664, -0.0010552556144498724, -0.09511714013705708, -0.03376514581170063, 0.0023620320677308067, -0.06037073436969905, -0.03753247609456725, -0.02565607165890817, -0.045877596644939976, -0.013412596475042218, -0.04972421628546663, -0.019851708791036104, -0.00034555367510624593, -0.021005233633553735, -0.04500098141791856, -0.00441980919564573, 0.019426230272327594, -0.07837320956210306, 0.03783701995949446, -0.013599280582523708, 0.014452526296187576, 0.04275254727326104, -0.04898470519366932, -0.025337178658126663, -0.010305310566989457, -0.027991197183015296, 0.06195364885607634, -0.030565677737340896, -0.020087264279758283, 0.0061909702839633395, -0.045483505800884616, -0.01979405954044239, 0.0013139010148461847, -0.03199167945957683, -0.033511818335217027, -0.050281186755306385, -0.08287422173545632, -0.018570475748273012, 0.03465881246803524, -0.026774296597096073, -0.026842065526108936, -0.008054365189247814, -0.07285799330033853, 0.04422436043781216, -0.0009449612292612768, 0.05297792670477017, -0.028534984877970803, 0.0646642635956776, 0.02762285258573591, 0.019747915545971054, 0.008361653994534757, -0.008876022074087477, 0.04287613065978116, 0.0050128524945731055, -0.07025248941382688, -0.039903861487448324, -0.006751768547181072, 0.010797514684021639, -0.002743017318237297, 0.0425177373240615, -0.07169840010453785, 0.0005527907980895284, -0.07114830070909997, 0.020361679730312696, -0.009744204519755524, 0.00532061222958668, -0.04240899891524452, 0.03782374279855626, 0.02827314939749454, 0.014478550414795807, -0.010013825228810827, 0.016376073917423743, -0.027271053934874834, 0.029879099162488834, 0.05883253460946854, 0.03820355356498974, -0.02606241067194482, 0.012907499777844509, -0.04618362656280885, 0.02044251111341699, 0.01609297903080496, -0.06677915498329157, -0.04149228013972728, -0.01011210345513454, -0.010746493668228673, -0.043200430584660075, 0.013875565310377503, 0.00891500622783253, -0.007006268802229453, -0.02701524372546851, 0.03738180622930357, 0.059023645868648104, -0.017586149255153852, -0.02210825110990122, 0.016822833313098196, -0.013173582972645705, -0.005586784292557226, 0.02642796808102973, -0.0682657385803341, 0.04670721920540114, 0.002468144337853826, -0.014737284477865726, -0.003209298278533549, -0.0013431132494623774, -0.0618286179801759, 0.05339065098047271, 0.0014759154382363738, 0.015821504658834827, -0.12074943573260234, -2.2650717830332208, 1.0133883652256586], [0.033983920377644396, -0.036470087770010734, 0.016909710679829586, -0.009558610389242626, 0.030241813400589058, -0.07597240786969627, -0.0035390821514738927, -0.021529309135141485, 0.015437962522648414, 0.016787292406007223, -0.025272353386500933, -0.02543478086343013, -0.003941251134811473, -0.03199667053621876, 0.030073068773975017, -0.013185878840058828, -0.10382100783291576, -0.01338650202220736, -0.037090850744427584, -0.05825985055217662, -0.04419380850794902, 0.003907445422606073, 0.04745145815172254, 0.011185159780892143, -0.021660835293419282, 0.01628229268466796, -0.016396082507821135, -0.02480715604154088, -0.041227238151178014, -0.0625653145268471, -0.013925846662837332, 0.0056447674971475655, -0.003450669860221543, -0.014855301429144596, -0.03376178436839008, 0.021756805176307997, -0.04695258520055436, 0.02779894734160275, -0.035618709736773724, -0.026616842415872703, -0.05207217448742054, -0.01761992668970342, 0.03500587321679736, 0.018550783584021673, 0.035216085053064, 0.018821034810542477, -0.03929990659186975, -0.011705515873102982, -0.027745880126109776, 0.047597426633078165, -0.04271149005744462, 0.03192653805156963, 0.031891209646741754, 0.06534357863271739, -0.014631664022482048, 0.02544007712786293, 0.08148756559067295, -0.022058631319060593, -0.05482264931106809, -0.06714299601956852, 0.02546833816922216, -0.06725065260738344, -0.013238545266172096, 0.016038492104398176, 0.007281467370205787, 0.01607761001979783, 0.009675058134872872, 0.04897333896514532, -0.027974767888624606, -0.015952048557298346, -0.015781777466144186, 0.039365401997913343, 0.039391751680062516, 0.021678406936791322, 0.048297005633686135, -0.037196923843971025, 0.06254004888245127, 0.05640369182209033, 0.026993225016709935, 0.06382804580330281, -0.059093940338444645, -0.01871068166554413, -0.026260837881498293, 0.025767118705619402, -0.03750502641436234, 0.02705339819062448, 0.048945931276287116, 0.024844273787418526, 0.010136260727015142, -0.03531067678384946, -0.02907120954611376, 0.047743592529346277, 0.03313158365217606, 0.0056876884342251955, -0.005854692198841592, -0.059026114206803856, -0.02139182277393267, 0.09285911301587266, -0.014657549748601157, 0.03560812297263666, 0.05831062066562167, -0.02134341058917944, 0.02985398567856207, 0.053266497616911955, 0.012474343002856058, 0.10752956246389214, -0.057608959324657004, 0.03845942937062918, -0.005856136203238619, 0.027568774103607814, 0.015759799835840763, -0.02618414989678559, 0.00817844258783358, -0.06635537870980045, 0.02153215603367985, 0.01063572369285793, 0.022697288316754494, 0.03716188949027755, 0.013394572463184325, 0.005789852453559462, -0.035002913564713835, -0.028562714059611454, 0.04362928708176719, 0.05471679221521783, -0.008806871424280813, 0.0027776207549086605, -0.024967581971645874, 0.05866413646995927, 0.04996962175690084, 0.0923852469493052, -0.00902245494040032, 0.002168407622136081, 0.02284439310042273, 0.03374555063168975, -0.0035382174386781656, -0.03152254871778684, 0.030165148475774377, 0.025330098547460322, -0.03281742420250754, 0.04841093226851366, 0.04179281104273585, 0.00479630347313546, 0.0028347339494654146, 0.019588324492421243, -0.031311805429756125, 0.0010446649405965618, -0.07890223102678018, 0.028125385591906728, -0.06116375948625317, 0.04670412483760553, -0.021900085665331425, -0.02515203717899427, -0.04434142146695759, -0.04535673286657009, 0.0029265598035054284, -0.13755404040434913, 0.02147098091385688, 0.0008513605865396037, -0.04000223361772037, -0.04266685054463818, 0.055325488548616866, -0.028373240252726247, -0.03822298267496248, 0.03656499734633468, 0.009610791330761788, -0.03507077228039833, 0.007337325803714339, -0.03664474221547373, 0.03931504994366447, 0.03790561940945418, 0.018994710932084304, 0.011870681568496204, 0.06091295104525489, 0.0006411663261884057, -0.04242288053692903, 0.015296676542889558, 0.06525882872613087, -0.04317474696997385, -0.02484837695952106, -0.00474098934549227, -0.026619258028544958, -0.07679199778039301, -0.009687051312846426, 0.030235491027125635, -0.031221064694033636, -0.058160015653547184, -0.07811203640181225, -0.01546084448337564, 0.006851386326281987, -0.002505884177323465, -0.004078435912874707, -0.030768501577505082, -0.04579188364363514, 0.026633820110015322, 0.030891640426895236, -0.05531455928543021, 0.05678104268456462, 0.020492782872014913, 0.05051245631096818, -0.04776128964096465, -0.052330832859518936, -0.006688325185309022, 0.020143557594437304, 0.06026835657493658, 0.023532941798299234, -0.006381120330744653, -0.031045998366782585, 0.05770509555225643, -0.03493985622524945, 0.03162284123039925, -0.03303402388262393, 0.036042325772661594, 0.01660532452120094, -0.005727980977485581, -0.023032482895363537, -0.024877994801751683, -0.018896930795787182, -0.03410222470857994, -0.03763362600418598, -0.02210417490918052, -0.011703452330903561, -0.08467156183408515, 0.013736285230975552, -0.03507321701003415, -0.041185427830044904, -0.05966316540358912, -0.06225666751407672, -0.046286431156621344, -0.02804213721455566, 0.07192047431238889, -0.01595101397235369, 0.012883291365598673, 0.031241377185240053, 0.02517644033234774, 0.0283566557861643, -0.008890118398409917, 0.06483132549340256, 0.06616496150686058, -0.04360652768380444, -0.019371748146924116, 0.028689842766770383, 0.002196532181928938, 0.031220859596631477, -0.03636744298843856, 0.046052435150819686, 0.007278314275921856, -0.016520692523428495, 0.012704670420012183, 0.019031989063264802, -0.029144351684464033, -0.03132285747855489, 0.0026061582225318934, 0.030786993319623025, 0.006284035162270147, -0.05019163332731426, -0.022343531713588955, 0.0029024776968061524, 0.00968381573688349, 0.08209774315257223, -0.0303652691809042, 0.04600761516064464, 0.07953263014719969, 0.10371897310549558, 0.007236373702273231, 0.04069400067548617, 0.04716961508838776, 0.01975444630095693, 0.012228359089533063, 0.05305424989123004, -0.04837387258416996, 0.0350056852190085, -0.007240010211201328, -0.03267289607163817, 0.046862293185293495, -0.0435572262442028, -0.034252328094470215, 0.0501309152288083, -0.03913219290104312, -0.02232117031767653, -0.005357232711912195, 0.030045724901173642, 0.008567579733862313, -0.040313675980116474, -0.012391408184834325, -0.012595124017314826, 0.01315530232707015, 0.03217104234543266, 0.03288888708906012, -0.035207571180354544, 0.06226588769569936, 0.010414505625479038, 0.04412253360686941, 0.024245151683017545, 0.03496090807714593, -0.012341654848498399, 0.02373290277448122, 0.03015835649258971, 0.022486913244174466, 0.08726788655614538, 0.021243324795793692, 0.011728522229321046, -0.04736043409922578, -0.043885799416797655, 0.0035993635504621363, -0.007234294733865983, -0.027641368959947184, 0.0037426542500452356, 0.05657092270598373, 0.024850800728630513, -0.04026830884447694, -0.0014050681482682915, -0.026304478807360036, -0.007207500995305827, -0.0012721440642711433, 0.00039603679145826243, -0.02151018530527705, 0.023252864140483342, -0.01252191955141318, -0.11788168782629144, 0.04733341319175427, 0.0005455251280378764, -0.08156644362505715, -0.09489994337131992, -0.13011025618078853, 0.036593620597902526, 0.06840309276374987, 0.007091786491768509, 0.04142088052026855, 0.021108300187572523, -0.019664386853676507, 0.007429905337421313, 0.006904442241852312, -0.02284313848010647, -0.00935595753685342, -0.0044924871745716894, -0.003043453649113317, 0.0018731614015726336, -0.037654313734793714, -0.024225285397485877, -0.044554710294902294, 0.03757571776637536, -0.06693479594998139, 0.05473350216240584, 0.07268044795133738, 0.010422342580703065, -0.09089970091964102, -0.041286983155435636, -0.04759416558925376, -0.11446857109247065, -0.13640628686099762, -0.09648506929126754, -0.0876035156905361, -0.05894550552196666, -0.058825185712394853, -0.012233071440181941, 0.009873107832556448, 0.04958488874519005, 0.0188970007312803, 0.04888800726290902, 0.08316727499424345, 0.03133910741896777, -0.00022074704611019144, -0.007533245345294028, -0.01310810344793015, 0.04216497003769264, -0.022305497472249095, 0.0026983535663951106, 0.0029030590729493396, -0.01512216745522094, -0.0414544151624009, 0.02809281515271194, 0.02394642726169837, 0.0377499949777452, -0.020051128937629812, 0.023548957939093233, -0.08311977329893462, -0.04406431516887777, -0.2122409057289386, -0.13353785670459326, -0.07298493301348495, -0.049741622356144564, 0.012807650290894718, 0.04776671317185344, -0.05412661168619771, 0.05576002655281327, -0.04669801437879547, 0.006032835322602623, 0.08601175562270433, -0.009955590636940974, -0.038492539997893614, -0.006879747086578694, 0.07391185304731493, -0.06542038983859487, -0.03755605118498072, 0.0543272861927398, 0.06697013109540874, -0.0003424519936117406, -0.031983761194254993, 0.09789518113925348, 0.09119199550477337, 0.05531065809322879, -0.013308511822919828, -0.008659863255559917, -0.048517210114983, -0.09305474878069309, -0.10414911831479995, -0.10883022813687576, -0.10618552415548686, 0.03770816097375007, 0.02306770031972731, 0.049287315814439334, 0.08787929406678234, 0.007954290420803754, 0.049757783385973135, 0.03243977316763679, -0.0232619901696702, 0.024112740525191394, 0.09330732276576564, -0.06538527925619601, -0.0011369494883861388, 0.0228760953905718, 0.004323591868492378, -0.003907851350709095, -0.046127577082336696, 0.011255260658735904, -0.01002238195468511, -0.046723886042504534, 0.09135973757241264, 0.09037685195701246, 0.05217194890652315, 0.03239645252675629, 0.019059118064733822, -0.06267262617521721, -0.08994820178671538, -0.10576547900437906, 0.01625228795405171, 0.020396250430643748, 0.03808483514937392, -0.00507426596903169, 0.049511633234805445, 0.012110589537822987, 0.027192467028656044, 0.013390786935016307, -0.01236446689763841, 0.08676599314897424, 0.05072893922216673, 0.06914268493243285, -0.04361641897671707, 0.002548198993984107, -0.04625647528767498, -0.025428268288947495, -0.03357511551453857, 0.048305377242059674, 0.004297030981444316, 0.07203189415015275, 0.07947346228363111, 0.15542150138848096, 0.0294382127423642, 0.10706366129492789, 0.061435614920108135, -0.07355376254623808, -0.02679899072193209, -0.017559166894158235, -0.0018911397002023158, 0.003878905547391129, 0.012226808397959326, 0.11035893805082034, 0.029521563075374214, 0.05577444253112206, 0.005481981153660317, -0.001379227432926794, 0.058375154230238646, -0.037182511765288764, -0.011081481471745331, 0.0020689055616203798, 0.00404378995836843, -0.006396188750577014, 0.014108933713146683, 0.02402675360652286, 0.023766662699947785, -0.032888663291728425, 0.004132790669595912, 0.07211762917198501, 0.08763918918052832, 0.025916038368506124, 0.09529051757902934, 0.008656423524588154, 0.03711614076938471, 0.05781439474964768, -0.038482402468882, -0.014156683983220163, 0.06049298209241385, -0.008070448362079628, 0.024088356583361347, 0.06120599700286404, -0.003953325116196898, 0.006260255193229218, 0.041903079229129586, 0.03187769911679928, 0.024342545001866913, 0.0006239670604087694, 0.019878459653496536, -0.0036499593337861657, 0.016394284685446972, -0.017741343526686562, -0.006528011843712326, -0.03632384546756063, -0.005573891954266523, -0.030804797885098198, -0.0312750652048375, 0.030602545777970003, 0.0519935617947129, 0.07790006385121759, 0.0406665087184038, 0.06558896586945918, 0.04966369601734561, 0.03356129028149249, 0.010388452717443566, 0.04455486380342284, 0.050185456995152714, 0.051339358821105616, -0.02087835743007831, 0.03315290927000013, 0.088387469837386, -0.009883113322192542, -0.019140145335402172, 0.02679103814387118, 0.02384318597249878, 0.0564098517489336, -0.03833173527031358, 0.026571928085802606, 0.021111797966784362, -0.005076954696518379, 0.012113131963129329, 0.03492161341571424, 0.024642792151004702, -0.04732415399313132, 0.03028019615117982, 0.010994072990992216, 0.02638308518389079, 0.024669476357699522, 0.013445388925436803, 0.05358606751684595, 0.018466941455869922, 0.003922806825176755, 0.05607986631788611, 0.0664309146698226, 0.08444144816797844, 0.07203365706653464, 0.024896947948530136, 0.10602304159829234, 0.011275019521381994, 0.04244268386804381, -0.005120732299755224, 0.028234399532942656, 0.03925544017273702, 0.05461232251377053, 0.04113474027871856, 0.0315436920589478, -0.01124338316086513, -0.020419501498430772, 0.011860465901197473, 0.031179203095623567, -0.016530777646492485, 0.02802028768480212, 0.044277269026602804, -0.032239844836221485, -0.02520984946377165, -0.010055890260598182, -0.004357404432331541, -0.03249771449515037, 0.06956933155092361, 0.07992631282036293, 0.07619363107629247, 0.011133931649469768, -0.005888803743262795, 0.05318652398096992, -0.040439393046634124, 0.03824393704567418, -0.0031708854469670146, 0.11704808099035773, 0.08235334116175362, 0.0005335500417867485, 0.008368876281048336, 0.04701484485598311, 0.06305460484644446, -0.05821092567027646, -0.06379956328072128, -0.02221619903800139, 0.020783175439079263, 0.016621830575194382, 0.03130589050123123, -0.05598704297412952, -0.09804107636408954, 0.015298352161395743, -0.03963944734217044, -0.09492252293981401, -0.02342765700323991, 0.0038459036173385704, 0.002049608727459688, 0.018987627278433183, 0.033238690298727766, 0.02543823249905142, -0.024772230429636808, -0.005939350927810538, 0.01552602085009325, -0.008330521704304383, -0.002114604073767323, -0.037325272873169196, -0.004885419773765267, -0.06969736517449338, 0.019785408138490793, 0.059477327890503834, -0.05079483228437589, -0.020758711323195702, 0.011755324520021046, 0.04474373047866083, -0.016010305643830266, -0.025423675480899074, -0.07546484696867276, -0.0057568094916632595, 0.05634145517528087, -0.011994242360271266, -0.02293639500877068, -0.01808616569728358, -0.03675680795429176, -0.06158212327885111, -0.0100717413420582, -0.03277524133126106, -0.03481079601971072, -0.07654183349442449, 0.004547773609199721, -0.021550569014674257, -0.07191371164762768, -0.0017148001437640073, -0.03830909553321135, -0.03978311830915694, -0.030270648843053714, -0.05836754044289489, 0.024487771430258536, -0.06033065994651467, -0.04358323526933886, -0.07412611231302582, -0.0030711280710730136, -0.005368587866852573, -0.011667721899513001, -0.03745384800648753, -0.044922858393777736, 0.010545721890636076, -0.02988905548974718, -0.004234400829800036, -0.0517248973073271, -0.025443361096225834, 0.008545095881247257, -0.021159249583134657, -0.07071508463982645, -0.0731156589247867, -0.09228209598394217, -0.0849825797849205, -0.08916779165023916, -0.07214646963502068, -0.050166993385175135, -0.07531254500756852, -0.05733710294296613, -0.060706000199541255, -0.06341602872230606, -0.04520656964454242, 0.006965996451053603, -0.03096752978169572, 0.018265267843767245, 0.0012277139323281616, -0.07030372190850191, 0.023391985150774633, 0.02895709448541821, -0.03559182410333306, 0.01398350531089915, -0.031809675298232164, 0.00215935971964456, -0.04633226941944272, -0.06583866757728163, -0.02304113784198818, -0.016133385499755404, -0.025355225583596926, -0.058307728735106555, -0.04046336060376304, -0.01987056772216356, -0.02771424052494109, -0.017910031745793146, -0.044658439347554535, 0.023925997407589605, -0.05918422412562419, 0.006726174599585293, 0.03317120510687113, 0.012236886904324463, -0.00954257144962658, -0.019387696411167374, 0.03681889365409402, -0.05075466968973779, -0.03463205973215433, -0.014198491624704334, 0.044201919911142785, 0.013563129858603428, -0.03458737344366668, -0.011029442633954783, -0.021532697043014193, -0.023226638374304925, 0.04018568643202203, -0.04085321941432531, 0.06606828156782815, 0.039089427570457205, 0.05105229620692969, 0.00018791552017360596, 0.01610002510843144, -0.030556911660523028, -0.004191172983531202, 0.03582070938861746, 0.0630644519383607, -0.03651508749175374, -0.018840257026235863, -0.007061123635192957, -0.05036474739167817, 0.018857451891341224, -0.02670435423965521, -0.006913218745629758, -0.016189234161681033, -0.028178683021772413, -0.00023518775348249714, -0.007700342091715084, -0.013280638652809484, -0.02601648648858367, 0.01141159538510555, 0.05905776943528524, 0.005126286539470011, 0.03612278637688143, -0.048105024709512535, 0.008360735780332864, -0.03507188936685067, -0.04743834957926386, -0.020233132975764675, 0.05165436033588353, 0.04795407369976533, 0.022020486489393386, -0.04319840649006875, 0.009940458740298213, 0.026816098795377826, 0.013121117442218028, -0.06407609231401891, -0.028075516558417033, 0.0008441689665159361, 0.01925953354945466, -0.07830122320858292, -0.005778565165597486, 0.005108122774295593, 0.03034564834417781, 0.024744913722765594, 0.0208061185288859, -0.02856930381078336, -0.06814293346868955, -0.014037598466478606, 0.035772565186020004, 0.0497766390200992, 0.025417738328313184, 0.015401288941923776, 0.013678058446544593, -0.019602475468835926, -0.00403706716617543, 0.06025238086824308, -0.032864593773188074, 0.06116150752071127, -0.009249655797969377, 0.04961103282423287, -0.04737288250258184, 0.02495381743087102, -0.02485718951432716, -0.049058001985153414, 0.010940787655151277, 0.03839879001699367, -0.030137337174666358, -0.05350482788786042, -0.00327534379987824, -0.003122690313470754, 0.019582843841232107, 0.033914091834446006, -0.002121970759731932, 0.009608851257394958, 0.08764928470116652, 1.1469697312173548], [0.06626797552836654, 0.008008383733403276, -0.012372375214532128, -0.05755597711081528, -0.009380697154148847, -0.012013819478969151, 0.03429659986719537, 0.01651727228810193, -0.04212032577259347, 0.0061519423718227675, 0.02398325613318048, 0.054572548549565454, 0.0316911803271617, 0.02716935589761058, 0.0021549011841789554, 0.013868659774858093, 0.044625175025219954, -0.047599192767130344, -0.012479975972034141, -0.027591741027008603, 0.01354118281164729, 0.043936506273242415, -0.02132051024003835, -0.0853680131239085, -0.014722169465159647, 0.032624061857764515, 0.0192010679624957, 0.015292365993234861, -0.009999760781231418, -0.045679669150706655, 0.018403368629445263, -0.029795778929808024, 0.07800292747319404, 0.020373409546734788, -0.020769325853352723, -0.021911274151700553, -0.0033909876740818223, -0.008640005593961123, 0.039720510904280776, 0.006388772484491145, -0.026443559211210502, 0.06723159208730789, 0.001535521719332315, 0.027294746244874227, -0.021839063172893327, 0.012769650858786216, 0.010908022769393243, -0.06764892861969922, 0.07186930383860417, 0.04604361672771834, -0.014208010912603864, -0.03937437312256464, 0.012412914778698287, 0.003096346407657021, 0.012702462448686763, 0.006842049864074629, 0.018080035332354503, 0.05168948926399309, 0.020289098779526255, -0.03748733929196136, 0.04864932650544492, 0.05858717567167528, 0.11245064685359717, -0.041217351229296324, 0.007271522313646958, -0.07426099835127133, 0.01948744056257327, -0.021516991985204986, 0.06515209125683251, -0.03303486021436716, -0.06837009063490443, -0.025921556278503993, -0.07763040090019047, 0.020857812225697867, -0.0795413282675596, -0.003058460865961741, -0.07611453264653019, -0.012712150788074607, 0.05810519085771262, 0.012692688873380988, -0.030833825861697743, -0.0010793381138587453, 0.0006434597158730923, 0.016879655208693056, -0.04881637011717237, 0.021163116923118952, -0.09658578259001971, -0.022497247266220183, -0.017457227148664097, 0.0226038157583216, 0.001016159528844806, -0.049845239927402696, -0.03237756578659476, 0.011275416551578573, 0.0011639345959522265, -0.020287449954013756, -0.023274876702893844, 0.011951184340732305, -0.03498284193256821, -0.02086189709372319, 0.06174264406321459, -0.06818419849789543, -0.08194771563280509, 0.016895130374937745, -0.030953606113977825, -0.015540291739387117, -0.030028618864437636, -0.01048056220585604, 0.05653758627922714, 0.028608188991665173, 0.03078039070466754, -0.050579537706880194, -0.041112633448316754, -0.10139710580290855, -0.028910640780667293, 0.03416019771643173, 0.018425543835196404, -0.008246736625238879, -0.0015723539947364953, -0.025985345325792185, 0.004013799784507294, 0.02280932537177251, -0.06297197950093197, 0.006611257073266762, 0.029136979870556922, -0.020498689618264176, 0.020415070167644468, 0.0962404018661877, 0.0025201849021632672, 0.015804084515281973, -0.03235724309855758, -0.00022990765319301292, 0.01499103671793575, 0.0028300975697240177, -0.04112428657972039, 0.0025313396884895077, 0.0488579093051552, 0.01527114529934583, 0.034291667733646336, -0.008464743173715547, 0.02678215140798965, 0.009973851364875925, -0.03397444007122949, 0.011308105645379566, -0.035538230438664296, -0.022038666606419753, 0.004566042487478863, 0.008634287617870313, -0.0464359577767821, 0.03099853349468982, 0.014854399495289059, -0.025196473042010767, -0.04940638276642119, 0.005435886178615428, 0.002926541684066844, 0.016568598539063832, -0.00035673360093073174, -0.06070368756200312, -0.006889667459511691, -0.010294284525894672, 0.015051722883165652, -0.0352885941735087, 0.04680080043892748, -0.08392046444079469, 0.03651394493962691, -0.011451994299136441, 0.030279450161539316, 0.002835363459943917, 0.040698412000909616, -0.013834709182890948, -0.039274140937071066, 0.05015205688918262, -0.005927845926268424, 0.00665598779135112, 0.04042888217694544, -0.04189269285949572, 0.01596133890246983, -0.01914621652529383, 5.9902198898012776e-05, 0.0017122927432512826, -0.052972470833725846, -0.02777068821641441, 0.044512466546051635, 0.02237674323749127, -0.006464541408621604, 0.004738631506905561, -0.007897945890773264, 0.0567183628551112, -0.013242792898907464, -0.007942984016112554, 0.023618678139277396, -0.047933287572181286, 0.039511910344241064, -0.06227302756864095, 0.05556929288539879, -0.013440692696362914, -0.008668037908602976, -0.06751862701757905, -0.016309181393250625, -0.03850235670113152, -0.025428466501361522, -0.010214606028132308, 0.026881378696477297, -0.0008045046697031069, 0.007957913228503206, -0.035148429857965166, -0.03626859616846845, 0.052605261635450644, -0.03352203661725825, 0.04810109397736211, -0.036695154744322306, -0.03423609757023837, 0.013012217294003318, 0.0316998319969561, -0.0023535030885251536, -0.006846552990098912, -0.003744140027451943, -0.0010613105382481706, 0.014291711337874116, -0.02516588985095483, -0.0018715007492024305, 0.04302990632727032, 0.00985532696666789, 0.01100375767891764, -0.05424664535847634, -0.09399328656600008, 0.013676506632082383, -0.005242386962923831, -0.02285732272769349, 0.0002497777371254075, -0.01152766838188612, 0.03668463085973909, 0.004040238692047659, -0.02892874179609458, 0.024627367770723087, -0.026254417967887356, -0.0030560965310478094, -0.050994474138678414, -0.071053859503313, -0.056118994275012414, -0.04168306059358962, -0.0016948780233687504, -0.0013687420028776038, -0.05076886826911008, -0.007600739889752598, 0.021137352077167115, -0.025531748374077397, -0.033513608012567093, 0.007832958490243685, -0.04075011192144336, -0.058752173042881356, -0.005837079162866468, -0.017293579525833498, -0.03467775569834367, -0.007258720669334661, 0.015110654672494613, -0.004873956956133276, 0.004615513398048473, 0.057454872275570994, -0.010909644002723148, 0.008807554440313123, -0.019621128788695763, -0.04207840553498988, -0.04088880100607996, -0.04900396690562752, -0.03885439978178713, 0.024410708767797117, -0.083358341947506, -0.05054827267257051, -0.0033912318557437317, 0.03550939342894513, 0.0342568905850099, 0.06507583817056987, -0.07796601271115869, -0.08917898906154097, -0.03541983313858334, 0.016158170568949616, -0.07130651815382887, -0.11110609347253506, 0.020304017546557997, 0.008700225750555698, -0.03920822283494044, -0.03655471675507318, -0.03755939430334136, 0.00015053566990198524, -0.02633555834854876, 0.013302056068710492, -0.10404957214733596, -0.034597679773710886, -0.052249207331944006, -0.02901853812360407, -0.049042512440365824, -0.022843114790750015, -0.13882870823439766, -0.07034609571636719, -0.03318950838282374, 0.04928267024439485, -0.0025831049955893563, 0.043519913975161896, -0.028834580871215244, -0.04839874654808881, 0.06416975193250074, 0.0185320540563248, 0.044089271896491714, -0.05539116925293206, 0.011668553241189782, 0.06585917299666187, 0.01497822162681055, 0.00987671517776856, 0.00020810555260147889, -0.05661505900718554, 0.04719811982272524, -0.024145618869192326, 0.015072517485325449, -0.05952582940629205, -0.04561490612543641, 0.03812639187330176, -0.04033454668387343, 0.011630765073364555, -0.057621445470303866, -0.13630830571091143, -0.04588128631343145, -0.08832848482868147, -0.014914773929210944, -0.006416050363076566, -0.03586723889858148, 0.037142639554841234, 0.11812356237479454, 0.05891370796183372, 0.03610224532039791, 0.06442804233123264, 0.01657986754609446, 0.007351477184018385, -0.0397515512574771, 0.008196377490051325, 0.03700448902798182, -0.02985974881258222, 0.05086842040896923, -0.0033851572768801496, -0.03196132116312518, 0.03346975660649114, -0.011474734239314584, 0.021423488255006812, -0.021134717440980905, -0.02976033066079837, -0.021468997963209394, -0.04473263203557791, -0.14519063608205648, -0.11985298449887807, -0.03932762276443976, -0.059557704130859306, -0.052992221682552645, -0.058856090679065574, -0.035023108394412236, -0.05708571799354496, 0.022358341888032665, 0.006742863097175831, -0.0061132997400838215, 0.019103219581311365, 0.02194371853103176, 0.07929369111521826, -0.0513180799746328, 0.041711722553889795, 0.03486486656650749, -0.027824554423703286, 0.00726485541613878, -0.01638158736034852, 0.006372515121979799, 0.05101056711357724, 0.019013404312963153, 0.014000524077880425, -0.028961868450632533, -0.08865894978501514, -0.0573164907709628, -0.016360407642993676, -0.12384764274518519, -0.10430316974556808, -0.05370141982558085, -0.07950833224113224, -0.06740817572222618, -0.04542981414890035, -0.06552369268380359, -0.03608646764210959, 0.03449482500302163, -0.03436219344955401, -0.044389106092309595, -0.009969817431739554, 0.03505293472623662, -0.0029255535468067084, -0.014460215783459214, 0.0019902758914092504, -0.06224790320503516, 0.017651620873029, 0.013674026554477683, -0.014630276831577858, 0.03598472534749643, -0.04160091086754927, 0.04163507178423429, 0.007838653034888574, -0.0204931119061282, -0.023535850102813064, -0.0377054345955397, -0.0012956768936063442, -0.08785295911184955, -0.07924794272863288, -5.603521410377656e-05, -0.05336343448146827, -0.011125862985542294, 0.01602028392454515, -0.04865989473101731, 0.002683627933579588, -0.05536241127374467, 0.020864247298595134, 0.002393435844835325, 0.02181761021101842, -0.016777228790998716, -0.05607922879504575, 0.01982355986453527, -0.07291040637840822, -0.011309666192593075, 0.03360817993639081, 0.006829217293848893, 0.06945379806976182, 0.035675230831014, -0.022687775730519263, 0.011017313206179203, 0.014975746375273515, -0.040289083415654216, -0.026777467455659384, -0.023032511130636816, -0.08533373367289625, -0.017331478307230273, -0.022403573828347925, -0.06436818561635296, 0.005437974622135554, 0.004970544983166521, -0.02521112553969396, -0.05584593774799468, -0.026467619268384937, -0.011404222036892996, -0.012428955043271893, -0.04579789240353942, 0.00648918136850822, 0.04529233933449726, -0.0178949885269334, 0.07731070867033628, -0.017682807294528056, 0.0012634738327527322, -0.024017775478640337, 0.007948838975241238, -0.06258970482445478, -0.020942532469375743, -0.03583595452270247, 0.020668099284500623, 0.06612994313095516, 0.05861443710373199, -0.05089921211322686, 0.10078473138893067, 0.03126895375778707, -0.00797919846964342, 0.03298238512779284, 0.04146362468393273, -0.010869102854375298, 0.007590122053212515, -0.026605302428048778, -0.045207131296047205, -0.07127442229841952, -0.0947790187345894, -0.023387555987868135, 0.006957838233652361, 0.015820630638572888, 0.033162735048313866, 0.01885545299207997, -0.013435494955399701, 0.03145255074252451, -0.04831716376005921, -0.03216683508973143, -0.03445108378351845, 0.038148855152482015, 0.03190916980489656, 0.023100226466524855, 0.056239884789049316, -0.0023318635338099355, 0.05755422761146758, 0.04099069805290021, 0.07408751785640012, 0.04017107161688261, 0.03202298880696013, 0.07021943244596725, 0.07683117911357874, -0.003460105621616413, 0.011686252533360957, -0.03449272520355497, -0.11871745702577874, -0.0327559680927648, -0.018758488992428615, -0.017908298686127738, -0.081533406091756, -0.00992697164670555, -0.06923033443352496, 0.0632901396544991, -0.02925699454763863, 0.045992389719778294, 0.0338465484402416, -0.03216375034568227, -0.04046427430311744, 0.01188852199800726, -0.032211656901438145, 0.010642972921699564, -6.060179245508948e-06, -0.04036084891396513, -0.04346495409830822, 0.045604131396336, 0.021792218172155205, 0.02666670528571485, 0.0680870422175104, 0.08745767455157764, 0.03013249042361578, 0.011642080780559158, 0.027764421957883954, -0.06010068281143048, -0.03301366646577147, -0.020418378005857503, -0.006293203383900265, -0.09681921751056193, -0.036616863857843664, -0.023720625329519518, 0.01915919100983083, 0.031220171305373523, 0.061341300511265066, -0.017017045077827538, -0.017679438416561, 0.041059733833709464, 0.010580831376408247, 0.043959203367112856, 0.0074923477551003875, -0.036704821592618925, -0.03642988610728086, -0.03618406338856783, 0.04777691417405741, 0.06156563350833196, 0.09312818380444836, 0.06143495637621591, 0.0665384976488601, 0.004276983853001641, -0.023792161140354758, 0.026436284657876893, -0.0012979674431071436, -0.027533161713752224, -0.034504320746954434, -0.02893415320533668, 0.02450922693206307, 0.022816307507412783, 0.014561934503225347, 0.04282970464148671, 0.036802907803461696, -0.003185572842654036, 0.03110469008955615, -0.049093420160359814, 0.03770559389970657, -0.04266153356307268, 0.010187570800909965, -0.03153298466059241, 0.015317188548987172, -0.0002695293813423104, -0.0518074659307629, 0.029740267824824834, -0.006069204941466577, 0.03386249470170594, 0.009045006964927407, 0.02947601778026358, -0.03362886769348149, -0.02796516735574787, -0.04320254799039771, -0.015549652793663993, 0.006311524001966442, -0.0857422972722308, -0.011764450224244615, -0.1077966680150562, -0.0533472489546661, -0.03622493633277956, -0.03782162557434931, -0.03871006313926042, 0.03482727499599637, 0.007317616296482028, 0.015198474284347127, 0.02503709865517967, 0.00948427192249987, 0.023491465302872567, -0.002505227233182509, -0.04289966221096517, 0.034518689536387086, -0.024086482155275153, -0.03229230873900391, -0.0006671016700010656, -0.025118657557911178, -0.019501466449241143, 0.01382731669202448, 0.00998955553420909, -0.04427463598480772, -0.049465105812520574, 